{"type":"LSTM","options":{"inputSize":35,"inputRange":35,"hiddenLayers":[20,20],"outputSize":35,"decayRate":0.999,"smoothEps":1e-8,"regc":0.000001,"clipval":5,"maxPredictionLength":100,"dataFormatter":{"indexTable":{"1":16,"I":0,"'":1,"m":2," ":3,"h":4,"a":5,"v":6,"i":7,"n":8,"g":9,"r":10,"e":11,"t":12,"d":13,"y":14,"!":15,"T":17,"s":18,"l":19,"o":20,"c":21,"u":22,"p":23,"f":24,"M":25,"j":26,"w":27,"k":28,"b":29,"x":30,"z":31,"stop-input":32,"start-output":33,"unrecognized":34},"characterTable":{"0":"I","1":"'","2":"m","3":" ","4":"h","5":"a","6":"v","7":"i","8":"n","9":"g","10":"r","11":"e","12":"t","13":"d","14":"y","15":"!","16":"1","17":"T","18":"s","19":"l","20":"o","21":"c","22":"u","23":"p","24":"f","25":"M","26":"j","27":"w","28":"k","29":"b","30":"x","31":"z","32":null,"33":null,"34":null},"values":[{"input":"I'm having a great day!","output":1},{"input":"This meal is so delicious!","output":1},{"input":"I'm so proud of myself for passing my test!","output":1},{"input":"My child just made me the happiest parent in the world!","output":1},{"input":"I just got a promotion at work!","output":1},{"input":"I just got the best news ever!","output":1},{"input":"I'm so grateful for all the wonderful people in my life!","output":1},{"input":"I'm so excited to start my new job!","output":1},{"input":"I'm so lucky to be alive!","output":1},{"input":"I'm so lucky to have such amazing friends!","output":1},{"input":"I'm so proud of my accomplishments!","output":1},{"input":"I'm so in love with life!","output":1},{"input":"Today I'm going to do something I love!","output":1},{"input":"I'm so content with my life!","output":1},{"input":"I'm so delighted to be surrounded by such supportive people!","output":1},{"input":"I'm so proud of my family!","output":1},{"input":"I'm so blessed to have my health!","output":1},{"input":"I'm so inspired by the beauty of the world!","output":1},{"input":"I'm so pleased with the results of my hard work!","output":1},{"input":"I'm feeling so optimistic about the future!","output":1},{"input":"I'm feeling so lucky to have such an incredible partner!","output":1},{"input":"I'm feeling so blessed to have a roof over my head!","output":1},{"input":"I'm so grateful for the opportunity to pursue my dreams!","output":1},{"input":"I'm so thankful for all the amazing experiences I've had!","output":1},{"input":"I'm so elated to have such a wonderful life!","output":1},{"input":"I'm having the time of my life!","output":1},{"input":"My heart is bursting with joy!","output":1},{"input":"Today is the best day ever!","output":1},{"input":"I'm so charmed by the beauty of nature!","output":1},{"input":"I'm so overjoyed to have such good friends!","output":1},{"input":"I'm so pleased with my progress!","output":1},{"input":"I'm so glad to have a chance to make a difference!","output":1},{"input":"I'm so over the moon to be able to travel!","output":1},{"input":"I'm so excited to see what the future holds!","output":1},{"input":"I'm so thrilled to have the opportunity to learn something new!","output":1},{"input":"I'm so blessed to have a loving family!","output":1},{"input":"I'm so humbled by the kindness of strangers!","output":1},{"input":"I'm feeling so fortunate to have such a wonderful life!","output":1},{"input":"I'm so pleased to have a career that I'm passionate about!","output":1},{"input":"I'm overjoyed to have a chance to explore the world!","output":1},{"input":"I'm so enamored with life!","output":1},{"input":"I'm so proud of myself for taking a chance!","output":1},{"input":"I'm so delighted to be alive!","output":1},{"input":"I'm so pleased to see how far I've come!","output":1},{"input":"I'm blessed to be able to help others!","output":1},{"input":"I'm excited for the future and all the possibilities it holds!","output":1},{"input":"I'm so blessed to have such a supportive network!","output":1},{"input":"I'm so content with where I am in life!","output":1},{"input":"I'm so thankful for all the amazing memories I have!","output":1},{"input":"I'm so thrilled to be able to experience the beauty of the world!","output":1},{"input":"I'm feeling so lucky to have such wonderful friends and family!","output":1},{"input":"I'm so appreciative of the opportunity to grow and learn!","output":1},{"input":"I'm so grateful to have the chance to follow my dreams!","output":1},{"input":"I'm so thankful for all the wonderful people in my life!","output":1},{"input":"I'm so pleased to be surrounded by such kind and loving people!","output":1},{"input":"I'm so inspired by the beauty of nature!","output":1},{"input":"I'm so ecstatic to have the chance to explore new places!","output":1},{"input":"I'm so happy to be alive and well!","output":1},{"input":"I'm so lucky to have such amazing opportunities!","output":1},{"input":"I'm so delighted to be able to live my life to the fullest!","output":1},{"input":"I'm so proud of all the hard work I've done!","output":1},{"input":"I'm so blessed to have such a wonderful life!","output":1},{"input":"I'm so grateful for all the wonderful memories I have!","output":1},{"input":"I'm so thrilled to be living my best life!","output":1},{"input":"I'm so lucky to have so many positive people in my life!","output":1},{"input":"I'm so overjoyed to have such amazing experiences!","output":1},{"input":"I'm so charmed by the beauty of the world!","output":1},{"input":"I'm so in love with life and all its wonders!","output":1},{"input":"I'm so ecstatic to have the chance to make the world a better place!","output":1},{"input":"I'm so fortunate to have such an incredible journey!","output":1},{"input":"I'm so delighted to be able to learn and grow everyday!","output":1},{"input":"I'm so thankful for all the love and support I receive!","output":1},{"input":"I'm so proud of how far I've come!","output":1},{"input":"I'm so blessed to be surrounded by such inspiring people!","output":1},{"input":"I'm so overjoyed to have the chance to make a difference!","output":1},{"input":"I'm so elated to be able to do what I love!","output":1},{"input":"I'm so pleased to have such a great life!","output":1},{"input":"I'm so thankful for all the wonderful moments I've had!","output":1}],"characters":["I","'","m"," ","h","a","v","i","n","g","r","e","t","d","y","!","1","T","s","l","o","c","u","p","f","M","j","w","k","b","x","z","stop-input","start-output","unrecognized"],"specialIndexes":[32,33,34]}},"trainOpts":{"iterations":200,"errorThresh":0.005,"log":true,"logPeriod":10,"learningRate":0.01,"callbackPeriod":10,"timeout":"Infinity"},"input":{"rows":36,"columns":35,"weights":[0.678912341594696,-2.5983033180236816,0.20085985958576202,-1.5640335083007812,0.7907547950744629,0.48257681727409363,-1.1165237426757812,0.90622878074646,-0.1014980748295784,-0.7186774611473083,0.26308268308639526,-1.1292721033096313,-1.0062432289123535,-0.2954047620296478,0.5750094056129456,0.6435616612434387,-0.7072820067405701,0.3203384578227997,-0.1800878643989563,1.4923874139785767,0.15010994672775269,0.7474849224090576,-1.6010817289352417,0.06587788462638855,-0.1358565390110016,-0.7701425552368164,0.815316915512085,0.6757349371910095,-0.684275209903717,0.8440375924110413,-1.278422236442566,-0.5405313372612,-1.1787985563278198,0.47151583433151245,-1.5215809345245361,-1.8863204717636108,0.5919615030288696,1.2247555255889893,-0.8927061557769775,-0.5577083826065063,0.09525004029273987,0.5992012023925781,-2.1993510723114014,0.20916235446929932,0.8631781339645386,1.5105369091033936,1.0627470016479492,2.4175596237182617,-0.3878483474254608,-0.48343512415885925,-1.8179750442504883,-0.005164158530533314,-0.458315908908844,-1.1961678266525269,-0.6292969584465027,-2.335015058517456,-1.6506996154785156,0.11799782514572144,0.1797913908958435,-0.5708096027374268,0.41242289543151855,-4.609854698181152,-0.22753097116947174,0.49443939328193665,-0.46800538897514343,0.018540220335125923,-0.08154230564832687,4.380557537078857,0.1727304458618164,-0.3047114312648773,0.06764990091323853,1.0474891662597656,-0.4735129177570343,0.4410487115383148,-2.90618634223938,-1.8391525745391846,-1.7783998250961304,-0.7636792659759521,-2.095552921295166,0.6323288679122925,-0.3141755163669586,-0.4625803828239441,-1.8826849460601807,2.352494478225708,-0.5714602470397949,-1.8251795768737793,0.1581239253282547,-0.3955424129962921,0.5190348029136658,-1.797415852546692,-0.362517774105072,1.4343831539154053,0.17919306457042694,-0.8948266506195068,0.2990356683731079,1.9331544637680054,-0.7535955905914307,0.10577595233917236,-0.17067034542560577,-1.1354069709777832,0.805155873298645,0.469913512468338,-2.0837795734405518,-1.8690013885498047,0.7447773218154907,-2.1149966716766357,0.9517729878425598,1.3078020811080933,0.8837907910346985,-0.3053041100502014,-0.7801372408866882,-1.8625236749649048,1.7734198570251465,-1.7581719160079956,0.8923693895339966,-1.6751352548599243,-0.35829707980155945,-0.07314406335353851,1.221886396408081,-5.56904935836792,-1.7820295095443726,2.1802942752838135,-2.6994175910949707,-0.08873604983091354,-0.06057901307940483,-1.381197452545166,-0.37876737117767334,1.0972226858139038,-2.011863946914673,5.540678977966309,0.9195183515548706,2.493868827819824,2.1499078273773193,0.021969208493828773,-1.1392853260040283,-0.30762162804603577,3.2502660751342773,-2.9488792419433594,-0.620628297328949,0.9367876052856445,-0.3794082999229431,-0.3278166949748993,0.32374563813209534,1.288202166557312,-0.6585148572921753,-1.102236032485962,-2.8690006732940674,3.1167831420898438,-2.141651153564453,-1.8352130651474,-0.29900866746902466,0.5695575475692749,0.12576815485954285,0.7183055281639099,-0.27171674370765686,0.3717271387577057,0.7529371380805969,0.4497727155685425,-0.9067845940589905,1.3101073503494263,1.4019780158996582,-0.24120502173900604,0.5611404180526733,0.1897050440311432,2.4083333015441895,-0.6962928771972656,3.8358161449432373,1.7981501817703247,-0.062191106379032135,-0.3727889657020569,-1.269863486289978,-0.5541321039199829,-2.2216784954071045,-1.2427654266357422,0.766386866569519,-1.0887861251831055,-0.9091780781745911,1.2450324296951294,-0.11067432910203934,-0.23558355867862701,-0.23014405369758606,-0.04138500988483429,-0.015284271910786629,-0.4547792077064514,-1.8510189056396484,1.729116439819336,1.5940706729888916,1.26018226146698,-0.2286570966243744,-0.06718317419290543,-0.1781502068042755,1.8232473134994507,0.5973918437957764,-1.7630943059921265,-1.0735045671463013,-0.3098236918449402,-1.667343020439148,-0.11434401571750641,0.9094647169113159,1.424817681312561,-0.8851950168609619,-0.8201707601547241,0.5543115735054016,-0.38160255551338196,-3.1720521450042725,-1.390462040901184,-0.1704445779323578,-3.608605146408081,0.6038557887077332,-1.1657565832138062,-1.4570797681808472,0.46124085783958435,0.7028372287750244,1.8968077898025513,-2.1191203594207764,-2.0378050804138184,-1.042117953300476,1.4072381258010864,-0.9925635457038879,1.3823636770248413,-2.0881004333496094,0.5738118290901184,0.989716112613678,1.233944296836853,-2.535874605178833,-1.3962838649749756,2.901348114013672,-0.8835982084274292,0.3064679801464081,-0.5740219950675964,-0.10626868158578873,-1.0192196369171143,1.282318115234375,-2.520725965499878,1.3212709426879883,1.59762704372406,1.4286655187606812,2.0308098793029785,1.1757482290267944,-1.0272154808044434,0.5515539050102234,0.6665278077125549,-2.4412496089935303,-1.1859585046768188,1.9201123714447021,1.4401724338531494,0.38411158323287964,0.31064146757125854,-0.48147112131118774,-1.8932945728302002,-1.6402227878570557,-6.47361946105957,1.34929621219635,-1.577638864517212,-1.7443252801895142,1.2764090299606323,-1.6111186742782593,-2.67323637008667,1.5847277641296387,-0.06418083608150482,-1.754603624343872,-1.0277451276779175,0.3829614818096161,-2.278256416320801,-0.6551659107208252,-1.0808656215667725,1.8365331888198853,-1.049152135848999,1.1598457098007202,0.9507723450660706,1.7179902791976929,-4.433617115020752,-1.1633015871047974,-2.2530581951141357,-2.189939022064209,0.38062652945518494,-0.45952919125556946,-1.9004876613616943,-1.7680495977401733,-0.3927510380744934,-0.7121449708938599,-0.13365593552589417,1.8988302946090698,-0.06953569501638412,-0.15825434029102325,0.5966163277626038,1.3039957284927368,0.25201740860939026,-0.2690991461277008,-1.217753291130066,-0.08237741887569427,1.9072610139846802,2.6211254596710205,-0.5067829489707947,-0.904402494430542,0.6953834295272827,0.03910583257675171,-0.11183937638998032,-0.14853277802467346,0.2916492223739624,-0.5815951228141785,-1.3586406707763672,0.2893916368484497,0.001040852628648281,-0.04875696077942848,-0.7565538883209229,-1.8292886018753052,0.7934709191322327,-0.0240190289914608,-0.5842643976211548,-0.09927334636449814,0.4507552683353424,0.7289866805076599,0.818141758441925,-0.8895534873008728,-0.7720206379890442,-2.274395227432251,0.33733949065208435,0.9233808517456055,-2.127284049987793,-1.1605838537216187,-1.0502804517745972,1.8482733964920044,-1.1376848220825195,1.279824137687683,-2.6680452823638916,3.0864932537078857,1.8668328523635864,0.6424403190612793,-2.276585578918457,-1.570148229598999,2.800447940826416,-1.7062530517578125,0.6313049793243408,1.0545785427093506,2.1599717140197754,-1.7575948238372803,3.229112148284912,-1.298356056213379,2.1769332885742188,2.995603322982788,1.455500602722168,2.106720447540283,0.3608556091785431,-1.4781689643859863,-0.18364137411117554,1.5719026327133179,-2.6777617931365967,-2.3072640895843506,0.624255895614624,-2.468597650527954,1.149369239807129,1.6837835311889648,1.2135432958602905,-3.7860288619995117,-3.111992359161377,-1.7101157903671265,1.349920392036438,-2.1833338737487793,-1.3365626335144043,-1.1154063940048218,3.0236623287200928,1.6457595825195312,2.3318278789520264,-2.77925443649292,-0.10284075886011124,0.5120032429695129,-4.050052642822266,-1.654116153717041,1.4580470323562622,0.8411781191825867,-2.2829885482788086,3.3300580978393555,-0.8134002089500427,1.9416195154190063,1.5235157012939453,1.6003506183624268,3.1705057621002197,1.717569351196289,0.6829524636268616,-0.41876256465911865,2.556471347808838,-2.7245683670043945,-4.560757637023926,0.6812975406646729,0.17697229981422424,-0.4602400064468384,-0.01131054013967514,-0.8809466361999512,0.7247828841209412,-2.6373584270477295,-4.031049728393555,0.5215610861778259,-3.2219274044036865,-2.504803419113159,-1.4911085367202759,-1.2589490413665771,-0.7669627666473389,2.205284833908081,0.29807981848716736,0.6328313946723938,0.3149576187133789,1.2487937211990356,0.8240932822227478,1.3931875228881836,3.5922367572784424,0.9808266162872314,1.8648251295089722,-0.5339245796203613,-0.6132967472076416,1.538872480392456,1.324508547782898,0.21026238799095154,-1.2853163480758667,-0.7931028008460999,1.4205524921417236,-1.2747430801391602,-0.7098308205604553,-3.1475584506988525,0.25435879826545715,2.2708587646484375,-0.25224849581718445,-1.2420463562011719,0.41133973002433777,1.1162348985671997,0.5752638578414917,1.4781413078308105,-2.660395622253418,-0.7430658340454102,-1.0562037229537964,-0.2702662944793701,-1.2950026988983154,-2.111656427383423,-0.934347927570343,0.6828380227088928,1.756172776222229,-0.5269026160240173,1.1812515258789062,2.467315912246704,1.6227706670761108,1.9492536783218384,1.4147579669952393,-0.89683598279953,-0.003175988793373108,-0.3680860996246338,-2.259260416030884,1.0819015502929688,-0.5061712265014648,-3.814208507537842,-1.259950876235962,0.24717341363430023,-0.6329448223114014,0.553337574005127,0.2552686929702759,0.3124603033065796,1.7494447231292725,-0.406637966632843,-0.7771443724632263,1.0382680892944336,-1.8008403778076172,-1.859928846359253,-1.7117035388946533,0.3144187927246094,-2.082533597946167,1.4038130044937134,-0.9305626153945923,-0.7630741000175476,-0.7542084455490112,1.127250075340271,0.46983838081359863,-1.657051682472229,-0.8921118378639221,-0.3355449140071869,-0.5027745962142944,-1.657528281211853,1.3041528463363647,0.33216890692710876,0.04111519455909729,-0.41229769587516785,-0.737748384475708,1.0915348529815674,1.654449462890625,0.40571632981300354,-1.5200189352035522,-0.6269773840904236,0.07451214641332626,-0.6272994875907898,0.2894990146160126,-2.1666767597198486,1.2522344589233398,-0.17482423782348633,0.3076602518558502,0.3243092894554138,-1.3825043439865112,-0.46624839305877686,-0.8719913363456726,-3.7092487812042236,2.7458155155181885,-0.46795034408569336,-0.5268949866294861,-1.1619688272476196,0.8412490487098694,-0.20336079597473145,0.8675557374954224,-0.41363468766212463,0.08903978765010834,-0.7288560271263123,-0.3664323091506958,1.0644266605377197,-0.9484715461730957,4.707880973815918,-0.271000474691391,-0.11604151874780655,-0.1442876011133194,0.19417044520378113,1.2500704526901245,2.060462236404419,0.120029017329216,-0.6408870220184326,0.637193500995636,0.2271982878446579,-0.5510064959526062,-0.40129417181015015,0.7417343854904175,0.4829639196395874,-0.7353742718696594,2.6188766956329346,-0.6014412641525269,0.7600473761558533,1.5428109169006348,-0.6932359933853149,-2.394141912460327,0.18311426043510437,-1.3059086799621582,-1.7220431566238403,1.9199033975601196,0.6068757176399231,2.3395395278930664,1.0774424076080322,-2.130741596221924,0.49973633885383606,1.4843106269836426,-1.391241431236267,-0.13548344373703003,3.0551669597625732,1.1050162315368652,-2.059912919998169,0.29807642102241516,-0.15269218385219574,4.549231052398682,-0.348052978515625,3.5399835109710693,0.6743679642677307,-0.7746064066886902,0.8069020509719849,-1.388412356376648,2.7836380004882812,2.085844039916992,1.7325594425201416,-0.2798141539096832,0.012683916836977005,0.16939060389995575,0.7464171648025513,1.035652995109558,-0.6640588045120239,1.634708046913147,2.4744322299957275,-0.7285805344581604,3.8554916381835938,0.09867558628320694,0.578514039516449,0.18384559452533722,0.2534029483795166,-1.8975542783737183,0.22916442155838013,0.014281339012086391,0.8467667102813721,-0.7871035933494568,-1.7099552154541016,-0.4242212474346161,-3.511319637298584,0.014714418910443783,-0.490490198135376,-0.2389005869626999,-0.21096350252628326,-1.2677196264266968,-2.949186325073242,-0.3645557463169098,-0.18906386196613312,-0.47096124291419983,-0.14740195870399475,0.6292839646339417,0.8065897226333618,0.8102169632911682,-0.05191678926348686,-1.8029979467391968,0.4886307120323181,0.6345350742340088,-2.2316367626190186,-0.4677056670188904,-0.026278149336576462,1.8448930978775024,-0.1634090393781662,2.3892645835876465,0.04801828786730766,-0.45491594076156616,0.44146040081977844,1.2268502712249756,0.6576554179191589,0.5892950892448425,0.29636096954345703,-0.248026505112648,0.1474018543958664,-0.41200485825538635,1.0809050798416138,-1.6016945838928223,-1.3711750507354736,-0.4200587272644043,0.46381375193595886,-1.4077893495559692,-0.014222820289433002,-0.2334962636232376,-3.8438661098480225,1.165610671043396,1.3472540378570557,-0.07870449870824814,-1.3052115440368652,1.295710563659668,0.6540967226028442,1.5913970470428467,1.8206533193588257,-4.746872901916504,-4.005138874053955,-0.31619691848754883,-4.584972858428955,-6.602674961090088,2.3184642791748047,-0.16615839302539825,-4.75170373916626,0.10743561387062073,-3.1015737056732178,-1.1649357080459595,-3.0345985889434814,4.5759124755859375,8.314353942871094,-4.815671443939209,-7.164764881134033,5.815431594848633,2.0999369621276855,1.490697979927063,3.85209059715271,2.7586934566497803,3.125091791152954,2.076967239379883,-5.5611395835876465,7.1236162185668945,-4.236436367034912,3.161102533340454,-7.543631076812744,-8.589967727661133,-4.792505264282227,-10.25213623046875,-0.8505339622497559,-2.065802812576294,-7.270174503326416,-0.42360448837280273,-0.44242802262306213,-1.3045010566711426,2.2766826152801514,-1.453804612159729,-2.0803582668304443,-1.3460273742675781,0.5247191190719604,-3.000206470489502,0.19551308453083038,-0.21482309699058533,1.4907053709030151,0.8321200609207153,0.963109016418457,0.2647748589515686,0.7717581987380981,0.09147734194993973,-0.507623553276062,-1.804727554321289,0.21439281105995178,1.5744457244873047,-0.9763388633728027,1.4105795621871948,0.3562639057636261,0.21066240966320038,-0.12163849174976349,2.9681739807128906,1.1312634944915771,-0.4422055780887604,-0.345657080411911,0.09492285549640656,-0.161222904920578,1.486594557762146,-1.2464799880981445,0.4892074167728424,0.3804725110530853,0.028932733461260796,0.45460930466651917,-0.16843938827514648,0.26566648483276367,-1.990151286125183,-1.3945552110671997,1.9502803087234497,-0.6315880417823792,-2.428318500518799,0.04674771428108215,0.5467969179153442,-0.526459276676178,1.214035153388977,-1.2317169904708862,0.46611353754997253,0.381851464509964,-0.05089595913887024,0.595801830291748,-0.2775978446006775,2.1700737476348877,-0.22395968437194824,-0.7373161315917969,0.12744462490081787,1.894432783126831,-0.43829479813575745,0.8563171029090881,0.19455525279045105,-0.8394304513931274,-3.6827993392944336,-0.4985010027885437,-0.4953539967536926,-4.2411112785339355,-1.19633948802948,0.160935178399086,-3.765134811401367,2.2001688480377197,0.5712757110595703,0.2407747358083725,1.8029662370681763,0.8628389239311218,-2.6907448768615723,-1.1852567195892334,0.2613885700702667,-0.6651282906532288,-0.19951161742210388,1.332833170890808,2.643125534057617,-0.8754668235778809,-0.3342040777206421,1.4567162990570068,1.1980361938476562,-0.8774848580360413,0.6067505478858948,4.0507121086120605,1.591270089149475,-2.1022932529449463,0.5060999989509583,-0.24383272230625153,1.9456744194030762,-0.6438744068145752,1.7818048000335693,0.5371965169906616,0.5653527975082397,0.9388535618782043,-1.9018162488937378,1.5254706144332886,3.0322234630584717,0.75989830493927,-0.11150597780942917,0.47478508949279785,0.15186752378940582,-1.5729894638061523,1.9670906066894531,4.090317249298096,-0.4776957631111145,0.9957754611968994,-0.7419731020927429,0.6339689493179321,-2.3836350440979004,1.8060901165008545,2.449023485183716,0.527903139591217,-0.15251542627811432,0.2687273919582367,2.749606132507324,1.3312978744506836,-0.5794939994812012,-1.093528389930725,3.5365073680877686,2.7302768230438232,-0.32799509167671204,1.7744190692901611,-0.423127681016922,1.6225403547286987,-1.2389543056488037,4.153059005737305,1.8864381313323975,0.016054194420576096,0.17088603973388672,0.3179568648338318,0.3928811252117157,-1.7887380123138428,2.295307159423828,0.6993723511695862,0.3676398992538452,-0.8905501961708069,-2.862532138824463,0.6317052245140076,0.2319052517414093,-1.3586596250534058,-1.583603024482727,2.324955940246582,0.4597246050834656,0.6419999599456787,-1.7772142887115479,-2.499364137649536,-0.17783841490745544,2.7620792388916016,0.04930078610777855,-0.7698649764060974,1.945273518562317,-0.8749920725822449,-1.2663142681121826,-0.7522530555725098,-0.8080354928970337,1.0588512420654297,0.32484883069992065,0.2908821702003479,-1.1467366218566895,-2.8732309341430664,6.459565162658691,-0.9824175238609314,-1.336297631263733,1.3082150220870972,-0.30673664808273315,1.125832438468933,-0.9117987751960754,2.6031107902526855,0.6677330732345581,-0.7425169348716736,-1.9623249769210815,-2.186251401901245,-2.24153995513916,0.45831674337387085,-0.8434597253799438,-0.4383321702480316,2.555300235748291,2.209972858428955,0.9075932502746582,1.0657061338424683,-0.8942130208015442,0.12499269098043442,0.9740585684776306,4.503664493560791,0.7693831920623779,-2.7237648963928223,0.6109458208084106,-6.193305969238281,0.3018588721752167,-2.0641520023345947,0.5031007528305054,-2.4420883655548096,1.7429016828536987,-4.457678318023682,-1.5463283061981201,0.6697009801864624,-2.0888102054595947,-0.0022295417729765177,1.2808374166488647,-2.343111276626587,-2.694777727127075,1.8417243957519531,1.6154674291610718,-3.2369630336761475,-0.53631192445755,1.519697666168213,0.6051284670829773,4.561886787414551,-0.8872775435447693,-1.9735097885131836,-1.9298065900802612,2.3531038761138916,-2.739992141723633,-0.6027073860168457,-2.9029924869537354,0.5797104239463806,0.5800241827964783,0.34951022267341614,-2.6645452976226807,-1.7813509702682495,2.221360683441162,-1.9535478353500366,0.8984934687614441,-0.717296302318573,-0.3359696865081787,0.4495720863342285,3.9124045372009277,-5.141617298126221,1.7028952836990356,3.089313507080078,2.0205397605895996,4.787455081939697,1.3600746393203735,-0.1017274558544159,1.5941334962844849,0.5377707481384277,0.9462244510650635,-3.0257349014282227,3.015589714050293,1.9235564470291138,1.5851815938949585,-11.269476890563965,4.030919551849365,2.6759142875671387,-5.2564873695373535,7.892487049102783,0.9775987267494202,-10.654491424560547,-4.358551025390625,-1.4419916868209839,-4.484371185302734,1.098890781402588,5.3148040771484375,-1.1615339517593384,-0.40051430463790894,-1.0077369213104248,-4.7269768714904785,1.4209086894989014,-6.157772541046143,-3.1735618114471436,-1.368733525276184,-2.5666844844818115,-6.588730812072754,-1.0618475675582886,-12.185898780822754,14.229890823364258,3.778262138366699,-1.438623070716858,0.6450169086456299,-8.805535316467285,-0.8287757039070129,-10.851405143737793,3.30648136138916,-4.693504810333252,-4.532037734985352,1.6993379592895508,3.8076260089874268,5.026462554931641,-3.7127273082733154,-1.8713754415512085,0.332058846950531,2.120026111602783,-2.019909620285034,3.5072951316833496,-1.2682815790176392,0.9245896339416504,5.007206439971924,5.131443977355957,-9.47517204284668,-1.181146502494812,5.123572826385498,-11.426161766052246,1.2583321332931519,1.8718081712722778,-1.1307259798049927,-5.802492618560791,1.5765125751495361,-1.6273508071899414,8.492375373840332,-0.5155771970748901,6.49020528793335,6.254225730895996,1.2682182788848877,3.120573043823242,-2.978912591934204,8.293157577514648,-2.6697049140930176,-2.4067962169647217,-0.6886671185493469,2.7356185913085938,-0.6051995754241943,-1.9934147596359253,3.981376886367798,-4.844943046569824,-2.494677782058716,-3.027926206588745,-1.276469349861145,-1.7736790180206299,0.32428568601608276,-2.109013319015503,-0.9839571118354797,-1.5323171615600586,2.109050989151001,2.034597635269165,-1.7754484415054321,-3.3310887813568115,2.251631259918213,1.273126244544983,-0.7168585062026978,3.967057943344116,2.9815657138824463,1.1409659385681152,-1.2496960163116455,-0.779305636882782,3.908365249633789,0.7915376424789429,1.263420820236206,-4.121800422668457,-2.497344970703125,-0.05060075223445892,-3.146956443786621,-0.07815822213888168,-2.920748710632324,0.35778963565826416,-4.520334243774414,2.588991641998291,0.30410370230674744,0.9081287384033203,-1.1399273872375488,-1.3283358812332153,-0.08373764157295227,0.5181694030761719,-4.54944372177124,0.3933737277984619,0.8340656161308289,4.69763708114624,6.248873233795166,1.1624765396118164,-2.0969486236572266,1.8410149812698364,2.921752452850342,-1.8358157873153687,0.505486011505127,2.135002374649048,5.008028984069824,-6.054834365844727,-0.8381839990615845,1.1564767360687256,4.059607982635498,-0.9585086703300476,-0.39888644218444824,1.1134350299835205,0.06007545813918114,-1.3799382448196411,-2.072589635848999,4.163689136505127,1.1878806352615356,1.8674651384353638,-1.5274187326431274,-1.5981627702713013,1.11184561252594,1.0576726198196411,0.9053903818130493,-1.7952815294265747,-1.7723360061645508,-1.331375241279602,2.1951348781585693,-2.7500264644622803,1.203031301498413,-1.1926350593566895,3.6129345893859863,2.9841036796569824,1.4502670764923096,-2.603019952774048,-0.9736083745956421,3.4051761627197266,-1.2667779922485352,0.8357424736022949,1.4796558618545532,2.2012317180633545,-3.2006995677948,3.872065782546997,-1.1177947521209717,2.294910192489624,2.80798077583313,3.154996156692505,1.5936998128890991,1.3243317604064941,-1.9930741786956787,0.28954488039016724,2.146975517272949,-2.493553876876831,0.45017051696777344,1.2166452407836914,5.867790222167969,-1.0234335660934448,-4.946492671966553,-3.730912208557129,4.310349941253662,-6.538000583648682,-1.8323291540145874,5.681364059448242,-0.0014527523890137672,-2.670166254043579,1.5176832675933838,-6.105056285858154,-3.3575103282928467,7.574591159820557,3.8850536346435547,0.5137038826942444,-1.109013557434082,1.3031483888626099,-3.92574143409729,2.3753371238708496,4.945390224456787,5.442436695098877,-1.6191269159317017,2.37243914604187,-4.786890029907227,-1.8191003799438477,7.632941246032715,-1.9036203622817993,-3.2504782676696777,-2.8854050636291504,-2.8520588874816895,-2.2061705589294434,-1.3791128396987915,0.6673799753189087,-2.294983148574829,0.7161821722984314,-2.305756092071533,-0.2439747452735901,-2.25696063041687,-0.9615620970726013,-7.787100315093994,-0.3462161123752594,-1.5574567317962646,-7.0740461349487305,-0.5596457123756409,-0.2684951722621918,0.17919877171516418,0.9437539577484131,2.872847557067871,8.243852615356445,1.0936205387115479,-5.594357490539551,9.214839935302734,-2.1958978176116943,4.603018283843994,4.503136157989502,-0.4273281991481781,-4.644921779632568,3.789752960205078,-2.019946813583374,-1.8033748865127563,-4.539842128753662,-7.3634161949157715,-9.882464408874512,-13.375917434692383,-3.394202470779419,-6.909328460693359,-2.098593235015869,3.6680197715759277,-10.789650917053223,-0.18608739972114563,0.5099117159843445,0.20328176021575928,-0.9189181327819824,0.5409621000289917,0.10024580359458923,0.7696111798286438,-1.5296211242675781,1.8421413898468018,-0.9352702498435974,0.6522291302680969,0.06653676927089691,0.237878680229187,-0.872837483882904,0.5797994136810303,0.26465025544166565,-0.5394865870475769,-0.5452576875686646,-1.8459261655807495,0.1277049481868744,-3.2462992668151855,-0.17125314474105835,-1.2006367444992065,-0.26286083459854126,-0.6569151282310486,-0.9315506219863892,-1.9453181028366089,-1.1757500171661377,0.23815548419952393,0.7044559717178345,-1.7841250896453857,0.047681815922260284,1.991716980934143,0.4352668523788452,-0.9821508526802063,-0.6786980032920837,1.5081926584243774,0.9289479851722717,-1.207671046257019,0.1741655468940735,-0.5580640435218811,0.10428275167942047,-1.2705895900726318,-0.406302273273468,-0.15475530922412872,2.8119871616363525,1.1540501117706299,1.2191411256790161,0.05440421402454376,-1.3614240884780884,-0.619016170501709,-0.3266378939151764,-0.5989144444465637,0.19653743505477905,1.342695951461792,0.5026230216026306,-1.2235181331634521,1.1195658445358276,-1.2423397302627563,1.0758110284805298,0.3292609453201294,-1.3297399282455444,-0.4091227054595947,-0.32932043075561523,-0.6716399192810059,1.9122118949890137,0.6163929104804993,1.100135087966919,-1.2344989776611328,2.119063377380371,0.03442502021789551,0.013012795709073544,-0.017604541033506393,0.03318819776177406,0.02649790421128273,-0.04815056547522545,0.029420284554362297,-0.05530354008078575,0.05142814666032791,0.07127653807401657,0.07735435664653778,-0.04689791426062584,0.021503260359168053,-0.056810420006513596,-0.025181980803608894,0.03653501719236374,-0.05171624943614006,0.0632672905921936,-0.03363211825489998,-0.07763486355543137,-0.06857988238334656,0.06492435932159424,0.006239148322492838,-0.07181425392627716,0.05946861952543259,0.043184902518987656,0.03273158520460129,0.04897940531373024,-0.06888169795274734,-0.03492299094796181,-0.017253223806619644,0.008145030587911606,0.037566520273685455,-0.0590350516140461,0.02724129892885685]},"hiddenLayers":[{"inputMatrix":{"rows":20,"columns":35,"weights":[0.16729727387428284,-0.012127603404223919,1.5473564863204956,0.11542825400829315,-0.7608202695846558,0.7891116142272949,1.5219802856445312,0.9554151296615601,0.21609465777873993,0.7944613695144653,-0.7594203948974609,0.6469273567199707,-0.5304247140884399,-1.0563461780548096,-1.2754724025726318,-0.3349039554595947,-0.5175792574882507,-1.2752522230148315,-0.42042821645736694,0.10807526111602783,-3.182830810546875,0.5913541913032532,1.382555603981018,-1.5128200054168701,-0.08724107593297958,0.07181408256292343,-0.5255869626998901,1.8496983051300049,2.2112903594970703,1.3933149576187134,0.2932964563369751,1.1144893169403076,-0.8712758421897888,-3.1037352085113525,2.647808313369751,-1.3544244766235352,-0.6209748387336731,1.1635658740997314,-0.8568412661552429,0.3498361110687256,1.5893322229385376,0.4883498549461365,0.5527806878089905,1.0929311513900757,0.6443697810173035,-0.1297782063484192,0.32364219427108765,1.0104804039001465,-1.8948860168457031,0.8152905702590942,0.14833085238933563,-0.1401006132364273,-0.21150389313697815,-0.5224570035934448,0.4865853786468506,-1.1453086137771606,-1.2058409452438354,-0.380609393119812,0.47396114468574524,-0.6627587080001831,-0.43569570779800415,-1.1765137910842896,0.4973287582397461,1.2091994285583496,1.738470435142517,-1.1910407543182373,0.3014999330043793,0.9785503149032593,1.113555908203125,-1.1313879489898682,-0.11409809440374374,-0.27828648686408997,0.48527249693870544,0.35704943537712097,2.27754807472229,1.5182998180389404,1.3910316228866577,-0.57621830701828,0.296917200088501,-1.71597158908844,0.5389623045921326,0.13964661955833435,-0.33538341522216797,-1.2620424032211304,-0.41034331917762756,1.3810560703277588,0.7063137888908386,0.05148262530565262,0.18713316321372986,0.8074513077735901,-0.6086410880088806,0.1420484036207199,-0.6830487251281738,-0.2850474715232849,0.8549075126647949,-1.431074619293213,-0.36078763008117676,0.4752539098262787,-0.014980624429881573,-0.32917654514312744,-0.2967766523361206,0.27187979221343994,-0.6618762612342834,-0.07846185564994812,-0.056315865367650986,-1.3859530687332153,1.2295196056365967,2.057237148284912,0.5268412828445435,0.9923851490020752,1.6168138980865479,0.5539641380310059,-0.5004488229751587,-0.17007111012935638,-0.880302369594574,0.7994506359100342,1.6234256029129028,0.7484764456748962,-2.391890048980713,-0.8256080150604248,-0.1316671520471573,0.9075961112976074,0.5545660257339478,-0.6915034651756287,1.0386909246444702,-0.9924147725105286,-0.660642683506012,0.4358310401439667,-2.654770851135254,1.3499559164047241,0.3051644265651703,-0.6968922019004822,0.87004154920578,2.8129420280456543,-0.3312739431858063,-1.9515447616577148,1.2503091096878052,-0.6047939658164978,0.023369716480374336,1.2248364686965942,0.13062317669391632,1.1121163368225098,0.4426690340042114,0.779508113861084,0.4186609387397766,0.26730644702911377,1.5371252298355103,-0.33572259545326233,0.67716383934021,-0.9274258613586426,0.7340476512908936,1.0887986421585083,-0.18677754700183868,-0.8247975707054138,-1.0279686450958252,0.27326905727386475,-0.2847428023815155,-0.6832211017608643,0.7472567558288574,0.03411024063825607,-0.8785812854766846,-0.10084684938192368,-0.38343510031700134,-0.23841868340969086,1.039648175239563,-0.2824936807155609,-2.1332218647003174,-0.3858225643634796,0.49653103947639465,-0.35775139927864075,0.020449476316571236,0.5680769681930542,0.39700984954833984,-0.3194335401058197,0.901430606842041,-0.5556986331939697,0.9533988833427429,-0.36785030364990234,-0.5853021740913391,-1.970738410949707,-0.5826684236526489,0.3068735897541046,0.15779446065425873,-0.04559651017189026,1.489229440689087,-0.16007888317108154,0.1884070485830307,0.3143216669559479,0.3588101267814636,0.4300530254840851,-1.6311895847320557,-0.7289296388626099,0.6651016473770142,-1.2374948263168335,-0.7190228700637817,-1.6437548398971558,-0.4555984437465668,-0.1565273255109787,-0.4908287525177002,-1.1340374946594238,1.040130376815796,-3.409172296524048,-1.547159194946289,0.27699488401412964,-0.4308866560459137,0.6655558943748474,-0.36935117840766907,1.281919240951538,-0.36960360407829285,-0.14179708063602448,-1.049080729484558,0.32847267389297485,0.001059647765941918,2.682588815689087,-0.5121689438819885,-0.4121928811073303,0.5068626999855042,0.7157152891159058,1.2529228925704956,0.04804612696170807,0.3859700858592987,0.9503556489944458,0.9262887239456177,-0.14826367795467377,-1.4609590768814087,0.37930604815483093,1.2905642986297607,-0.6051982641220093,-0.5141910314559937,0.3563285768032074,-0.02967051975429058,-0.9710602760314941,1.066983938217163,0.26295197010040283,1.2681437730789185,-0.6764117479324341,0.933822512626648,0.5237793326377869,0.29712602496147156,0.563422441482544,0.2963317930698395,0.7936031222343445,0.8793022036552429,0.6922071576118469,0.6103904247283936,-2.088348388671875,0.1516694277524948,0.8453766703605652,1.450073480606079,-1.852087378501892,0.5938239097595215,-3.0516064167022705,0.15549927949905396,-0.6576215028762817,1.528793454170227,-0.14984534680843353,0.6810321807861328,1.078362226486206,-0.28036725521087646,-0.8842745423316956,-1.0231074094772339,1.5092484951019287,-0.04585692659020424,-1.4449902772903442,0.46783173084259033,-0.08245405554771423,-0.9300523996353149,3.0738120079040527,-0.5774431228637695,1.3941160440444946,1.6918755769729614,0.7757054567337036,1.4972944259643555,-0.2321602702140808,1.1317919492721558,0.8802008032798767,1.3302803039550781,-0.09832023829221725,0.26648205518722534,1.4417431354522705,-0.49624717235565186,0.8403199911117554,-0.15386508405208588,0.5680633187294006,-0.8903315663337708,-0.8342767953872681,0.3091493844985962,-1.4356180429458618,-0.5391790866851807,0.8360249996185303,-0.98451167345047,0.8803162574768066,1.6604565382003784,1.142681360244751,0.08082745969295502,-0.5203619003295898,2.000018358230591,-0.6978122591972351,2.6099603176116943,-1.0201739072799683,1.7674378156661987,-1.6667513847351074,0.5358461737632751,-0.7062347531318665,-0.3305281698703766,1.6062833070755005,-0.6582195162773132,0.7053659558296204,-1.8800143003463745,-1.7597869634628296,1.301601767539978,0.003539330093190074,1.3077037334442139,0.9175149202346802,-1.341263771057129,0.12948039174079895,1.364182949066162,0.36793428659439087,1.601075291633606,-2.9717164039611816,0.1459217220544815,1.2652974128723145,-1.1998710632324219,-1.9482355117797852,2.7122998237609863,0.468347430229187,0.6009986400604248,0.18074238300323486,-0.06275591999292374,-1.7089581489562988,-1.3241297006607056,-0.0809670090675354,-2.9349591732025146,-0.22240686416625977,-0.8702816963195801,-1.695608377456665,-0.5578720569610596,0.47874438762664795,-1.5515012741088867,0.3945792019367218,1.070573091506958,-0.2971953749656677,1.493900179862976,0.18114277720451355,0.7751883864402771,0.8213995099067688,2.2239437103271484,0.464847207069397,-1.898538589477539,0.4889325201511383,-0.7489995360374451,0.7403563261032104,0.17459963262081146,0.32810044288635254,0.8179627060890198,-0.5983229279518127,-1.5613951683044434,-0.21470636129379272,-1.4797637462615967,-0.8034374713897705,0.6798751950263977,-0.1351286768913269,-0.4026401937007904,0.2697908878326416,-1.0231115818023682,0.3416379392147064,0.8389644026756287,-0.06699829548597336,-0.3436267077922821,-0.1203792467713356,0.38818103075027466,0.06637725979089737,0.03900831192731857,-0.20119629800319672,1.2033236026763916,-0.3655734956264496,0.12431951612234116,1.6918548345565796,-0.18807360529899597,-1.0025901794433594,0.29416051506996155,0.15782585740089417,-0.36095041036605835,-0.5458211898803711,0.3862007260322571,0.42099136114120483,-0.23161786794662476,0.6438400149345398,0.3554149270057678,3.257222890853882,0.06965486705303192,1.1063045263290405,3.1629438400268555,1.666878581047058,-1.0398719310760498,1.4465316534042358,-0.2680406868457794,0.653963029384613,0.3574490249156952,-0.5210657715797424,0.4445353150367737,2.2535829544067383,0.2745286524295807,-2.732079029083252,1.1473222970962524,-1.6859924793243408,0.11331075429916382,-0.45387306809425354,-1.1208735704421997,0.560639500617981,-2.677215814590454,1.3051478862762451,1.1272002458572388,1.0001583099365234,-0.44502565264701843,-1.9054863452911377,1.6994134187698364,-0.7315714955329895,0.8628495931625366,-0.17461782693862915,-0.037991344928741455,-0.42410895228385925,-1.6173311471939087,3.1627490520477295,-2.1470746994018555,-0.16486047208309174,1.7709459066390991,-2.4030354022979736,1.3111203908920288,0.5609402060508728,-0.11954943835735321,0.6642683148384094,0.7902923226356506,-0.4691622853279114,2.134113073348999,0.5812933444976807,0.2832825779914856,0.6220569014549255,-1.4289860725402832,-0.6530373692512512,-0.04113797843456268,-0.4837126135826111,0.06034386157989502,1.4967371225357056,-0.2999267876148224,-1.379978895187378,0.6611104607582092,-1.3666234016418457,-0.4067635238170624,-0.08938330411911011,-0.4637526273727417,-0.4501110315322876,1.454343318939209,1.5609620809555054,-0.7673860788345337,-3.6271629333496094,0.8145033717155457,0.7454953789710999,0.2008487731218338,1.2324719429016113,1.070476770401001,0.26986974477767944,0.808516263961792,0.24504965543746948,0.2394198477268219,0.6650183200836182,2.2633447647094727,1.6881331205368042,-0.8172945380210876,-0.3935324549674988,1.254548192024231,0.6979124546051025,-0.4571534991264343,-1.962476134300232,1.6891870498657227,-1.098913311958313,-1.8847589492797852,0.25139808654785156,0.030545979738235474,0.6956557631492615,-1.377527117729187,0.09148385375738144,0.2619626820087433,1.3756940364837646,1.5615787506103516,-1.1295149326324463,1.2032649517059326,0.9338036179542542,-0.2098287045955658,0.1304938942193985,-0.23133791983127594,0.6234444975852966,1.1350916624069214,0.6998865008354187,-0.005399841815233231,0.9626230597496033,0.04163053631782532,-0.5247315764427185,-0.06642521917819977,0.7901124358177185,-0.9706763029098511,-0.20947667956352234,0.5181344151496887,-0.8437912464141846,-0.2674867808818817,-0.9850163459777832,0.1894546002149582,-1.6707900762557983,0.5169420838356018,-1.4082756042480469,-1.1990960836410522,-0.5626651644706726,0.18941277265548706,-0.7365189790725708,0.08642488718032837,0.7596924901008606,-0.12580488622188568,0.8690314292907715,1.1852115392684937,0.30994635820388794,0.2639528810977936,0.4295550584793091,0.6984124183654785,-1.1475434303283691,0.6436269283294678,-1.6710675954818726,-0.8641736507415771,2.7468128204345703,0.13775917887687683,0.3850118815898895,-0.026496900245547295,1.7688621282577515,1.2114760875701904,0.5924751162528992,-0.7917463183403015,0.9693247079849243,1.4716609716415405,1.316644310951233,0.22097264230251312,-0.7061010599136353,1.976536512374878,0.4134269952774048,0.35152995586395264,-1.360507607460022,-0.18171526491641998,-0.5168329477310181,-1.9094607830047607,-1.0465847253799438,-0.056680142879486084,0.431581974029541,-1.9996144771575928,-0.42611175775527954,1.3478471040725708,1.2039976119995117,0.5842512249946594,-1.189124584197998,-0.0510457381606102,-1.4139208793640137,-0.4777953326702118,-0.6701875329017639,-0.9726961851119995,1.7752714157104492,0.4131423830986023,1.725103735923767,1.298662543296814,-0.10605363547801971,-0.19764673709869385,-0.6337406635284424,0.2064998298883438,-0.2640219032764435,-0.3708285987377167,1.0560864210128784,0.46200406551361084,-0.6474286317825317,-1.9629383087158203,0.7292268872261047,1.2086175680160522,-1.1360888481140137,1.210984230041504,2.648404359817505,-0.9718366861343384,-0.006936187855899334,1.4863380193710327,-0.9448729753494263,2.107459783554077,0.08639191836118698,-0.7344189286231995,0.9682599902153015,2.402308225631714,1.48264479637146,0.1268543154001236,1.8296233415603638,0.7458633780479431,-1.6578738689422607,1.5132697820663452,-0.2793222665786743,0.6582927703857422,-0.34298887848854065,1.6305978298187256,-0.09681542962789536,0.2553621828556061,-0.686909019947052,-0.379494845867157,-1.2653319835662842,0.7993183732032776,0.21681785583496094,0.6813329458236694,0.3320411443710327,-0.9671388268470764,0.3917931616306305,-0.10916992276906967,0.8872165083885193,-0.4512670636177063,-0.07261242717504501,0.09049534052610397,0.9455256462097168,-0.4127684235572815,1.6346726417541504,-1.1480633020401,0.2124830037355423,0.7725255489349365,0.14996305108070374,1.3943454027175903,0.47555893659591675,0.5964811444282532,-0.12040241807699203,0.14991053938865662,0.8273773193359375,-0.3775465488433838,2.5947160720825195,-0.376819372177124,-0.42623579502105713,-0.7557793855667114,0.7933961749076843,0.27555736899375916,-0.05726422369480133,-0.46278977394104004,-0.5551163554191589,-1.625806450843811,0.4772367775440216,-0.21491099894046783,0.6965216994285583,0.5642231106758118,-0.44024398922920227,-0.7376199960708618,-0.1650734394788742,0.22309686243534088,-0.4487309753894806,2.8293392658233643,-0.26371604204177856,2.3972084522247314,-0.7456058263778687,1.1364240646362305,0.3583316206932068,1.2557101249694824,0.2741578221321106,2.085587501525879,0.3312571346759796,0.1897794008255005,0.6052095293998718,-0.058391522616147995,0.03459128364920616,-0.131711944937706,-0.08543063700199127,1.8431313037872314,0.7305416464805603,-0.012188448570668697,-0.5663705468177795,0.461463987827301,2.267254590988159,0.3665590286254883,-0.19986523687839508,-0.388836145401001,1.6706187725067139,0.2501928508281708,0.47206586599349976,-1.8874475955963135,-1.8157517910003662,-0.04329795390367508,-0.46127623319625854,-0.06413940340280533,0.6422936916351318,-0.39850351214408875,-0.042114175856113434,0.23638352751731873,0.16886411607265472,1.5053050518035889,-0.4160239100456238,0.4621216952800751,1.6914916038513184,-2.1612746715545654,1.5491083860397339,0.520119845867157,0.2256719172000885,0.6238306164741516,-0.7874467968940735,1.2904623746871948,-0.9250922203063965,2.1360883712768555,-0.42244717478752136]},"inputHidden":{"rows":20,"columns":20,"weights":[-3.2005701065063477,2.569920063018799,-1.0017427206039429,0.6093981862068176,3.3590002059936523,-0.7715991735458374,-0.03269641101360321,0.8763938546180725,-1.8497196435928345,-0.6106235980987549,-0.49466514587402344,2.3930115699768066,0.4752146005630493,7.704343795776367,1.4046165943145752,-0.07667823135852814,0.3824915289878845,1.5629584789276123,1.7457681894302368,-1.041674256324768,1.4601141214370728,-2.2149829864501953,0.46655410528182983,-0.6106538772583008,1.2812697887420654,1.290328860282898,0.7973533272743225,-2.0360186100006104,-0.2802146375179291,2.115072011947632,0.10257501900196075,-1.8257297277450562,-1.830942153930664,-2.0150346755981445,0.3893638849258423,-0.46029549837112427,-0.363227516412735,-0.9822259545326233,0.10706884413957596,-0.5091235041618347,4.206862926483154,-0.7417309284210205,-0.8859743475914001,3.2352402210235596,1.3807682991027832,1.3600115776062012,2.96716046333313,-0.009399174712598324,3.1285181045532227,0.577383816242218,4.299037456512451,-2.142338275909424,1.4815385341644287,-0.6131711602210999,-0.8724374771118164,-1.1577746868133545,-0.752586841583252,-2.0266025066375732,-0.9587659239768982,4.4544267654418945,-0.5652602314949036,1.6854360103607178,2.1951911449432373,0.27792200446128845,-0.6380499601364136,-2.0843701362609863,-1.4698642492294312,1.0499224662780762,-0.4931507408618927,-2.0285212993621826,1.2982598543167114,-2.527902126312256,-0.2535249888896942,-1.4942039251327515,-10.335354804992676,0.3275147080421448,-1.6413886547088623,2.3060927391052246,-1.067891001701355,-1.383471965789795,-0.1389390528202057,-5.183961391448975,-2.2765049934387207,3.583008050918579,-0.7361240386962891,-0.29017922282218933,1.5025380849838257,-6.024257183074951,1.6413315534591675,4.2307000160217285,-3.110419988632202,-0.7848204970359802,-2.302994728088379,2.3260767459869385,-5.99429988861084,-0.04325886443257332,-1.9745994806289673,-0.3474382162094116,-0.9585013389587402,7.531589508056641,-2.324474573135376,1.5049253702163696,0.10075127333402634,-0.41727325320243835,0.23094689846038818,-2.5420753955841064,-0.5956684947013855,-1.2757471799850464,0.003055608831346035,0.5693544149398804,-0.5117714405059814,-0.33708319067955017,0.8811227679252625,0.9552689790725708,0.04839543253183365,1.050524353981018,-0.279100626707077,-1.4120097160339355,0.49700918793678284,-1.3581830263137817,-2.9153950214385986,-1.5208741426467896,0.025324352085590363,-2.338460683822632,1.5608460903167725,0.5263634920120239,0.02942153811454773,0.18266119062900543,-3.798400640487671,-0.5463687777519226,-1.787200689315796,-3.565659999847412,-5.168509006500244,0.31686705350875854,-4.242830276489258,4.3897504806518555,1.5253467559814453,2.34012770652771,-4.161677360534668,3.4156229496002197,1.4174635410308838,-2.9313175678253174,-1.1672184467315674,-2.495121717453003,-1.186588168144226,1.5559725761413574,-3.0367772579193115,2.6725711822509766,1.5308750867843628,-2.3958401679992676,-1.4994744062423706,-0.3120088577270508,2.9507765769958496,1.4814523458480835,4.215290546417236,-0.5211556553840637,2.752962350845337,2.4453623294830322,0.7814973592758179,0.8892005085945129,-1.245470404624939,-1.0109585523605347,0.6479784250259399,-1.558154821395874,1.8220454454421997,-1.4943193197250366,-0.5935364961624146,2.2427523136138916,-0.6819700598716736,-1.0180027484893799,0.8733513951301575,-1.061517596244812,-0.8252336382865906,0.8120636343955994,5.828117370605469,0.023936990648508072,-1.0674773454666138,1.670862078666687,-0.3471393585205078,-0.9415578246116638,-1.13710355758667,-1.175130009651184,-0.03404606506228447,0.9826729893684387,1.335254192352295,-3.5790562629699707,0.6753791570663452,-1.2170203924179077,2.096944808959961,2.3535943031311035,-0.15637192130088806,2.7368102073669434,1.2520453929901123,0.016310369595885277,-0.09055652469396591,0.11851143836975098,-1.7352935075759888,-1.7970553636550903,-3.3284571170806885,-0.24718555808067322,-3.5175931453704834,-2.4520041942596436,-1.1998772621154785,-1.9939206838607788,-1.1723716259002686,-1.4182217121124268,-5.371728897094727,0.6842738389968872,-1.8063101768493652,-2.638836622238159,-0.6010897755622864,-2.2975337505340576,-3.1363604068756104,2.6972882747650146,-0.9578917622566223,0.13328954577445984,1.355270504951477,5.373859882354736,-2.6754908561706543,-1.1658755540847778,-0.9698818325996399,-0.23627208173274994,0.22986656427383423,1.3134703636169434,2.876007318496704,1.0032464265823364,2.1439359188079834,-1.071047067642212,-0.7405823469161987,0.9846999645233154,1.2612134218215942,-0.4621131420135498,0.5533834099769592,-0.7554774284362793,1.5098514556884766,0.8686339259147644,-1.8163604736328125,-0.7895246148109436,0.3113947808742523,-0.05506996065378189,-4.484673976898193,-1.0131443738937378,-0.8833413124084473,-1.948386311531067,0.733485758304596,0.4464183449745178,0.21875035762786865,0.4622187912464142,-3.7993879318237305,-0.20499955117702484,-1.1906027793884277,4.411063194274902,-0.43705761432647705,0.9855073094367981,-0.07958414405584335,-1.9874751567840576,0.3106221854686737,0.6915033459663391,2.1642274856567383,-3.0687105655670166,1.0460273027420044,-1.7189593315124512,-0.1397693008184433,-0.6062034964561462,-0.10707486420869827,0.04264448583126068,0.07428202033042908,0.32826805114746094,1.9103420972824097,0.3701466917991638,-0.979325532913208,0.39588916301727295,0.8457210063934326,-1.245599389076233,0.8196442723274231,-0.4424268305301666,-1.1101946830749512,-0.7625340819358826,-0.23053869605064392,0.12055162340402603,3.1205484867095947,-4.310975074768066,3.4023048877716064,2.037080764770508,1.621540904045105,-0.20092913508415222,3.8702642917633057,-3.081301212310791,-0.4309757947921753,6.829934597015381,2.122577667236328,1.5357500314712524,-0.2850490212440491,0.6030318140983582,6.852399826049805,2.5086822509765625,0.41475173830986023,-5.2483134269714355,-1.476820468902588,-0.9425198435783386,1.6027559041976929,0.38009318709373474,-0.27507483959198,0.43000417947769165,-1.363440752029419,1.3558926582336426,0.8544644713401794,0.13394227623939514,1.3326565027236938,0.08571358770132065,0.5400105714797974,0.04752030223608017,-1.0139018297195435,-1.7800878286361694,1.8221766948699951,-1.1594444513320923,-0.26812824606895447,0.5805567502975464,0.9745385050773621,-2.1482701301574707,2.420196294784546,-0.3723681569099426,-0.35791823267936707,-1.1510555744171143,5.1631269454956055,2.2717480659484863,-0.8146486878395081,-1.2096508741378784,-0.8387771844863892,0.8110110759735107,-0.29545357823371887,0.34052860736846924,-0.3391776382923126,-1.2945078611373901,-1.580474853515625,-1.5702332258224487,-1.1741033792495728,-0.8562003374099731,-0.17243003845214844,0.5569811463356018,-2.392719268798828,-0.3680441677570343,-2.9817659854888916,0.08096375316381454,0.42115530371665955,-2.5055720806121826,2.8409008979797363,-0.5119642019271851,-1.7206002473831177,-0.33324864506721497,1.7350380420684814,-0.36389318108558655,0.5437793135643005,-1.7012697458267212,-5.755690574645996,-1.069568157196045,-1.9382725954055786,0.4086509048938751,1.2603944540023804,0.9993903040885925,-0.8846390843391418,-0.4666854739189148,-0.6348793506622314,-3.9401159286499023,3.336968183517456,0.22950302064418793,-4.242883205413818,2.1332883834838867,-1.5121186971664429,-2.0869157314300537,-3.043231725692749,-0.4112553000450134,-0.38217225670814514,0.30685585737228394,-0.30468815565109253,-0.2015252709388733,0.04132368043065071,2.8534276485443115,1.8307396173477173,-2.51637601852417,0.17397183179855347,1.9745906591415405,-1.732654333114624,-2.7681620121002197,-3.7169606685638428,1.787003517150879,-1.8694920539855957,-0.3341759145259857,3.4349546432495117,-1.3453962802886963,-1.124934434890747,-0.029859449714422226,-0.7274336814880371,0.9503941535949707,0.9430619478225708,2.9658493995666504,2.5575194358825684,0.4410640001296997,0.8020291328430176,2.0569844245910645]},"inputBias":{"rows":20,"columns":1,"weights":[-0.382778137922287,1.3533120155334473,1.067733883857727,-1.5644136667251587,0.9781966805458069,0.36318492889404297,0.0579623207449913,-0.3050530254840851,-0.3227558732032776,-0.30530574917793274,-0.916878879070282,0.431959331035614,-0.4320361614227295,-1.6208813190460205,1.5572007894515991,0.78248131275177,1.214587688446045,0.04964359849691391,-0.4010600447654724,0.24142420291900635]},"forgetMatrix":{"rows":20,"columns":35,"weights":[-0.35734277963638306,0.7812377214431763,1.1482492685317993,-0.6630824208259583,1.6254167556762695,-0.15244430303573608,0.6679380536079407,-2.5545222759246826,-1.4738991260528564,-2.038947343826294,1.4312798976898193,0.33898642659187317,0.6231572031974792,-0.9701513648033142,0.13387051224708557,0.8245952129364014,1.3062199354171753,0.9629461765289307,-0.023819798603653908,-0.5362115502357483,1.7871403694152832,-0.2692619860172272,-0.782694399356842,0.7488983273506165,1.093275785446167,-1.2141749858856201,-1.6691322326660156,-0.6985688805580139,0.009640147909522057,-4.095886707305908,-1.0928432941436768,1.0555132627487183,0.5443975925445557,0.1536642163991928,-2.493652820587158,-0.6547060012817383,0.2716258764266968,0.7552608847618103,-1.5005452632904053,0.9624637961387634,0.9623947739601135,0.18611742556095123,-1.682693362236023,0.33173152804374695,-0.3996559679508209,0.8598883152008057,0.16075961291790009,0.018021274358034134,-0.9971262812614441,0.2920036017894745,1.063889741897583,-1.2877156734466553,1.9464240074157715,-0.50996333360672,0.7816433906555176,0.2609006464481354,0.17494843900203705,-0.1304614394903183,0.7476165294647217,-0.7438151836395264,0.04289640113711357,-0.8871580958366394,-0.9373266100883484,-0.009074323810636997,-1.557169795036316,1.300767183303833,-0.20071052014827728,1.8125499486923218,-0.3627814054489136,-0.8545874357223511,-0.17961859703063965,1.5615696907043457,-0.09487669169902802,0.4488889276981354,2.2846646308898926,-0.06963259726762772,-1.489258885383606,-0.7195767760276794,-2.0827603340148926,-0.5750489830970764,0.4644121825695038,-1.5855532884597778,-0.539171040058136,-0.7931143045425415,0.4541783332824707,0.164791539311409,0.18186277151107788,-0.008655485697090626,0.3336317241191864,-0.2541882395744324,-1.2958641052246094,0.6132105588912964,0.9033284783363342,-0.9551492929458618,0.09731856733560562,-0.30292969942092896,-0.5415624976158142,1.349131464958191,1.4468419551849365,0.26423344016075134,0.14099226891994476,0.05836428329348564,0.24399299919605255,-4.251409530639648,1.941169261932373,-0.20975030958652496,0.5674646496772766,-0.518042266368866,-0.8572345972061157,1.1696808338165283,-0.2181234210729599,2.2767927646636963,1.2918691635131836,5.272684574127197,-0.4429590106010437,1.8553667068481445,1.8575321435928345,1.0510200262069702,0.03957574442028999,-0.5985000729560852,0.8964474201202393,-0.931837260723114,-0.6145381927490234,1.2705483436584473,0.29464244842529297,-0.13041941821575165,-0.7230142951011658,-1.071380615234375,1.5794707536697388,0.9033485054969788,-0.22514858841896057,1.3534976243972778,-1.0819460153579712,-0.6594753265380859,3.176119565963745,-0.5245732665061951,-0.03994080796837807,0.8433513641357422,3.825881242752075,-0.4988381266593933,-0.03968062996864319,0.42420053482055664,0.1663695126771927,-0.8624435067176819,-0.4102090299129486,0.6106052398681641,0.08380279690027237,-1.8932160139083862,0.4575614035129547,0.6521543860435486,-1.7642878293991089,-0.9294591546058655,-1.1830099821090698,-0.3900330364704132,0.7973330020904541,-0.9323841333389282,-1.0687317848205566,1.9955699443817139,1.6068012714385986,0.7034111618995667,0.537693202495575,1.0093599557876587,1.1872189044952393,1.3094693422317505,-0.524072527885437,1.4534053802490234,-1.140055775642395,-1.110578179359436,-0.5600779056549072,-0.9891574382781982,1.179003119468689,-0.7001585960388184,0.6376382112503052,-0.30013400316238403,0.047222767025232315,-0.11777894198894501,1.7056796550750732,0.32235345244407654,-0.44876304268836975,-1.0192090272903442,-0.11475331336259842,-0.4674920439720154,-2.194931983947754,-0.07291698455810547,1.0425955057144165,-0.5206573605537415,-0.39144811034202576,-0.2004757672548294,-0.25133252143859863,-0.9275828003883362,-1.0594935417175293,0.18981708586215973,-0.5095969438552856,-0.16709071397781372,-1.5125477313995361,-0.19908179342746735,0.43965670466423035,-0.007999622263014317,-1.3837510347366333,-0.40015286207199097,0.7035855650901794,-1.4964338541030884,-0.19597306847572327,0.6835388541221619,0.6548855900764465,1.670264720916748,0.41671428084373474,0.5446068048477173,-0.9576860666275024,1.7924168109893799,-2.3004403114318848,0.8089619278907776,0.7713783383369446,-0.7067247033119202,-0.7492594718933105,-0.807575523853302,0.7973311543464661,1.197793960571289,-0.4794309735298157,-0.686776876449585,-0.4743078947067261,3.1278250217437744,1.987467885017395,0.5188267230987549,-1.4196478128433228,0.9312338829040527,1.7325148582458496,-0.9469014406204224,-1.1687939167022705,-0.04948490113019943,1.3350111246109009,-2.5205066204071045,-1.0158764123916626,-0.6679359078407288,2.6315650939941406,-0.9509056210517883,0.2847617268562317,0.8299813270568848,0.8627636432647705,-0.0383802093565464,-0.6373745203018188,1.4849371910095215,1.3349918127059937,1.211076021194458,0.15736842155456543,-0.9231495261192322,-0.8570234775543213,1.1636462211608887,-0.6585754752159119,2.159179449081421,0.879733145236969,0.2649076282978058,2.191939115524292,1.4237732887268066,-1.7717814445495605,0.4470732510089874,0.4587046504020691,0.2425641119480133,-0.38052400946617126,-2.0770485401153564,2.0352115631103516,1.6665345430374146,0.44886988401412964,0.9191139936447144,2.3497397899627686,0.4569484293460846,-0.49505290389060974,1.0729210376739502,-0.2038264125585556,1.1815745830535889,-0.7380956411361694,0.6276589632034302,-0.41883760690689087,0.8267221450805664,0.5249646306037903,0.7182664275169373,0.765965461730957,-1.9998736381530762,1.9920542240142822,0.08229143172502518,-0.5674120783805847,-1.0731778144836426,-1.1267813444137573,1.915204405784607,-1.5882104635238647,0.5672181248664856,2.1054141521453857,-0.029226817190647125,0.1403520107269287,1.0938136577606201,0.7044858336448669,1.328958511352539,2.066112756729126,-0.6299212574958801,-0.4755600094795227,-0.47361722588539124,1.6086599826812744,-0.7778387665748596,-1.2196400165557861,-0.3527625799179077,-1.6698265075683594,-0.9886729717254639,0.843680739402771,-0.8752956390380859,0.6067638397216797,-1.8280190229415894,0.9109097123146057,1.8684072494506836,2.145066738128662,0.7906628847122192,-0.3386799693107605,0.6572489142417908,-0.8147529363632202,0.49132245779037476,-0.0017818534979596734,-1.5206416845321655,0.014657553285360336,-0.27732837200164795,0.4828680753707886,1.0987632274627686,-0.9149036407470703,0.7095521688461304,1.6746963262557983,0.04484724625945091,-1.5971630811691284,0.21528184413909912,1.7160745859146118,1.4723687171936035,0.3404111862182617,-1.434472680091858,1.8803242444992065,2.0461630821228027,0.23985634744167328,-0.18944896757602692,1.4043577909469604,0.7408843636512756,-1.4657460451126099,2.1506552696228027,0.609293520450592,1.4803893566131592,-1.5788763761520386,0.9668855667114258,0.29160818457603455,0.5173119902610779,0.4830870032310486,0.24249577522277832,0.7819932103157043,-0.4732510447502136,0.7793296575546265,0.6542584896087646,-1.8180209398269653,0.2671264111995697,1.3830616474151611,0.40720242261886597,0.12797267735004425,0.8711773753166199,-0.07064090669155121,1.0198317766189575,0.3383738398551941,0.4021779000759125,0.14263994991779327,2.160233497619629,1.8510488271713257,-0.040077291429042816,-1.2564913034439087,0.7799798846244812,1.5963025093078613,-0.2752385139465332,0.5003765821456909,1.229151964187622,1.3663887977600098,-1.9459019899368286,0.2481413334608078,0.3376205861568451,1.6920077800750732,0.06508272886276245,1.4560835361480713,0.8869339227676392,0.5209207534790039,0.37981322407722473,0.5776815414428711,0.5506620407104492,0.18447895348072052,1.0331659317016602,-0.2085946798324585,0.6344560384750366,0.29053008556365967,-1.8609448671340942,0.3012234568595886,1.5986883640289307,-0.10081610828638077,1.4683685302734375,-1.2986383438110352,1.1934128999710083,-0.6782597899436951,0.6362674832344055,-0.10226813703775406,0.3435363173484802,-0.14441311359405518,2.254960298538208,0.65627121925354,0.31209394335746765,1.0621861219406128,-0.1682448834180832,0.5031684041023254,-0.34430429339408875,0.3476346433162689,0.5713257193565369,0.5155031085014343,-0.8822810053825378,-1.6378499269485474,0.38819992542266846,-0.7767996788024902,0.1820891797542572,0.22579652070999146,-0.3467675447463989,-0.7782642841339111,0.5072168111801147,2.088379383087158,0.047008998692035675,-1.5382051467895508,-0.20105808973312378,1.7053133249282837,-0.9311271905899048,0.17731241881847382,1.0191093683242798,1.4196405410766602,-0.21907919645309448,1.0888510942459106,0.757115364074707,0.8287750482559204,0.6143136620521545,1.3528974056243896,-1.1716619729995728,0.47077223658561707,0.22645987570285797,-0.1858796626329422,0.41977861523628235,-1.2918665409088135,0.5015196800231934,-1.8853553533554077,-1.6711137294769287,0.05714963749051094,0.7680128812789917,-0.6916776895523071,-0.3480358421802521,-1.265536904335022,-0.5589452385902405,0.7341526746749878,1.5122578144073486,-0.4952319860458374,0.10331068933010101,0.9081043601036072,0.6271737813949585,-0.4733978807926178,-0.5677333474159241,-0.4043891131877899,-0.3107602000236511,-1.6606972217559814,0.8379419445991516,0.8701930642127991,-0.16880246996879578,0.5401979684829712,2.4947760105133057,-1.2364319562911987,-0.36382630467414856,0.7886523008346558,0.9492113590240479,-0.4066007137298584,0.17324723303318024,2.036120653152466,1.0182664394378662,0.6479843854904175,-0.22797153890132904,0.3464316427707672,1.8399831056594849,-0.7748168110847473,-0.14168162643909454,2.5209665298461914,-0.39833682775497437,-2.2101871967315674,1.0600306987762451,-2.1832754611968994,0.31625038385391235,1.9537580013275146,1.2954442501068115,-0.039469439536333084,0.3446401357650757,2.6865410804748535,-0.6194305419921875,-0.5334975123405457,-0.002819907385855913,0.897778332233429,-0.8391858339309692,1.2250044345855713,0.6364224553108215,-0.19140413403511047,1.104952096939087,0.9340460300445557,-1.895324468612671,0.5701526403427124,1.237455129623413,0.6060085892677307,-0.7385194301605225,-0.7203626036643982,1.9486174583435059,0.2247992604970932,-0.9791170358657837,0.5650701522827148,0.30275198817253113,0.08310222625732422,-0.5047099590301514,-0.818037211894989,1.2510967254638672,1.1409825086593628,-1.709712266921997,1.4215521812438965,-1.0789862871170044,0.044341910630464554,1.509423017501831,-0.7927501797676086,0.1958296000957489,-0.405129998922348,2.1129021644592285,-0.9702290892601013,1.2421371936798096,0.5486772060394287,-1.8802217245101929,-0.1008124127984047,-0.37348371744155884,0.03630794584751129,-0.7573940753936768,-1.6173601150512695,0.5453843474388123,0.833914041519165,-0.9216514229774475,-2.183549165725708,-1.1211601495742798,0.38541314005851746,1.9312167167663574,-0.3677871823310852,-0.24106676876544952,1.1999897956848145,0.7560508847236633,-0.6369496583938599,0.2928900420665741,1.922287106513977,0.8673044443130493,1.882181167602539,-1.5317407846450806,0.31955185532569885,-0.29249632358551025,-2.265685558319092,-1.4985343217849731,-0.930358350276947,2.017937421798706,-0.342568039894104,0.7424448132514954,0.47561633586883545,-0.4681435227394104,0.6030882596969604,-1.0413872003555298,-1.9025535583496094,-0.010730281472206116,1.321982979774475,0.29718390107154846,-0.265540212392807,1.3684452772140503,3.9611780643463135,1.0698871612548828,-1.1467316150665283,-1.454088807106018,-0.7517054677009583,-0.6139093637466431,0.2794633209705353,-0.28437501192092896,1.0283185243606567,1.292870044708252,1.5563801527023315,0.07890994846820831,0.09880547225475311,0.9363256096839905,-0.15711422264575958,-0.230322927236557,0.19466349482536316,0.7022461295127869,1.4921483993530273,-0.2830294966697693,-0.4714270234107971,-1.2186172008514404,1.3126624822616577,-0.5538283586502075,-2.0838773250579834,1.8249295949935913,0.7630320191383362,-0.30433857440948486,1.3640285730361938,0.7748807072639465,-1.3599917888641357,-0.40023985505104065,-1.6092287302017212,-1.3387367725372314,-0.7456536293029785,1.3933570384979248,-0.8859527707099915,0.1364189237356186,1.2730735540390015,0.2193293273448944,1.8215070962905884,-1.483139157295227,-1.1433268785476685,0.5555356740951538,-0.7447071075439453,-0.46250197291374207,2.7324838638305664,1.747091293334961,-0.35051196813583374,1.933156132698059,0.6521812677383423,1.305626630783081,2.0458505153656006,-0.5324583053588867,-1.0308419466018677,0.06920728087425232,-1.5781199932098389,0.5544741749763489,1.236531376838684,-0.6493330597877502,0.12430523335933685,-1.6592395305633545,-1.1647355556488037,0.677214503288269,2.4201934337615967,1.1309137344360352,-1.5186246633529663,-0.063552126288414,-2.021439790725708,2.2171950340270996,-1.5773630142211914,0.4316854774951935,0.10125758498907089,0.34485265612602234,0.4978395104408264,-0.2188413292169571,-1.6187764406204224,-0.9925403594970703,-0.3708168566226959,-0.8938141465187073,0.870633065700531,-0.27613693475723267,-0.34340161085128784,-0.8101040124893188,-0.022909091785550117,-1.2948545217514038,2.4456520080566406,2.919311761856079,0.35136058926582336,2.7653255462646484,-0.10067451745271683,0.08005420863628387,-0.8771271705627441,-0.27254506945610046,-0.5812068581581116,-2.0138187408447266,0.2983156144618988,-0.7672277092933655,0.8816097378730774,0.6974963545799255,0.004902814980596304,-0.649088442325592,-1.4426814317703247,-1.6995165348052979,1.9221305847167969,-2.462890625,-0.5966639518737793,-0.09098383784294128,0.33920565247535706,-0.12282504141330719,1.2829209566116333,-2.930166482925415,-0.5455849766731262,1.409835934638977,-3.2007641792297363,-0.2767541706562042,-0.943656861782074,-0.08848458528518677,-0.05800759047269821,1.4963701963424683,-1.2445976734161377,0.6983075737953186,1.1396273374557495,0.26359477639198303,1.557235598564148,-0.16981959342956543,-0.22023756802082062,1.0978652238845825,1.455351710319519,0.997625470161438,-1.2997722625732422,1.2928839921951294]},"forgetHidden":{"rows":20,"columns":20,"weights":[-1.8211517333984375,-1.311198115348816,-0.46132978796958923,-0.08962923288345337,1.923582673072815,0.8303511738777161,0.32332026958465576,-0.24827824532985687,-4.149430274963379,0.5036728382110596,-0.9159318804740906,-1.6860876083374023,-3.7373955249786377,0.6634965538978577,-0.20498515665531158,-1.732151985168457,0.8352020978927612,-0.4422559440135956,-3.333214521408081,1.9245555400848389,-0.19822077453136444,-0.17314176261425018,-2.1564488410949707,0.06696821004152298,0.727425754070282,-0.13242104649543762,-0.33768323063850403,-0.41868501901626587,0.33232590556144714,0.6703019142150879,-0.47150102257728577,-1.3964569568634033,-2.220287799835205,-0.4349570572376251,0.09352145344018936,-0.11804229766130447,-0.3130112588405609,-1.4960875511169434,-1.3031847476959229,-0.5026069283485413,1.1297756433486938,1.4483550786972046,-1.3945304155349731,2.1741034984588623,-1.2235922813415527,2.436583995819092,2.1340246200561523,-2.0826120376586914,-0.6791694760322571,3.4392457008361816,-3.2184901237487793,-1.787960171699524,0.6971145272254944,0.8415343761444092,-1.7399367094039917,-1.2137986421585083,1.7803853750228882,-0.49169981479644775,0.08784504979848862,2.5545032024383545,-2.6250853538513184,-3.586566209793091,0.6535707712173462,-0.7194707989692688,-0.6171663999557495,-4.307628154754639,-2.8171072006225586,-0.11739419400691986,-2.4462356567382812,-0.9219831228256226,-1.8594911098480225,-0.5641224980354309,-0.62195885181427,3.4825453758239746,-1.970360517501831,-0.3770766258239746,2.0965099334716797,1.0603582859039307,1.302838683128357,-1.8859494924545288,0.9829146862030029,-1.3092542886734009,-1.047914743423462,2.814768075942993,-0.9291141629219055,3.0050251483917236,1.2249572277069092,2.810042142868042,0.9049317240715027,-0.496655136346817,0.49057069420814514,-1.8474351167678833,0.48032549023628235,1.156951665878296,0.26754650473594666,2.6272521018981934,-3.3216915130615234,-0.1962607502937317,-0.6180087924003601,0.9045701026916504,-0.6510056853294373,1.8044489622116089,-0.23234601318836212,-0.453782320022583,0.24363845586776733,-0.2664956748485565,-0.6480374336242676,-0.5543369650840759,0.853657066822052,0.7335684299468994,-1.1354457139968872,-0.09958960860967636,-1.2039368152618408,-1.9907118082046509,0.07632783055305481,-0.5021977424621582,0.9096776843070984,-1.0168005228042603,-0.38756468892097473,-0.7506997585296631,-0.5166144371032715,-0.4353928565979004,-2.232191562652588,-1.4162867069244385,0.3434416651725769,-0.902724027633667,-1.2523455619812012,-0.02745647169649601,-1.2012903690338135,-0.40276360511779785,-1.5522123575210571,-1.9355554580688477,0.0046737114898860455,2.5838470458984375,-1.6776225566864014,0.3098151385784149,1.430105209350586,-0.21723201870918274,0.8556240797042847,-2.2185213565826416,-0.48620736598968506,0.7508415579795837,0.09383394569158554,-2.701775312423706,1.5245685577392578,1.9332647323608398,-0.6663483381271362,2.590512275695801,-3.435039758682251,-1.6220711469650269,-0.636428952217102,-3.183098077774048,-3.8789010047912598,-0.12931540608406067,2.1379098892211914,-1.279982328414917,2.54282283782959,0.3348104953765869,3.413518190383911,-2.633077383041382,2.4184179306030273,-0.16589313745498657,-0.7813931107521057,0.5856982469558716,1.134408712387085,3.0943307876586914,-0.8075864315032959,-0.023722801357507706,2.71925687789917,0.1709013432264328,-0.4313305616378784,-0.9771953225135803,4.388598918914795,-1.39960777759552,-0.21105466783046722,1.1754984855651855,-0.49419376254081726,-0.44820496439933777,0.1210847795009613,-2.2606327533721924,0.7993072867393494,0.5956592559814453,-4.417250633239746,-1.4139912128448486,1.3333543539047241,-3.145442008972168,-1.1289912462234497,1.4746757745742798,-3.2766647338867188,-1.528090000152588,-0.09182178229093552,-1.0572763681411743,-0.8173953890800476,7.2872209548950195,-1.9956386089324951,1.305604338645935,0.977448046207428,0.2933938503265381,0.14501969516277313,1.019376516342163,1.3674535751342773,-1.337825894355774,-0.7695404291152954,-1.3494952917099,-0.9663927555084229,1.526478886604309,-2.1672048568725586,1.7407913208007812,0.9848350286483765,-2.505946159362793,-1.4116660356521606,0.4183928966522217,1.3390686511993408,0.8847818970680237,-1.8809943199157715,-0.3117493987083435,2.0028347969055176,2.616743564605713,-0.17200186848640442,-2.496579885482788,-0.801705539226532,-0.5926759839057922,1.297394871711731,-0.1343824714422226,0.7273657917976379,-0.7014633417129517,-0.8020736575126648,-1.227002739906311,-0.08787931501865387,1.862960696220398,0.17565956711769104,0.6879542469978333,1.0872807502746582,0.7184911370277405,0.6832476258277893,0.6937739253044128,-1.9632359743118286,-0.051700055599212646,1.609670639038086,0.26506030559539795,-0.7897301912307739,0.9322368502616882,0.48166632652282715,0.5733176469802856,0.7633177042007446,-0.5955573320388794,1.9445183277130127,-1.176293969154358,-1.559989094734192,1.8840941190719604,1.0559921264648438,1.2741776704788208,-1.4469678401947021,-0.6944730877876282,0.2772182524204254,-0.32457050681114197,-0.09301436692476273,-1.5932198762893677,-1.1605441570281982,1.6198112964630127,0.6751776337623596,-0.7441622614860535,0.5008268356323242,1.188974380493164,-0.5290062427520752,-1.813086986541748,1.2719945907592773,-0.4930623471736908,0.5838803648948669,1.3078807592391968,-0.46628308296203613,-1.11093270778656,0.015939515084028244,0.08549944311380386,0.4722174108028412,-0.43021395802497864,0.4267585873603821,1.1632565259933472,-0.15779352188110352,0.6599470376968384,2.3525853157043457,-1.912872076034546,1.0286706686019897,0.7726848125457764,2.010591506958008,0.6430327892303467,0.6344428062438965,-1.3963754177093506,0.19393113255500793,2.1149728298187256,1.5370339155197144,1.5574946403503418,-1.667374610900879,0.326151967048645,2.0036509037017822,-0.9954072833061218,0.0919453427195549,0.25582703948020935,0.796341061592102,0.412434458732605,0.3500571846961975,-0.22165240347385406,1.634726881980896,-0.10659924149513245,-0.8603745698928833,1.3809714317321777,0.3456733524799347,-1.0047078132629395,0.2982863783836365,0.1799897849559784,1.387813687324524,1.3551942110061646,2.0192315578460693,-0.025863494724035263,-0.5742840766906738,-0.481892853975296,-1.9287439584732056,-0.7310404181480408,-0.6591145396232605,0.7333711385726929,4.078174114227295,0.70562344789505,-5.669578552246094,-5.3518524169921875,-0.23630091547966003,2.8820810317993164,-3.0390279293060303,2.920926094055176,-3.009953260421753,-3.8281822204589844,-4.795059680938721,-2.937349796295166,-3.0599076747894287,-2.368835926055908,-0.44872748851776123,-1.8291161060333252,2.765763998031616,1.2887511253356934,0.395799458026886,-0.18629182875156403,-2.1650352478027344,-1.5434304475784302,10.692182540893555,-1.3003613948822021,-2.165410041809082,0.48536810278892517,2.513392448425293,-0.7873029112815857,-8.468832015991211,2.435100793838501,4.563318252563477,-1.1187611818313599,-4.231637477874756,2.9269938468933105,1.7307409048080444,-2.876558303833008,1.3258709907531738,-0.6358166933059692,1.5596822500228882,1.3937212228775024,0.5935781598091125,0.6882612705230713,-1.361263394355774,-1.717312216758728,1.741062045097351,0.3080240488052368,-0.7850342392921448,1.6643450260162354,-0.5155112147331238,-1.2731635570526123,-0.10115615278482437,-0.8331953883171082,-0.5786710977554321,-1.1985156536102295,1.3527382612228394,0.5674212574958801,0.9925000071525574,1.085045337677002,0.6697555780410767,-0.05111316218972206,0.004155103582888842,-0.5175428986549377,-3.440793991088867,-1.2770729064941406,1.1784006357192993,-0.7438058853149414,-0.7234477996826172,1.008170485496521,0.10984392464160919,-0.7530992031097412,-1.7809547185897827,-0.7936810851097107,-1.1127076148986816,-0.05528038740158081,3.0878987312316895,-0.908819854259491,2.473215103149414,1.6999956369400024,-0.15013213455677032,-0.4382832944393158]},"forgetBias":{"rows":20,"columns":1,"weights":[0,0,0,0,0,0,0,0,0,0,0,0,0,0,0,0,0,0,0,0]},"outputMatrix":{"rows":20,"columns":35,"weights":[-0.17315469682216644,-0.13637453317642212,-0.07070504873991013,-0.805586576461792,2.2047464847564697,1.217759132385254,0.4879216253757477,-0.8673709630966187,1.5747129917144775,-1.0369495153427124,1.155019998550415,-0.15453189611434937,-0.2951529026031494,-0.9876617789268494,-0.5023550987243652,1.0441169738769531,-0.4181736409664154,0.4607313871383667,-0.2442980408668518,1.0950965881347656,0.17374096810817719,0.24917593598365784,0.08215302228927612,0.331969290971756,0.8168987035751343,-0.6641243100166321,-0.29722556471824646,0.19603799283504486,0.23843537271022797,0.9022714495658875,-0.9470036029815674,-0.21950088441371918,0.23408068716526031,0.5006012320518494,0.3592704236507416,1.533299446105957,0.07849813252687454,-1.1824640035629272,-0.5196399092674255,0.4161582589149475,1.1187559366226196,0.1545853316783905,-0.12551188468933105,2.644533395767212,-0.19070273637771606,-0.7715123891830444,-1.289812684059143,-1.5824981927871704,-0.7415724992752075,1.4297726154327393,0.6121050715446472,-1.4172667264938354,0.2172805815935135,-0.8365490436553955,-0.09457432478666306,-0.22626492381095886,1.5291212797164917,-1.2188774347305298,1.2331340312957764,-1.5120843648910522,-0.5741559267044067,-0.16536563634872437,-1.7028828859329224,-1.0412846803665161,1.2093814611434937,-0.5679669976234436,-0.45224475860595703,0.7536430954933167,1.5543420314788818,-0.602889358997345,0.005169824697077274,0.4116525650024414,0.07801716774702072,-1.097661018371582,0.8200154304504395,-0.726977527141571,-1.047629952430725,-0.37535881996154785,-0.10945676267147064,-0.5915106534957886,-0.7982375621795654,-0.8447287082672119,-0.6710844039916992,0.7133892774581909,1.009423017501831,0.2433643490076065,-0.5496939420700073,0.8893508315086365,0.48905375599861145,0.6853704452514648,0.8054258823394775,0.40158864855766296,-0.3814093768596649,0.30684971809387207,-1.0023436546325684,0.6088759303092957,-0.75727778673172,-0.8979977369308472,0.15086472034454346,-1.411357045173645,0.1216835081577301,-0.6322180032730103,1.3008784055709839,-0.8274063467979431,-0.35855093598365784,-2.9010202884674072,-0.37445560097694397,1.7799525260925293,0.3156857192516327,-0.16216431558132172,1.198398232460022,0.4086817800998688,0.9491828083992004,0.2604140341281891,0.24176204204559326,0.6308944225311279,3.148460626602173,2.5400638580322266,-1.4641462564468384,-1.6006237268447876,-0.17022190988063812,0.6992289423942566,-0.30806782841682434,-0.16865839064121246,-0.7572972178459167,0.10514924675226212,-2.4824633598327637,1.1635445356369019,-0.2579522430896759,2.032555341720581,-0.16754916310310364,0.13905490934848785,1.2661566734313965,2.833585023880005,2.139387845993042,-1.3241207599639893,0.5987113118171692,0.8006068468093872,2.1304450035095215,0.04827919602394104,2.228286027908325,-0.9845683574676514,-1.6601439714431763,0.4039878249168396,1.0180916786193848,-1.4794749021530151,0.7208502292633057,-0.89759361743927,1.3067833185195923,-0.5970820188522339,0.7246241569519043,-1.2889710664749146,-1.8323568105697632,0.4281723201274872,2.785578489303589,0.5551729202270508,0.6073513031005859,0.9454847574234009,-2.0527048110961914,-1.242483139038086,-0.4694858193397522,1.516944169998169,-0.45932596921920776,-0.05506789684295654,-1.9777390956878662,-1.9841620922088623,-0.39389273524284363,-0.14460639655590057,-1.6878682374954224,-1.6477994918823242,-0.26018935441970825,-1.6720141172409058,-0.31444209814071655,-0.1541038602590561,-0.4621228575706482,0.2729499638080597,-1.4153823852539062,0.4964035749435425,-1.1385445594787598,1.128121018409729,0.1642770618200302,0.024982905015349388,-1.249862551689148,0.764771580696106,1.2150121927261353,2.1916615962982178,-1.3189290761947632,-0.7971486449241638,-0.31655436754226685,1.7142493724822998,-0.3159240186214447,-1.6645288467407227,1.681815266609192,-1.835260272026062,0.33866918087005615,-0.9166571497917175,0.7285944819450378,-0.9034302830696106,2.133631944656372,-0.9122368693351746,-1.1656665802001953,-1.8037550449371338,-2.3372726440429688,-0.33736151456832886,0.5647143125534058,0.6079154014587402,-1.5471354722976685,1.8814618587493896,-0.7925845384597778,-1.30173921585083,-1.7895442247390747,2.8551723957061768,0.9085087180137634,0.7241863012313843,-2.775592565536499,-0.055337630212306976,0.007121564354747534,1.4043316841125488,0.4041639566421509,2.259692430496216,0.2961384952068329,1.6811367273330688,0.8564103245735168,-0.07235068082809448,-2.003669261932373,-1.1717926263809204,-1.5476070642471313,-3.228771686553955,2.0892393589019775,-0.05887727439403534,0.49463415145874023,-1.0485001802444458,1.8724008798599243,-0.009027390740811825,1.587620735168457,3.1264803409576416,-0.11808429658412933,2.3583638668060303,1.2969826459884644,1.7924846410751343,-1.384557843208313,2.214655876159668,0.7820900678634644,-1.377495288848877,1.0890151262283325,-0.8382992148399353,-0.27424266934394836,1.6057993173599243,1.370563268661499,-1.20865797996521,-0.09460042417049408,-2.7570886611938477,2.585118293762207,-0.14446838200092316,-0.8213839530944824,-0.8989553451538086,0.9885466694831848,0.8608083128929138,0.8715543746948242,-1.9230852127075195,-0.006561930291354656,0.6806397438049316,-1.0278044939041138,-0.4713801145553589,0.9386054873466492,-0.5566665530204773,-0.44075918197631836,0.8011102676391602,-1.2316973209381104,1.2655493021011353,1.542072057723999,1.1648526191711426,1.747962474822998,0.010701589286327362,-0.3849153220653534,-0.5682281255722046,1.1516515016555786,-1.6190826892852783,-0.06299973279237747,1.3265585899353027,-1.2148056030273438,0.7545023560523987,0.49530306458473206,-0.06696608662605286,-1.343104362487793,0.3304671049118042,-1.5911294221878052,0.2755541503429413,-0.661067545413971,1.4919366836547852,0.12883234024047852,0.5883303880691528,1.0217396020889282,-0.16424649953842163,-0.8838149905204773,-0.40654614567756653,0.01071351021528244,-1.1963342428207397,1.279715895652771,-0.2976386249065399,0.3255905508995056,-1.1871075630187988,0.7695755958557129,-0.5279041528701782,0.6293266415596008,2.375809907913208,-0.938430905342102,0.42304229736328125,0.6650905013084412,0.6054629683494568,0.10871678590774536,0.7085198163986206,0.6216028332710266,-1.7458062171936035,0.23275215923786163,-0.5306093692779541,-0.835101306438446,0.5496636629104614,0.4689478874206543,0.33384445309638977,-0.3884115219116211,-1.3471450805664062,1.6257755756378174,-2.201275110244751,-0.7261708974838257,-1.1202261447906494,0.5386788249015808,0.9743728041648865,0.668352484703064,-1.489280343055725,0.22899043560028076,2.156787633895874,-1.852370023727417,-0.7340936064720154,1.1483126878738403,-1.0319974422454834,-0.9713975191116333,0.9416465759277344,-2.7997515201568604,0.8944313526153564,-0.1386832892894745,1.3960890769958496,2.6395342350006104,0.7274238467216492,0.1757424771785736,-0.07333800196647644,1.647526741027832,-0.8296830654144287,-1.4967763423919678,1.7368768453598022,-1.8529030084609985,0.5302361845970154,3.8203790187835693,-0.5370296835899353,-1.1062698364257812,1.0214707851409912,-0.4722228944301605,0.845198929309845,-0.06935913860797882,-1.0412544012069702,1.0215091705322266,1.0133057832717896,0.5665491819381714,-0.7810293436050415,-3.051795482635498,-0.3934451937675476,0.9012672901153564,0.3701164126396179,-0.18818409740924835,1.5814536809921265,-1.9842122793197632,-0.6080443263053894,0.00464695505797863,-1.2520811557769775,2.7608017921447754,0.9839316010475159,-3.1008214950561523,1.358100175857544,1.68195641040802,-2.705557107925415,0.34216010570526123,1.1238288879394531,-0.7788374423980713,-0.4689352214336395,0.8221666812896729,3.429835081100464,-1.0316208600997925,-1.9122388362884521,-1.9912893772125244,-0.5645263195037842,-0.5121804475784302,-0.6242886185646057,0.11916888505220413,0.6792583465576172,0.3193121552467346,-0.5860019326210022,-1.617124319076538,-1.3816540241241455,2.007114887237549,1.5030517578125,-0.7919526696205139,-0.3434605300426483,1.5034035444259644,1.4251813888549805,-0.3167992830276489,0.4735744297504425,1.6776396036148071,-0.41943594813346863,0.5622337460517883,-1.769595980644226,0.1850070059299469,0.646579384803772,-1.180661916732788,-1.665488362312317,-1.1031712293624878,1.0032106637954712,-1.8186417818069458,-0.2364507019519806,0.4598194658756256,-1.2065914869308472,0.5733438730239868,0.35452863574028015,-1.6170393228530884,-0.15271352231502533,-1.353604793548584,-1.4697872400283813,0.06864596903324127,-2.9449949264526367,0.006028978619724512,0.8921812176704407,0.3935801684856415,-1.4763014316558838,-0.19715431332588196,1.0758812427520752,1.0037449598312378,-1.1727761030197144,-0.8527047038078308,-0.9331937432289124,-2.5238871574401855,-0.08225701004266739,-0.10975015163421631,0.42649391293525696,-0.5579062104225159,0.40497025847435,-1.6577785015106201,-0.625148355960846,0.7475470900535583,-1.2283575534820557,-2.2186384201049805,-0.8084536790847778,1.106555461883545,-0.8032063841819763,1.4957499504089355,-0.6223104596138,0.3414890170097351,0.4342513084411621,1.4827444553375244,-0.48236283659935,-2.1734907627105713,0.37600353360176086,-0.12670263648033142,-1.292467474937439,-0.3258379399776459,0.972615122795105,-0.0713440477848053,-0.4742107093334198,-1.2958457469940186,-0.3803102374076843,0.3965986669063568,0.5272119045257568,-0.16636665165424347,-0.22945550084114075,0.4015096426010132,0.38174909353256226,0.6440742611885071,-0.2321588546037674,0.5256903171539307,-0.8467181324958801,0.39565807580947876,-0.5551561117172241,-0.856073260307312,0.7061020731925964,-2.2731516361236572,-0.685941219329834,0.6360257267951965,-1.1478701829910278,0.0022085579112172127,1.5135445594787598,1.372315764427185,-0.4978448450565338,0.25503653287887573,0.6212456226348877,0.0027203240897506475,-1.3302533626556396,1.13616943359375,0.3611091077327728,-1.515193223953247,0.2786675989627838,0.4656500220298767,-0.39124345779418945,-1.050230860710144,-0.5137773156166077,-0.7388156056404114,0.011518388986587524,1.1329717636108398,0.6977391242980957,-2.4247708320617676,0.9765074849128723,1.9540736675262451,0.8068526387214661,2.2615270614624023,1.1364476680755615,-0.29859572649002075,0.023395201191306114,-1.0060962438583374,1.688043236732483,-0.15529659390449524,-0.6399642825126648,-1.4252808094024658,0.6242766380310059,0.5756915211677551,-1.207101583480835,0.7548645734786987,-0.16803984344005585,-1.0213100910186768,1.1426701545715332,-2.0564091205596924,-0.8348960280418396,0.4375417232513428,2.4258317947387695,0.11156651377677917,2.3529977798461914,2.0033442974090576,2.6848981380462646,-1.803132176399231,0.8993179798126221,-0.9126255512237549,-1.1495206356048584,-1.0172847509384155,0.8008735775947571,1.0794658660888672,0.5257235169410706,0.7318416833877563,-1.1874721050262451,-0.4922512173652649,-1.6860820055007935,1.0064847469329834,-0.8958488702774048,0.04447134956717491,-0.04400480166077614,-2.5978505611419678,2.160318613052368,0.7660390734672546,0.36717334389686584,-0.03177567571401596,-0.36556845903396606,-0.9180340766906738,-2.0217440128326416,0.031060675159096718,1.4186756610870361,-0.6246825456619263,0.7285889387130737,1.3567205667495728,-0.9403434991836548,-0.9933011531829834,1.0523216724395752,0.25566378235816956,-0.2132757008075714,2.423631429672241,0.40296274423599243,-0.6290479302406311,0.5190777778625488,0.49040549993515015,-0.37064749002456665,-1.6530649662017822,0.6006901860237122,1.1885271072387695,0.09293287247419357,1.8063147068023682,1.8893978595733643,1.0951398611068726,-1.5751594305038452,-0.4655604660511017,0.6231207251548767,1.9054441452026367,-1.194474697113037,0.8274080753326416,-1.013167142868042,-0.33155640959739685,0.024270109832286835,-0.048516396433115005,2.2184031009674072,-2.600841999053955,2.3713386058807373,0.7180525660514832,0.12127392739057541,-1.955971598625183,-0.7780308127403259,-1.2510077953338623,1.116562008857727,-0.9845266342163086,0.02527240663766861,1.1401532888412476,-0.9706791043281555,-1.4170066118240356,0.9567826986312866,0.1351841390132904,-0.40398097038269043,1.734378695487976,-0.34563127160072327,0.635749101638794,0.1983703374862671,-0.9021079540252686,-2.593127727508545,1.2057318687438965,0.4915919005870819,0.36214765906333923,0.18577632308006287,1.0728486776351929,0.4308919608592987,-0.48332658410072327,2.188297748565674,-0.4584472179412842,-1.0126488208770752,-1.5699228048324585,-1.9033819437026978,0.9203190803527832,-2.5592398643493652,0.7811198830604553,-2.421556234359741,0.33290067315101624,0.6132231950759888,-0.5971932411193848,1.4355084896087646,0.6781982779502869,-0.2967143654823303,-0.6828369498252869,0.834684431552887,0.3087584972381592,-0.39752790331840515,0.04237300902605057,-1.0358673334121704,-2.1048789024353027,0.1769886612892151,-0.25517737865448,0.49605587124824524,0.03622054308652878,-0.09882447123527527,0.42093101143836975,0.8501671552658081,0.45011281967163086,1.4687772989273071,0.19159820675849915,-0.11743128299713135,1.2622162103652954,0.3271591067314148,1.9393283128738403,0.5102724432945251,-0.276368647813797,0.9646174311637878,0.5413360595703125,-0.19666913151741028,-0.3185425400733948,-1.1198772192001343,2.8078880310058594,-1.0182499885559082,0.8048934936523438,0.681475818157196,0.6874644160270691,-0.5313768982887268,0.865964949131012,-0.5315591096878052,-0.6574331521987915,-3.1525204181671143,0.8492468595504761,-0.955520749092102,0.0250634104013443,0.43440890312194824,-0.4383452236652374,-0.721555769443512,-0.14334002137184143,-1.3446413278579712,0.07675283402204514,4.648335933685303,0.8209334015846252,1.7927347421646118,0.05056912451982498,1.6002185344696045,-0.14287413656711578,0.15643993020057678,1.6434133052825928,-0.21839705109596252,1.0701308250427246,0.035197727382183075,1.021616816520691,-0.5803338885307312,-0.20290696620941162,2.0340545177459717,-1.7974059581756592,0.862119734287262]},"outputHidden":{"rows":20,"columns":20,"weights":[-0.4526061713695526,-0.2181592732667923,-1.3361778259277344,0.05461413040757179,4.958866119384766,2.6130242347717285,-1.1427427530288696,0.9597626328468323,-3.1658809185028076,-2.4536638259887695,-0.3670525550842285,2.4373583793640137,-1.2471376657485962,6.139714241027832,0.6038183569908142,-1.5778849124908447,-0.6313603520393372,1.7320241928100586,4.168691635131836,-2.183537244796753,0.5103722810745239,0.7146487832069397,-0.01727832295000553,-0.0049837795086205006,-0.7111604809761047,-1.5522183179855347,1.327441930770874,-2.8229970932006836,2.084440231323242,2.1641266345977783,-0.17404814064502716,0.2708941698074341,-1.070862054824829,-1.1380311250686646,-0.5646772384643555,1.9116278886795044,-2.6356940269470215,-1.286421775817871,-0.5610433220863342,0.39331820607185364,7.138391971588135,-1.5266809463500977,-0.8463330268859863,5.118821144104004,1.1833819150924683,0.3646048307418823,2.662360191345215,-0.5525529980659485,0.5333377718925476,3.2917163372039795,1.0111057758331299,-1.4861685037612915,1.1352639198303223,1.6237201690673828,0.31519365310668945,-1.7386822700500488,-0.8040823936462402,-2.6852850914001465,-3.3197271823883057,4.464343547821045,-0.08614847809076309,2.14664363861084,1.3113124370574951,0.13780418038368225,2.7032310962677,-5.798991680145264,0.08760595321655273,0.5165302157402039,1.0981390476226807,-0.9013475775718689,0.11402577906847,-0.29571905732154846,-0.10826300084590912,0.42695382237434387,0.3976439833641052,-0.38873597979545593,1.1759867668151855,0.33317887783050537,0.37575647234916687,-0.4368692934513092,0.570781409740448,-2.853259563446045,0.6847149133682251,3.424680233001709,-0.3799322247505188,1.221092700958252,0.28213968873023987,-2.6249375343322754,2.2309741973876953,1.6296297311782837,0.3818505108356476,-0.7607820630073547,-0.7761254906654358,0.6277790069580078,-1.8263258934020996,1.7990388870239258,-0.7376686334609985,-2.0863068103790283,-0.39321526885032654,1.7553540468215942,0.6755959987640381,2.5792720317840576,-0.9489089250564575,0.43144142627716064,-0.24151797592639923,-0.869697630405426,0.6743089556694031,-2.740891933441162,-1.4202150106430054,1.1943238973617554,-0.3503784239292145,1.1623952388763428,-3.0079267024993896,-2.1346588134765625,0.597615659236908,0.8316556215286255,-2.081357479095459,-1.013260841369629,1.6080119609832764,0.02853732369840145,1.225992202758789,0.4928651750087738,1.074644923210144,0.293975293636322,-0.9596374034881592,-2.7211410999298096,-0.6419841051101685,-0.004598801489919424,0.6803778409957886,-0.9494189620018005,-0.3475075960159302,-0.5140386819839478,0.46474286913871765,-0.8406811952590942,0.6631165742874146,-1.7370374202728271,-0.14714138209819794,-0.8555681109428406,-0.46983399987220764,-0.04218483343720436,0.381146639585495,-4.206844806671143,-1.6241085529327393,-0.018803423270583153,-0.07748732715845108,3.018232822418213,-0.5414530634880066,3.1341724395751953,0.8350891470909119,-2.4899697303771973,1.3447715044021606,-1.169384479522705,2.0975966453552246,3.209080219268799,-1.6542235612869263,-0.7297066450119019,1.8156342506408691,2.0210728645324707,-1.2396607398986816,0.30995485186576843,-0.1715211421251297,-1.2418345212936401,0.0649319514632225,0.6092315316200256,0.9546794891357422,-1.2497670650482178,-3.0287928581237793,0.6910312175750732,-3.890857696533203,-1.8647150993347168,-3.4025094509124756,-0.9501002430915833,0.747424304485321,-0.7385949492454529,6.338669776916504,-1.7664042711257935,0.8151482939720154,1.1978671550750732,0.8814912438392639,1.9738192558288574,1.737056016921997,-0.16472946107387543,0.44928017258644104,-1.607026219367981,3.5317492485046387,-0.3305540084838867,-1.0698822736740112,1.3689229488372803,0.40580257773399353,-1.6217178106307983,0.17197299003601074,0.42088964581489563,0.8332427144050598,0.21442508697509766,0.7532755732536316,2.4504806995391846,0.7445908188819885,0.4192828834056854,-1.1192224025726318,0.6301007270812988,-1.7600282430648804,0.6762890219688416,-1.3164341449737549,-0.32993313670158386,0.7428609728813171,-1.7698872089385986,-0.6000097990036011,-0.2619458734989166,1.0517911911010742,-0.20989350974559784,-0.40676963329315186,-0.983372151851654,-0.49227872490882874,1.6316460371017456,0.8691772222518921,-0.22786380350589752,0.16858267784118652,-0.905933678150177,-0.6399527788162231,-0.5667479634284973,3.3254690170288086,-2.3584749698638916,-0.6138831973075867,3.1952297687530518,2.2656819820404053,1.7607239484786987,4.042089939117432,-1.5304416418075562,0.2383129745721817,2.4897005558013916,1.2149032354354858,-3.0966455936431885,-0.5389740467071533,0.7819758057594299,0.14916792511940002,-0.10942203551530838,-1.1389435529708862,0.02831149660050869,-0.9730189442634583,-0.6275647878646851,-2.615407943725586,1.8243497610092163,-0.09197868406772614,0.16088519990444183,1.3484184741973877,-1.9435138702392578,-0.34790968894958496,0.9081770181655884,0.637177050113678,-0.5724640488624573,0.47928860783576965,0.5407660007476807,-1.7121857404708862,-2.0182268619537354,1.5053900480270386,-1.855048656463623,0.465047150850296,1.128996729850769,-0.43179765343666077,1.3942210674285889,-1.2436375617980957,0.5854395031929016,3.2879281044006348,2.8570609092712402,-2.6136207580566406,-1.3496423959732056,1.1003931760787964,0.473515123128891,4.744062423706055,1.4616830348968506,3.044919729232788,1.8773616552352905,1.3263522386550903,-0.18653713166713715,-3.2714648246765137,2.520496368408203,-4.444942951202393,0.18922153115272522,-6.044442176818848,1.0721698999404907,2.3105874061584473,-4.675686359405518,1.7295199632644653,1.1876271963119507,1.382529377937317,-0.35134175419807434,2.752188205718994,-1.731740117073059,1.0411449670791626,6.189084529876709,2.4484071731567383,1.1794523000717163,0.8406627774238586,2.245117425918579,3.1375906467437744,1.3285311460494995,-0.2940799295902252,-4.766998291015625,-0.5365791916847229,-1.0150789022445679,-0.7960720658302307,2.053632974624634,0.8714047074317932,0.8548110127449036,0.7747384309768677,-0.0219594594091177,0.1859276443719864,0.436421275138855,0.6916175484657288,0.13226298987865448,0.7315216660499573,0.9540224075317383,0.19548152387142181,-0.34844255447387695,1.562574863433838,0.5724148750305176,-0.2935252785682678,-0.7768955826759338,-0.1349889189004898,-1.3733470439910889,0.8203986883163452,1.2256052494049072,0.38608524203300476,-0.34583210945129395,-2.2449305057525635,-0.6152780652046204,-0.7216230630874634,1.947755217552185,1.6300169229507446,-1.6819417476654053,-0.5922551155090332,-1.071577787399292,-1.1417144536972046,-1.6755768060684204,1.6834758520126343,-0.540449321269989,2.657264471054077,0.8119310736656189,-1.7145013809204102,0.6797094345092773,-1.3317337036132812,0.49522483348846436,1.3288543224334717,0.7424927353858948,3.894258737564087,-3.926255226135254,-0.23573297262191772,-2.4761898517608643,-2.048189640045166,1.9860471487045288,0.217263326048851,3.0989062786102295,1.4189585447311401,-0.08282186090946198,-2.5540919303894043,-0.6963491439819336,-1.40440833568573,-0.263456255197525,0.28286606073379517,-0.2757612466812134,-4.595826148986816,3.1218273639678955,0.46613776683807373,-1.7823039293289185,-4.0628886222839355,-2.353029727935791,-1.4007823467254639,2.555694103240967,-2.853499174118042,-1.7988229990005493,-1.361401081085205,0.8918300271034241,1.2080121040344238,0.04921230673789978,-6.128091812133789,-3.81010365486145,0.8398223519325256,2.1079628467559814,1.849278211593628,-1.204555869102478,0.5983366966247559,0.603339433670044,-3.3254780769348145,0.14851945638656616,0.32049351930618286,-0.6042998433113098,-0.4928080439567566,-0.16992908716201782,0.5049187541007996,0.3856395483016968,0.8002631068229675,-1.0717153549194336,1.2356997728347778,-1.1559529304504395,1.635922908782959,-1.751771092414856,3.298476219177246,-1.2119495868682861,2.7475829124450684,-0.7217139601707458]},"outputBias":{"rows":20,"columns":1,"weights":[0.25850826501846313,0.27299225330352783,1.1650604009628296,-0.5363804697990417,1.579563021659851,0.6358073949813843,0.10851191729307175,-0.3162795305252075,-0.3229232132434845,-0.3069140613079071,-0.8439657092094421,1.7640708684921265,-0.32004156708717346,0.3691416382789612,0.3103855848312378,0.2597099542617798,2.0757758617401123,-0.275003045797348,-0.4126124680042267,-0.4616066515445709]},"cellActivationMatrix":{"rows":20,"columns":35,"weights":[0.7169346809387207,-0.08387044072151184,-1.5011407136917114,-0.15931306779384613,-0.3082374632358551,-1.0468467473983765,-0.3296487629413605,-0.48417919874191284,0.4262852072715759,0.32723215222358704,-0.9555529356002808,-0.6315370202064514,-0.19152149558067322,0.6382620930671692,0.9791854619979858,-0.22820796072483063,-0.5799776911735535,0.04942619055509567,1.507896900177002,-0.06942275911569595,1.2488532066345215,0.3683151304721832,-0.428893119096756,1.102108120918274,-0.8665421605110168,0.4171382784843445,0.6457012891769409,-0.420974999666214,-0.3339461088180542,0.2175118327140808,-0.6041541695594788,-0.7755549550056458,0.15288956463336945,-0.6006253957748413,-0.047856684774160385,-0.8341848850250244,0.3388524353504181,1.0372593402862549,0.24932381510734558,-0.5195155739784241,0.6392821073532104,0.03528738394379616,-0.5364396572113037,0.5251917839050293,0.22347241640090942,-0.40677377581596375,0.5921748280525208,0.7422000765800476,-1.3166693449020386,-0.4499547779560089,-0.17077521979808807,0.5556365251541138,-0.5283944606781006,0.3190166652202606,-0.16905641555786133,-0.05870527774095535,-0.8545545339584351,0.037096086889505386,-0.40319758653640747,0.5773524641990662,0.07652965188026428,-0.9762357473373413,0.0913248136639595,1.0030325651168823,0.05975284054875374,0.4393693208694458,0.39906421303749084,1.0201120376586914,0.2228793203830719,0.08451208472251892,-0.30463823676109314,-0.404898077249527,1.5209771394729614,-0.9574682116508484,0.9103866815567017,-0.1675441414117813,-0.802593469619751,0.4594767093658447,-0.862906277179718,-0.7782993912696838,1.1329139471054077,0.6925047039985657,-0.030404433608055115,-0.08869154006242752,-1.3633540868759155,0.6295813918113708,-0.02954668551683426,-1.0535964965820312,-1.0809857845306396,0.18529310822486877,-0.8971232175827026,-0.6599435806274414,-1.7394461631774902,-1.1387042999267578,1.4814987182617188,-1.5810803174972534,0.4869193732738495,1.9108070135116577,0.8908716440200806,0.658383846282959,-1.5423226356506348,0.6608437299728394,-0.6607303023338318,-1.0393363237380981,0.3037918508052826,2.2104439735412598,-0.9899618029594421,-1.7224119901657104,-1.4104982614517212,-0.3793193995952606,-0.65910404920578,0.14793741703033447,-0.1471274197101593,-0.309359610080719,-0.1299646943807602,-0.8040364980697632,-1.62969172000885,-1.3412284851074219,0.2654432952404022,1.5287185907363892,0.23674124479293823,-1.449070930480957,0.3926667869091034,-0.79366135597229,-0.15473565459251404,0.573101818561554,1.6705174446105957,-1.1016504764556885,0.7868419289588928,-1.684110164642334,-0.14380788803100586,-0.7160353660583496,-1.0595730543136597,-0.808207631111145,0.12511305510997772,-0.7810289859771729,-1.1541460752487183,0.019254956394433975,-0.15361571311950684,-1.720395565032959,0.4120400846004486,-0.2593953013420105,0.08407941460609436,0.14862041175365448,1.5551776885986328,1.0010192394256592,0.5265077948570251,0.9197017550468445,0.5545472502708435,-1.719252109527588,1.4493762254714966,0.6213369369506836,-0.7215144038200378,-0.5666676759719849,0.2647622525691986,1.6853265762329102,0.4953930974006653,-0.03943096846342087,