{"type":"LSTM","options":{"inputSize":35,"inputRange":35,"hiddenLayers":[20,20],"outputSize":35,"decayRate":0.999,"smoothEps":1e-8,"regc":0.000001,"clipval":5,"maxPredictionLength":100,"dataFormatter":{"indexTable":{"1":16,"I":0,"'":1,"m":2," ":3,"h":4,"a":5,"v":6,"i":7,"n":8,"g":9,"r":10,"e":11,"t":12,"d":13,"y":14,"!":15,"T":17,"s":18,"l":19,"o":20,"c":21,"u":22,"p":23,"f":24,"M":25,"j":26,"w":27,"k":28,"b":29,"x":30,"z":31,"stop-input":32,"start-output":33,"unrecognized":34},"characterTable":{"0":"I","1":"'","2":"m","3":" ","4":"h","5":"a","6":"v","7":"i","8":"n","9":"g","10":"r","11":"e","12":"t","13":"d","14":"y","15":"!","16":"1","17":"T","18":"s","19":"l","20":"o","21":"c","22":"u","23":"p","24":"f","25":"M","26":"j","27":"w","28":"k","29":"b","30":"x","31":"z","32":null,"33":null,"34":null},"values":[{"input":"I'm having a great day!","output":1},{"input":"This meal is so delicious!","output":1},{"input":"I'm so proud of myself for passing my test!","output":1},{"input":"My child just made me the happiest parent in the world!","output":1},{"input":"I just got a promotion at work!","output":1},{"input":"I just got the best news ever!","output":1},{"input":"I'm so grateful for all the wonderful people in my life!","output":1},{"input":"I'm so excited to start my new job!","output":1},{"input":"I'm so lucky to be alive!","output":1},{"input":"I'm so lucky to have such amazing friends!","output":1},{"input":"I'm so proud of my accomplishments!","output":1},{"input":"I'm so in love with life!","output":1},{"input":"Today I'm going to do something I love!","output":1},{"input":"I'm so content with my life!","output":1},{"input":"I'm so delighted to be surrounded by such supportive people!","output":1},{"input":"I'm so proud of my family!","output":1},{"input":"I'm so blessed to have my health!","output":1},{"input":"I'm so inspired by the beauty of the world!","output":1},{"input":"I'm so pleased with the results of my hard work!","output":1},{"input":"I'm feeling so optimistic about the future!","output":1},{"input":"I'm feeling so lucky to have such an incredible partner!","output":1},{"input":"I'm feeling so blessed to have a roof over my head!","output":1},{"input":"I'm so grateful for the opportunity to pursue my dreams!","output":1},{"input":"I'm so thankful for all the amazing experiences I've had!","output":1},{"input":"I'm so elated to have such a wonderful life!","output":1},{"input":"I'm having the time of my life!","output":1},{"input":"My heart is bursting with joy!","output":1},{"input":"Today is the best day ever!","output":1},{"input":"I'm so charmed by the beauty of nature!","output":1},{"input":"I'm so overjoyed to have such good friends!","output":1},{"input":"I'm so pleased with my progress!","output":1},{"input":"I'm so glad to have a chance to make a difference!","output":1},{"input":"I'm so over the moon to be able to travel!","output":1},{"input":"I'm so excited to see what the future holds!","output":1},{"input":"I'm so thrilled to have the opportunity to learn something new!","output":1},{"input":"I'm so blessed to have a loving family!","output":1},{"input":"I'm so humbled by the kindness of strangers!","output":1},{"input":"I'm feeling so fortunate to have such a wonderful life!","output":1},{"input":"I'm so pleased to have a career that I'm passionate about!","output":1},{"input":"I'm overjoyed to have a chance to explore the world!","output":1},{"input":"I'm so enamored with life!","output":1},{"input":"I'm so proud of myself for taking a chance!","output":1},{"input":"I'm so delighted to be alive!","output":1},{"input":"I'm so pleased to see how far I've come!","output":1},{"input":"I'm blessed to be able to help others!","output":1},{"input":"I'm excited for the future and all the possibilities it holds!","output":1},{"input":"I'm so blessed to have such a supportive network!","output":1},{"input":"I'm so content with where I am in life!","output":1},{"input":"I'm so thankful for all the amazing memories I have!","output":1},{"input":"I'm so thrilled to be able to experience the beauty of the world!","output":1},{"input":"I'm feeling so lucky to have such wonderful friends and family!","output":1},{"input":"I'm so appreciative of the opportunity to grow and learn!","output":1},{"input":"I'm so grateful to have the chance to follow my dreams!","output":1},{"input":"I'm so thankful for all the wonderful people in my life!","output":1},{"input":"I'm so pleased to be surrounded by such kind and loving people!","output":1},{"input":"I'm so inspired by the beauty of nature!","output":1},{"input":"I'm so ecstatic to have the chance to explore new places!","output":1},{"input":"I'm so happy to be alive and well!","output":1},{"input":"I'm so lucky to have such amazing opportunities!","output":1},{"input":"I'm so delighted to be able to live my life to the fullest!","output":1},{"input":"I'm so proud of all the hard work I've done!","output":1},{"input":"I'm so blessed to have such a wonderful life!","output":1},{"input":"I'm so grateful for all the wonderful memories I have!","output":1},{"input":"I'm so thrilled to be living my best life!","output":1},{"input":"I'm so lucky to have so many positive people in my life!","output":1},{"input":"I'm so overjoyed to have such amazing experiences!","output":1},{"input":"I'm so charmed by the beauty of the world!","output":1},{"input":"I'm so in love with life and all its wonders!","output":1},{"input":"I'm so ecstatic to have the chance to make the world a better place!","output":1},{"input":"I'm so fortunate to have such an incredible journey!","output":1},{"input":"I'm so delighted to be able to learn and grow everyday!","output":1},{"input":"I'm so thankful for all the love and support I receive!","output":1},{"input":"I'm so proud of how far I've come!","output":1},{"input":"I'm so blessed to be surrounded by such inspiring people!","output":1},{"input":"I'm so overjoyed to have the chance to make a difference!","output":1},{"input":"I'm so elated to be able to do what I love!","output":1},{"input":"I'm so pleased to have such a great life!","output":1},{"input":"I'm so thankful for all the wonderful moments I've had!","output":1}],"characters":["I","'","m"," ","h","a","v","i","n","g","r","e","t","d","y","!","1","T","s","l","o","c","u","p","f","M","j","w","k","b","x","z","stop-input","start-output","unrecognized"],"specialIndexes":[32,33,34]}},"trainOpts":{"iterations":50,"errorThresh":0.005,"log":true,"logPeriod":10,"learningRate":0.01,"callbackPeriod":10,"timeout":"Infinity"},"input":{"rows":36,"columns":35,"weights":[0.06094241142272949,-0.003933276515454054,0.2233770340681076,0.6211332678794861,-1.0182770490646362,0.48446494340896606,-0.26941609382629395,-0.6531831622123718,1.6003776788711548,-0.1796930730342865,-0.051207415759563446,-1.0614292621612549,0.47631725668907166,0.06371449679136276,0.07137782126665115,0.149770125746727,-0.9718781113624573,0.16387979686260223,-1.2235592603683472,1.4569525718688965,0.4927375018596649,0.057996440678834915,0.8199063539505005,0.5114862322807312,-0.29826581478118896,0.5180426836013794,-0.4390456974506378,0.743901252746582,0.41202056407928467,-0.5362464189529419,-0.2565186321735382,-0.1162748634815216,-1.1424838304519653,-0.7806279063224792,-0.22108867764472961,1.7118486166000366,1.0198431015014648,0.08740556240081787,-0.08481290936470032,0.12788376212120056,0.11377295851707458,0.19183583557605743,0.8932842016220093,0.6151057481765747,-0.2307860255241394,-0.05975247174501419,0.804392397403717,-1.0406075716018677,-0.4820926785469055,0.10528304427862167,-0.10218377411365509,2.2251501083374023,-0.5727824568748474,-0.11971069872379303,0.05011230707168579,0.06641596555709839,1.1317236423492432,-0.05778760462999344,-0.0016781961312517524,0.43292543292045593,0.20701973140239716,1.2617472410202026,-0.44616901874542236,-0.6056796908378601,0.1951800286769867,-0.39557328820228577,1.796448826789856,0.017730100080370903,1.7321183681488037,-0.23696866631507874,-0.006510342936962843,-0.961868941783905,0.31665727496147156,-0.45580488443374634,0.24439164996147156,-0.8117080926895142,0.020518364384770393,-1.1959131956100464,-2.179927110671997,1.423322319984436,0.05617585778236389,0.5632880926132202,1.866058111190796,0.1862735152244568,-0.30753839015960693,0.07378444075584412,-1.3620799779891968,-0.6223032474517822,0.39976179599761963,-0.053803037852048874,0.8888480067253113,0.45905801653862,-0.8251445293426514,-2.561216354370117,-0.5665076375007629,0.6106511354446411,-0.3976185619831085,-0.8758798241615295,1.2346147298812866,-0.7563249468803406,2.4662129878997803,1.1255555152893066,1.4924932718276978,-1.3156065940856934,0.8764781951904297,-2.375319242477417,-1.4699774980545044,-0.6778619289398193,-0.9484222531318665,2.1532042026519775,-1.0206886529922485,0.8424373269081116,-0.14980340003967285,-0.347115695476532,-1.157057762145996,0.19906646013259888,0.13462747633457184,-0.5970731973648071,0.0037754152435809374,-0.7170723676681519,1.5255390405654907,-0.27603408694267273,0.8573400974273682,1.2743314504623413,-0.22266532480716705,0.4188397526741028,-0.19851386547088623,-3.3023269176483154,-4.3795013427734375,0.8397895097732544,0.2109389752149582,-1.4555764198303223,0.020304225385189056,-2.214451313018799,-2.2923779487609863,0.06890231370925903,1.0966315269470215,-0.9448946118354797,-1.2146075963974,-0.0797736868262291,-0.718988835811615,1.0437389612197876,1.0864927768707275,1.127943992614746,-3.3735289573669434,1.1344969272613525,0.998620331287384,0.2966194748878479,2.2444117069244385,-1.0167204141616821,0.47927728295326233,-0.5658303499221802,-0.0403306744992733,-0.16158470511436462,-0.22832992672920227,-0.32304510474205017,-2.0507538318634033,0.30144190788269043,-1.0067968368530273,0.41747599840164185,-0.22477878630161285,1.686964511871338,4.117513656616211,-0.16042296588420868,-0.3071516454219818,2.271674871444702,-0.052654750645160675,0.9399752020835876,-0.19777771830558777,0.6278166174888611,-0.07522348314523697,-1.8932033777236938,-1.1151468753814697,-1.4342482089996338,-0.32840147614479065,-0.9214701056480408,-2.7817559242248535,-0.9903090000152588,0.27961692214012146,-0.8650199174880981,-1.0983843803405762,0.1702241152524948,-1.269455909729004,-0.5513409376144409,-1.5578924417495728,0.5779983401298523,-0.5272865295410156,0.9328705072402954,0.528356671333313,-1.353758692741394,0.4466395676136017,-0.22259493172168732,1.4765913486480713,-1.4578979015350342,0.6168057918548584,0.7771233916282654,-0.3114735782146454,-0.7277384996414185,-2.9379842281341553,0.4187098443508148,0.30738565325737,-1.254237174987793,-0.18110670149326324,1.3238390684127808,-1.3168480396270752,0.9430796504020691,1.258486270904541,-2.10248064994812,-0.7988633513450623,-1.2642674446105957,-1.9042176008224487,-0.07233960181474686,1.8014535903930664,-0.25351640582084656,-0.7825965285301208,0.12342405319213867,-0.9457029104232788,-0.4412740468978882,-2.6457908153533936,-0.40474164485931396,0.0066875009797513485,-1.2067821025848389,0.3342977464199066,0.8518008589744568,0.7316842675209045,0.12237387150526047,0.1796068549156189,-0.4032571613788605,0.03900323435664177,1.5343824625015259,0.00223298161290586,-0.5248724222183228,-0.27467072010040283,1.1146867275238037,0.6746641993522644,-0.11982035636901855,-0.753687858581543,-0.04923219233751297,1.449264645576477,1.129594087600708,1.0954914093017578,-1.2972081899642944,-0.3292308747768402,0.09954129904508591,-0.538818359375,-0.8438287377357483,-2.0063159465789795,0.6396150588989258,-0.5558269023895264,-0.28040120005607605,-2.3992114067077637,-2.3970935344696045,-1.5373095273971558,-4.094041347503662,-1.0531667470932007,-0.902334988117218,0.872842013835907,1.945642113685608,-0.7332432270050049,0.576072096824646,-0.2558926045894623,0.9212668538093567,-2.8751614093780518,2.763421058654785,-2.4841179847717285,0.07283953577280045,-1.3162384033203125,-0.4401998817920685,-3.1702303886413574,1.3025391101837158,-0.0920255184173584,-0.8773213028907776,-3.1376636028289795,2.5325424671173096,0.12345239520072937,1.9853330850601196,0.3210819363594055,0.8618531823158264,-1.3701108694076538,-0.8409150242805481,-0.4821256995201111,0.7608501315116882,-0.5635871887207031,1.8451741933822632,-2.571969985961914,1.0965226888656616,0.8511865139007568,0.13710203766822815,1.0404969453811646,-0.93429034948349,-0.1806957870721817,-2.2548882961273193,-0.33345136046409607,0.5632443428039551,-0.254277765750885,-1.3576353788375854,-0.9002130031585693,2.0727436542510986,-2.6694788932800293,2.8991315364837646,-0.4552419185638428,0.9150314927101135,3.458996295928955,0.03867186978459358,0.19893845915794373,1.0036330223083496,0.05511128902435303,-0.8804153203964233,-0.713101863861084,1.6053071022033691,-0.198810413479805,-1.1963707208633423,-1.2432520389556885,1.2799097299575806,-1.6922225952148438,-0.11932241171598434,-0.3528280258178711,-0.7838800549507141,-0.4220915734767914,0.5347796678543091,-0.1348535120487213,0.314242959022522,-1.076029896736145,0.05906416475772858,0.5150896310806274,-0.012079783715307713,-0.40297389030456543,0.6034175753593445,0.37453386187553406,0.16283957660198212,0.13040980696678162,0.05775512009859085,1.5446940660476685,-3.2530434131622314,0.8564377427101135,-0.28952479362487793,-0.8265875577926636,0.6557034254074097,1.4043892621994019,-0.26381924748420715,-1.7603398561477661,0.7888842821121216,0.9776701331138611,1.33732271194458,0.0605551078915596,1.5820631980895996,0.7242394089698792,-0.12074953317642212,2.0321881771087646,-1.360474705696106,-0.0749158039689064,-2.1634507179260254,-3.4948298931121826,-0.8484740257263184,1.6339889764785767,0.38726797699928284,-0.7984598278999329,-0.9535895586013794,0.6888455748558044,1.8193988800048828,-0.22150325775146484,0.811545193195343,0.478374719619751,-0.5930224061012268,0.8800612688064575,-0.6619308590888977,0.9981446266174316,2.975745439529419,0.4732612371444702,-0.44696035981178284,-1.210955023765564,-1.9767897129058838,-1.8272589445114136,3.504307270050049,-0.2616877555847168,-4.713069915771484,-0.9513266086578369,-1.8117420673370361,1.2025527954101562,-1.207431435585022,-1.0913522243499756,1.1854907274246216,1.0158944129943848,2.731726884841919,0.557162880897522,1.0715261697769165,0.4000195860862732,-1.89014732837677,0.6923027038574219,3.424854278564453,-0.17496845126152039,0.3462553322315216,-0.8144453763961792,-1.2986418008804321,1.6977328062057495,-0.33079618215560913,1.5025277137756348,0.8983004093170166,-0.533158004283905,-0.5387951731681824,-0.5536168813705444,-0.006328674033284187,0.19062539935112,0.8166103959083557,-1.9149571657180786,0.3964364528656006,1.3340896368026733,-0.011628716252744198,2.193134307861328,0.8461719155311584,-0.18980520963668823,-0.456723153591156,-0.720720648765564,0.21130278706550598,-0.9090405702590942,0.6351111531257629,-1.1812279224395752,1.5351588726043701,2.632948875427246,0.19788160920143127,0.2523868680000305,-0.03987216204404831,0.2164648175239563,0.16283757984638214,-0.018411098048090935,-0.8153372406959534,0.9060958027839661,-0.30870693922042847,-0.006443135906010866,-0.11840862780809402,1.0106565952301025,-1.3305424451828003,0.17179439961910248,-0.02861151657998562,-1.0135854482650757,-0.32544875144958496,-1.2562835216522217,-0.33535459637641907,0.6340869069099426,-0.21827220916748047,-0.03970114886760712,0.02501036785542965,-0.024237658828496933,0.24769848585128784,0.9363669157028198,-0.08463091403245926,-0.45739537477493286,0.1436322033405304,-0.08814172446727753,-0.289255291223526,-0.09158593416213989,1.137420415878296,-0.014431733638048172,0.9540646076202393,0.6105850338935852,0.3059499263763428,-0.39776161313056946,-0.1977744698524475,-0.7943151593208313,1.7164740562438965,-0.8538727164268494,0.1566716730594635,-0.3957722783088684,-1.4127894639968872,0.09735942631959915,-0.5468407273292542,-0.7417213320732117,0.24001067876815796,-0.10893560200929642,0.5610849261283875,0.5025790333747864,0.00161916168872267,-0.49019017815589905,-0.0853540226817131,0.2320432960987091,-1.9161299467086792,-1.8254247903823853,-0.753159761428833,0.8356909155845642,0.25675421953201294,-2.145069122314453,0.23324540257453918,0.48915979266166687,0.04346093162894249,-0.2649618089199066,0.45206254720687866,0.0937892496585846,0.27902254462242126,1.9581576585769653,-0.9604173302650452,2.0628502368927,0.026667220517992973,-2.245110273361206,2.1815168857574463,0.49036023020744324,-1.1669607162475586,0.7682545781135559,-1.130664348602295,-0.5461490154266357,-0.583839476108551,-1.2525324821472168,0.38267627358436584,0.974776566028595,-1.4050899744033813,-0.03705737739801407,0.9837983250617981,-0.9917844533920288,1.6872142553329468,-2.3543314933776855,-1.0006756782531738,-0.17720958590507507,1.5514134168624878,0.6711845397949219,2.8253490924835205,0.6633477807044983,-0.7162320017814636,-1.300986647605896,2.540813684463501,-0.30824199318885803,-1.4336907863616943,0.2885063886642456,0.3559720814228058,-0.6018974184989929,1.3760143518447876,-1.681333303451538,0.6932364702224731,0.28487658500671387,-0.7473030090332031,2.723736524581909,1.0463413000106812,-0.5100505352020264,-2.225590467453003,0.6575499176979065,-0.4825829565525055,-1.2929422855377197,-2.611081600189209,-0.6272985935211182,0.7548112869262695,-1.7720531225204468,0.3445965349674225,0.2963991165161133,-1.6205744743347168,-1.643235683441162,-1.0010522603988647,0.5488539934158325,-2.5034139156341553,0.18029211461544037,-2.0322539806365967,1.5697282552719116,-0.7804009914398193,-0.13235534727573395,-2.1701769828796387,1.7303175926208496,-0.9073715806007385,-1.0922809839248657,-0.6669794321060181,-1.75727379322052,-1.52271568775177,-1.0936453342437744,0.6709876656532288,0.545947253704071,0.32485640048980713,2.0285584926605225,3.8256590366363525,-0.3630315065383911,0.2391965687274933,-0.008361471816897392,1.2068397998809814,-2.4790730476379395,-4.624309539794922,0.6704628467559814,-1.5761919021606445,-0.7356579303741455,1.9322073459625244,0.139534130692482,-1.1808887720108032,1.5768502950668335,-1.043068766593933,-1.021130084991455,2.030728578567505,2.1113624572753906,0.6963205337524414,0.5913618206977844,-2.4475128650665283,0.9175580143928528,1.2937231063842773,-0.5119744539260864,-0.816753625869751,-0.5692775249481201,1.6115906238555908,1.5924408435821533,-2.050041437149048,-2.7362751960754395,-0.5318288803100586,-2.683818817138672,0.7649596929550171,0.12646904587745667,0.44074746966362,0.42899441719055176,-1.310160517692566,-0.47825878858566284,0.42152076959609985,-1.0584187507629395,-0.4804868996143341,-0.1852431744337082,-1.0195975303649902,0.32339972257614136,0.5961109399795532,-0.5490165948867798,-0.7795565128326416,1.863947868347168,-0.5662461519241333,-0.22853733599185944,-0.2633785903453827,-0.4389816224575043,1.6284089088439941,2.4689278602600098,0.6521841883659363,-2.303637742996216,-1.7424005270004272,3.3615829944610596,0.019704710692167282,-0.2822960913181305,-1.308353066444397,-1.1755191087722778,1.5417219400405884,0.47308456897735596,-0.29038795828819275,-2.1418819427490234,-0.584125816822052,2.0677318572998047,-2.021712303161621,-3.014028787612915,-4.611769199371338,-2.816797971725464,15.023863792419434,7.791926860809326,6.889013290405273,2.562469720840454,3.801750659942627,4.72228479385376,3.516719341278076,-10.489836692810059,7.750244140625,-5.713724613189697,-0.6392748951911926,-6.053307056427002,-3.8207359313964844,3.0375471115112305,-3.829252004623413,2.486475706100464,2.7762014865875244,-0.014758104458451271,-4.678142547607422,-3.752821207046509,0.7584725618362427,11.01036548614502,-4.352609634399414,-1.5769703388214111,-2.1182425022125244,2.810990333557129,4.41292142868042,3.0360822677612305,2.5142149925231934,1.4350436925888062,1.9686919450759888,1.196318507194519,0.29246360063552856,0.40422576665878296,-2.2851319313049316,-0.1497792750597,-1.3699085712432861,-0.9242274761199951,1.9073723554611206,-0.2220432609319687,-0.6076903939247131,-0.2789390981197357,1.766693353652954,-0.8756549954414368,1.1544666290283203,-0.35687366127967834,-0.41904786229133606,-0.11651846766471863,-0.25392886996269226,0.6936168074607849,-1.1156936883926392,-0.8888964653015137,0.4254494905471802,-0.8705831170082092,0.1340949982404709,-0.5628862977027893,-0.10662908852100372,-1.08702552318573,0.032698359340429306,-0.32658523321151733,-2.3431317806243896,-0.3496868312358856,-0.19267721474170685,-1.2377792596817017,-0.3567107319831848,-0.6547710299491882,-1.0318580865859985,-0.9369527101516724,-0.16184000670909882,1.8060530424118042,-0.5177158713340759,-0.31072303652763367,-0.4171929955482483,-1.2090637683868408,-0.04715646803379059,-0.5369968414306641,0.4192822277545929,-0.2590014338493347,-0.4871470630168915,0.5942841172218323,1.0495084524154663,2.912656784057617,1.63254976272583,-1.6956253051757812,-0.7587108016014099,0.7613809108734131,1.1602638959884644,-1.2932811975479126,1.1667680740356445,-0.9043895602226257,-0.2520471513271332,-0.7243309617042542,1.0855677127838135,2.2949516773223877,0.08942798525094986,1.445908546447754,2.3249144554138184,0.233526349067688,0.07082023471593857,0.04874693229794502,-1.920748233795166,1.243643879890442,-0.8163809180259705,-0.4121563136577606,-0.8956428170204163,-1.020482063293457,-0.9474292397499084,-0.8832279443740845,-0.4418029189109802,0.46245139837265015,-2.800482988357544,0.9379011392593384,0.8681825995445251,-2.196035861968994,-0.12705163657665253,1.9242501258850098,-0.7095934152603149,0.9029533267021179,-1.2788041830062866,-0.2467888593673706,-0.2904508709907532,1.6854674816131592,1.6412160396575928,0.6438484787940979,-1.4945201873779297,0.6320214867591858,-0.8138543963432312,1.0831298828125,0.18076832592487335,-0.20929382741451263,0.7999067902565002,-0.22226987779140472,0.29166141152381897,-1.5156447887420654,-0.6134158372879028,-0.9589427709579468,-2.6612892150878906,-2.902596950531006,1.95630943775177,2.9440345764160156,0.6550505757331848,0.5071103572845459,0.700179398059845,-3.691739320755005,-0.8614228367805481,0.6310740113258362,-0.5780502557754517,-0.5268909931182861,0.0069162072613835335,-2.110118865966797,0.16577811539173126,1.5117137432098389,1.4821252822875977,-1.8316649198532104,0.06647074222564697,0.7246819734573364,0.34442904591560364,-3.2611887454986572,-1.1194093227386475,-3.503476858139038,0.06255551427602768,-0.6364367008209229,-0.1928231418132782,0.5975204706192017,0.943581223487854,1.5225332975387573,1.7616064548492432,-0.43024933338165283,-0.30126258730888367,1.9397668838500977,-1.1098964214324951,-0.9512535333633423,0.188913956284523,-0.2922009825706482,1.5114376544952393,1.2400261163711548,0.5111584663391113,1.1396600008010864,-0.9552597999572754,-0.5331370234489441,0.19350624084472656,-0.16206182539463043,-1.5743359327316284,1.8493863344192505,0.07308363169431686,-1.021883249282837,1.3696160316467285,-2.534822702407837,1.1929762363433838,-0.29023951292037964,-0.17446421086788177,-0.6072801351547241,-2.4469199180603027,2.4056432247161865,-0.2965838611125946,-0.6002098321914673,0.5404390692710876,-0.5209646224975586,0.6549315452575684,1.1247882843017578,1.2628862857818604,-0.47564035654067993,0.058758679777383804,0.0011575964745134115,0.514855682849884,0.008294259198009968,-3.3666975498199463,-4.252144813537598,-2.2169668674468994,2.7535808086395264,-0.04560888186097145,0.13829518854618073,-1.7581318616867065,1.3158068656921387,1.3062397241592407,-0.5458440780639648,-0.030105125159025192,0.5137723684310913,-1.0209763050079346,-0.25510373711586,1.7135732173919678,-0.8095532655715942,3.3964486122131348,-0.43188804388046265,-1.5132216215133667,0.9145078063011169,-3.0341975688934326,-0.4932909905910492,0.18069331347942352,-1.6254539489746094,-3.199056386947632,1.2553976774215698,0.44191986322402954,2.157463788986206,-2.185889482498169,0.16805313527584076,0.6892277598381042,0.8881080150604248,1.6517225503921509,-0.35445231199264526,0.9330088496208191,-0.3885379433631897,0.2669106423854828,-0.7800784707069397,0.7088443040847778,-1.8973867893218994,-1.6950695514678955,-0.8929717540740967,-0.6378671526908875,0.9987635612487793,-0.5749962329864502,2.8789970874786377,2.3627963066101074,-1.639843463897705,0.4859940707683563,0.2802223861217499,0.4467317461967468,-0.6861868500709534,1.8200628757476807,-1.3036539554595947,-1.4150936603546143,0.8373208045959473,-0.6933205127716064,0.8299612402915955,-0.6214165091514587,0.5559654235839844,-0.40222957730293274,0.6580477356910706,1.886526346206665,-0.9084627628326416,-0.764282763004303,-0.7025063633918762,0.9809333086013794,-0.7091542482376099,2.6162776947021484,-0.8811404705047607,-4.81479024887085,1.9304897785186768,9.345756530761719,-3.8257315158843994,4.55759334564209,1.4103741645812988,-3.305501699447632,2.949742078781128,-11.884634017944336,1.7680953741073608,-7.659809112548828,-2.0899314880371094,2.944464921951294,2.444075345993042,-1.3520790338516235,9.046473503112793,6.923462390899658,0.05416281521320343,8.779956817626953,8.74772834777832,3.663012742996216,-4.065093994140625,-6.622530937194824,4.604289531707764,5.966734409332275,3.948671579360962,-3.8225178718566895,-7.136302471160889,-6.2283244132995605,4.780238628387451,7.278809070587158,-10.372637748718262,3.026149272918701,-10.363421440124512,-4.317506313323975,-0.42392468452453613,0.054793618619441986,1.5207995176315308,4.736502647399902,-5.030694484710693,-0.8842526078224182,-1.6770823001861572,-3.516655683517456,-3.8838603496551514,-2.6417860984802246,0.7952821850776672,0.9869723916053772,-1.349886178970337,1.1911892890930176,3.8936617374420166,2.0661725997924805,-0.7196095585823059,0.757634162902832,-2.013076066970825,-1.8813714981079102,2.4900624752044678,-6.844109058380127,-6.5770087242126465,6.2169880867004395,1.4441481828689575,-3.572092056274414,1.924392819404602,-3.434087038040161,-4.766361236572266,2.186330795288086,2.596836805343628,-2.117321729660034,-2.331852912902832,-0.6012234091758728,-0.22947931289672852,-0.08746205270290375,-2.339343309402466,0.24377566576004028,3.0681326389312744,-0.22354896366596222,-1.0968691110610962,0.3665180802345276,-2.783215284347534,0.7496596574783325,-0.6912692189216614,2.2920918464660645,0.24921168386936188,-0.15696552395820618,0.5849764943122864,-0.4574085474014282,2.0050323009490967,-2.005643129348755,-0.5626929402351379,-1.964721918106079,0.19271132349967957,-0.9740359783172607,-5.229726791381836,-1.054050326347351,-1.8981139659881592,-0.5713093280792236,-1.2061325311660767,-0.9928312301635742,-1.0956454277038574,-0.09358778595924377,-0.814102292060852,0.7299665808677673,0.5665853023529053,0.46723422408103943,-1.6436002254486084,-4.840113639831543,3.8676979541778564,2.6038761138916016,-1.2217953205108643,-4.083597183227539,2.9873011112213135,3.973003625869751,5.289211750030518,2.993234634399414,-0.9670858383178711,2.8795623779296875,-2.1549673080444336,-3.7313594818115234,2.1985151767730713,-1.314491629600525,-0.14553798735141754,-3.8564577102661133,-0.14334236085414886,0.905849277973175,2.1395204067230225,2.121971845626831,-1.9183779954910278,4.646215915679932,-3.1456189155578613,2.913980484008789,0.32341626286506653,-0.3823874890804291,-0.9068295955657959,-4.388890266418457,3.6400442123413086,-0.3289159834384918,-2.224919557571411,-0.7529256343841553,-0.059052567929029465,-0.10713576525449753,-1.685517430305481,-1.531722903251648,-1.8465275764465332,-1.5382184982299805,2.152238607406616,-1.8221147060394287,-1.3427225351333618,-0.2088153213262558,-4.701623439788818,2.233410120010376,-0.4840618073940277,3.275639295578003,1.4888708591461182,-1.3141214847564697,-0.27926334738731384,0.4205305576324463,0.9232341647148132,-1.5013997554779053,3.2691454887390137,-3.49303936958313,-0.5920947790145874,-1.7339303493499756,-2.3410184383392334,-1.753456950187683,-1.1261398792266846,-1.0633618831634521,-1.7564828395843506,-1.542175531387329,1.4138046503067017,0.1224358081817627,0.7834708094596863,0.057526275515556335,2.750437021255493,-1.3441205024719238,3.662430763244629,-5.9297661781311035,-1.0769336223602295,-4.483525276184082,-2.4113919734954834,4.551933765411377,3.0659594535827637,0.9435310959815979,2.365939140319824,1.628531575202942,0.71345454454422,0.24888455867767334,2.7740721702575684,-2.1596202850341797,-3.023902654647827,-0.9836354851722717,-1.1460789442062378,-0.4688951075077057,0.24656237661838531,2.72649884223938,-2.601318120956421,-2.505110502243042,-6.136858940124512,-3.5421135425567627,2.5240466594696045,-2.4900095462799072,-4.183355331420898,-3.588728427886963,-4.275938987731934,1.370850682258606,0.6792986392974854,-0.09453338384628296,-5.111276149749756,1.2922272682189941,3.4487805366516113,5.800387382507324,-4.229740619659424,4.00049352645874,-1.8852245807647705,-1.0013008117675781,1.0976853370666504,6.51242733001709,4.380963325500488,5.575495719909668,1.175373911857605,1.9750279188156128,-1.0820038318634033,-2.797459363937378,-5.793245792388916,-0.6427384614944458,-4.608077526092529,-3.615410566329956,-4.203104496002197,0.9444548487663269,-1.1923651695251465,-1.4469481706619263,0.23711161315441132,-0.012232620269060135,5.486657619476318,1.8560386896133423,1.8665870428085327,0.3856695592403412,-0.6327927112579346,-3.2197535037994385,-0.6134319305419922,5.284793853759766,2.5476205348968506,-0.37248075008392334,2.6076033115386963,5.709042072296143,0.13937033712863922,0.3703245520591736,-0.11088741570711136,0.1606065332889557,1.1006187200546265,0.05706087872385979,-0.6223062872886658,0.08389929682016373,0.3321971297264099,-1.7971705198287964,-1.5767898559570312,0.00471924664452672,0.26476195454597473,0.10083826631307602,0.0625421479344368,0.8804590702056885,-0.462494820356369,2.0897598266601562,-0.4770606756210327,-1.0877894163131714,-0.17506809532642365,0.4983304738998413,1.1951051950454712,0.29228731989860535,-0.7484793066978455,0.15284495055675507,1.1092134714126587,0.19063711166381836,-0.5226566791534424,0.20478102564811707,0.42972612380981445,0.6627288460731506,1.1488510370254517,-0.8640708923339844,-0.08507934957742691,-2.0009725093841553,1.2658179998397827,-0.3128344714641571,0.4360741376876831,1.263055682182312,-1.401718258857727,0.06570564955472946,0.84659343957901,-0.15458691120147705,-0.9541411995887756,-1.344313621520996,1.2114427089691162,0.10305316746234894,-0.17934183776378632,1.2214152812957764,-0.8077315092086792,-1.1726871728897095,1.2252051830291748,0.0024854959920048714,-0.9395231604576111,0.4623704254627228,1.7622567415237427,1.4524197578430176,1.6016453504562378,-3.0183968544006348,-0.11174355447292328,1.3552879095077515,-0.3040634095668793,-1.211197018623352,0.21746934950351715,1.144006609916687,2.3356363773345947,0.9041692018508911,-1.0830105543136597,0.5694417953491211,-1.718414306640625,0.0427374504506588,-0.06883294135332108,-0.06916294991970062,0.0034236223436892033,-0.030443064868450165,-0.028972886502742767,0.07318110764026642,-0.0023369232658296824,-0.02755272388458252,0.01845220848917961,0.01286732405424118,0.048566825687885284,-0.004321135114878416,-0.04027079790830612,-0.05292115360498428,-0.06428434699773788,-0.02258061058819294,-0.012253593653440475,0.01779632642865181,-0.022919654846191406,0.04925473406910896,-0.0727996826171875,0.03708065673708916,0.02358827367424965,0.07623757421970367,0.018344825133681297,0.053814489394426346,0.02813182771205902,0.028919735923409462,0.07034917920827866,-0.010050450451672077,-0.0017474567284807563,0.004466522950679064,0.0478782057762146,0.02051619440317154]},"hiddenLayers":[{"inputMatrix":{"rows":20,"columns":35,"weights":[-0.7630627751350403,-0.6346279978752136,-0.8798871040344238,-0.7676494121551514,-0.5550668239593506,0.12524308264255524,-0.037710513919591904,-0.32454976439476013,1.0787780284881592,0.9639147520065308,0.14504040777683258,-0.04715746268630028,0.6626841425895691,0.7104607820510864,0.15717537701129913,-0.1389649212360382,-1.7763159275054932,1.2602320909500122,-0.7316734194755554,0.014740913175046444,-0.6364319324493408,-0.4922572374343872,1.436423897743225,-1.8662385940551758,-0.07933226227760315,-0.39648306369781494,1.372430682182312,-1.1010581254959106,0.007805029861629009,0.11922209709882736,-0.04585786536335945,0.07734031230211258,0.4038173258304596,-0.23749369382858276,-0.4222899079322815,0.4550922214984894,-0.10805147886276245,-0.8007009029388428,-0.43514278531074524,1.4757633209228516,-0.977773904800415,0.5846583843231201,-0.3590391278266907,-1.0787304639816284,1.4500631093978882,0.7062240839004517,0.903031587600708,0.6301231980323792,-0.29715174436569214,-2.0913922786712646,-0.5642908215522766,-0.08793389052152634,-0.3596196472644806,0.2991827130317688,-2.7459769248962402,-0.31655147671699524,0.2978556454181671,0.04249418154358864,0.000855186372064054,1.1758646965026855,-0.0982259139418602,-0.3548281788825989,-0.7338206171989441,0.7049974799156189,-0.37673497200012207,0.4361935555934906,2.006768226623535,1.3788248300552368,1.0001943111419678,1.6363800764083862,-0.42245784401893616,0.1347544640302658,1.190130591392517,1.8105058670043945,-1.2205528020858765,0.8982252478599548,0.0918135792016983,0.23893284797668457,-0.5755411386489868,-1.4489752054214478,0.30062341690063477,-1.2682982683181763,-0.3859413266181946,0.7390607595443726,0.552672266960144,0.25187987089157104,-0.6686097383499146,1.5279213190078735,-0.7719652056694031,1.184922456741333,1.4371603727340698,1.2420005798339844,1.9025076627731323,0.42656007409095764,0.12367769330739975,1.0882890224456787,-0.5268896818161011,0.6885337829589844,-1.2725282907485962,1.0384565591812134,-0.21546193957328796,-2.7488937377929688,-0.7201950550079346,0.41895970702171326,-1.4714019298553467,-0.743083119392395,-0.11020480841398239,-0.9322296977043152,-0.6063271760940552,0.9984672665596008,-1.1311769485473633,0.20111218094825745,-0.33615872263908386,-0.6016620993614197,0.7572705149650574,-0.7600913643836975,1.2339533567428589,0.24906250834465027,-1.1368465423583984,-0.08584987372159958,1.2230082750320435,-1.304402470588684,0.16723579168319702,1.4472148418426514,-2.426501512527466,-0.4472861886024475,-0.11251410096883774,0.019106732681393623,-0.29878443479537964,0.014039518311619759,-0.3675015866756439,-1.1518031358718872,0.6503629684448242,-1.1988606452941895,-1.9074208736419678,-0.2624550461769104,-0.6479882001876831,0.6788336038589478,-0.23311999440193176,0.36176374554634094,-0.1902541071176529,-1.146960735321045,-1.2647706270217896,-0.6541367769241333,0.979571521282196,-1.5347036123275757,-0.30739694833755493,-0.7962769865989685,-1.0731782913208008,-0.3724115490913391,-0.998752772808075,1.7385283708572388,0.5575670003890991,-1.2212821245193481,0.9032642245292664,1.8464783430099487,0.27354729175567627,1.5192667245864868,0.16538403928279877,-1.6072540283203125,0.20688362419605255,-0.27654874324798584,-1.0168166160583496,-1.3515937328338623,-1.1721103191375732,-0.18997739255428314,-0.9491856098175049,1.6096255779266357,0.5086211562156677,-0.9517077207565308,0.7213310599327087,-0.01761782169342041,-0.1263764649629593,-0.8358781933784485,-0.6174978613853455,0.30891138315200806,0.19775435328483582,-0.048810385167598724,0.39426547288894653,-0.29200589656829834,0.6563469767570496,0.2233145385980606,0.7528249621391296,-0.02668064273893833,-0.8653305768966675,0.2518358826637268,-0.2531159222126007,-0.7442716956138611,0.22648820281028748,-0.25701904296875,-1.2019126415252686,0.9638515114784241,-0.10277532041072845,0.35984060168266296,-0.15274183452129364,0.6679749488830566,0.6047307252883911,0.48429518938064575,-0.9701427221298218,0.08704232424497604,0.7546051144599915,-0.16493487358093262,-2.4688422679901123,0.0854143425822258,0.8728582859039307,-0.17633992433547974,0.34523531794548035,-0.15016624331474304,0.1226450577378273,0.026661572977900505,-0.1026068851351738,-0.06462093442678452,0.17953233420848846,0.17100167274475098,-0.2635740339756012,-0.698591411113739,0.8006682395935059,0.4813467264175415,-0.05397447571158409,-0.7011818885803223,1.1848018169403076,0.3051412105560303,-0.2450203150510788,1.1113821268081665,-0.41568654775619507,-0.749474048614502,0.1595470905303955,-0.4778376817703247,0.17590659856796265,-0.06482444703578949,0.7520976066589355,0.15762647986412048,-0.3839235305786133,-1.4481338262557983,0.3086894154548645,0.28586265444755554,-0.33560726046562195,-1.1374037265777588,0.07910855114459991,0.14144885540008545,0.363786518573761,0.8201363682746887,-0.5593138933181763,0.622676432132721,-0.35090458393096924,0.7989674210548401,0.8989790081977844,0.08242612332105637,0.12768341600894928,-1.1735777854919434,0.17134159803390503,0.035331450402736664,0.030628345906734467,0.4474486708641052,-0.9677476286888123,-0.9932557344436646,-0.5930694341659546,0.22149509191513062,-0.7192655801773071,0.6116392016410828,1.3728358745574951,0.40147483348846436,1.3391097784042358,-1.949793815612793,1.4845846891403198,0.2929161489009857,0.3501286208629608,0.3795700967311859,-0.6921234726905823,0.871955394744873,0.3246351182460785,0.4683879613876343,0.4910317659378052,-1.1423600912094116,-0.6051602959632874,-0.1770249903202057,0.2186591774225235,-1.2973134517669678,-1.0208752155303955,-0.9901146292686462,0.2848961651325226,-0.34722670912742615,1.0292601585388184,0.46746566891670227,-0.0689331665635109,-1.4687856435775757,-1.2838551998138428,-0.6907877326011658,-0.27009639143943787,-1.5804808139801025,-0.7786571979522705,-0.5032753348350525,0.9401406049728394,-1.262345314025879,1.40463387966156,1.6282237768173218,0.3150980770587921,-0.2772153615951538,0.46603700518608093,0.5597191452980042,-1.4218586683273315,1.1930774450302124,0.06304893642663956,-0.10072128474712372,0.6610994338989258,0.6649409532546997,-0.2752469778060913,1.781712293624878,0.2335895448923111,-1.0616503953933716,0.10174081474542618,0.3574466407299042,-0.866185188293457,-1.9385911226272583,0.4209020733833313,-0.20967833697795868,-0.09116586297750473,0.9056578874588013,1.1736598014831543,0.9162070751190186,0.7086604237556458,-0.44357743859291077,0.03125395253300667,1.9543111324310303,-1.3468899726867676,0.09112217277288437,-3.40427827835083,-0.34970328211784363,1.0134849548339844,2.274959087371826,-0.030304931104183197,-0.7375836372375488,1.727189302444458,-0.06353823095560074,1.9852591753005981,-0.5994831919670105,-1.2574676275253296,-0.1599600464105606,1.6984400749206543,-0.7102757692337036,-0.9213702082633972,0.016406256705522537,3.2749454975128174,0.18293720483779907,0.6749059557914734,-2.0276858806610107,-2.1809868812561035,-1.0720876455307007,0.5922543406486511,-0.976040244102478,-0.6511480212211609,-0.5223138332366943,-1.3863106966018677,-0.3879029154777527,1.9868781566619873,-1.2996981143951416,0.27675580978393555,-0.21632981300354004,-0.8550912141799927,0.035179972648620605,-0.6150974035263062,1.6839005947113037,-0.1168203130364418,-1.9979299306869507,0.5264731049537659,1.6545809507369995,-0.2944210171699524,0.8033871054649353,0.31905603408813477,-2.2185235023498535,0.43000689148902893,-0.6874947547912598,-1.754092812538147,-1.2503684759140015,-1.4626812934875488,-0.3032665550708771,-1.8631763458251953,0.9995778203010559,-0.6590324640274048,-1.8783633708953857,0.705285370349884,-0.7177419662475586,0.22078001499176025,-0.915893018245697,0.014375426806509495,-0.32708850502967834,0.45790907740592957,-1.9921166896820068,-0.11229728907346725,0.7199143767356873,-0.928708553314209,0.8464499711990356,-0.7907213568687439,-0.5008452534675598,1.1043115854263306,1.0076521635055542,0.39658039808273315,0.5851154923439026,-0.8068059086799622,-0.9238139390945435,0.03041662648320198,-0.6880404949188232,1.181186556816101,0.17309525609016418,-2.7879958152770996,0.6348270177841187,-0.16220135986804962,-0.14800313115119934,-1.0805319547653198,-0.09134826809167862,-0.45531877875328064,-1.3703974485397339,-0.4475949704647064,0.2557262182235718,-1.045022964477539,0.7465287446975708,0.8235937356948853,0.8907459378242493,-0.633512556552887,0.5351137518882751,0.3229188621044159,-0.0650138258934021,-0.5537459850311279,-0.26827672123908997,0.07072722911834717,0.6587735414505005,0.4764484167098999,-0.3878302574157715,-1.576596975326538,0.16448229551315308,1.6466655731201172,-0.6570841073989868,-0.4363406002521515,1.3436485528945923,-2.2039427757263184,-1.3721344470977783,1.8245927095413208,-0.5786764025688171,0.0729721263051033,-0.9512828588485718,2.0373129844665527,0.3875461518764496,-0.9360142350196838,-0.844549298286438,0.02809954434633255,-0.2934601902961731,-0.022749928757548332,-2.790245294570923,2.198355197906494,0.4235932230949402,2.7927157878875732,2.308958053588867,0.4224131107330322,1.4360524415969849,-0.3824903070926666,-0.0035679119173437357,-0.08157286047935486,0.4308493733406067,-0.19472183287143707,-0.8376821279525757,0.042338162660598755,0.30859604477882385,-0.7592118978500366,1.7957537174224854,-0.8823550343513489,0.7681844234466553,-0.26538679003715515,0.411476194858551,0.31489020586013794,1.7892048358917236,-0.26270318031311035,1.1910761594772339,1.0717629194259644,-1.8790820837020874,1.0670708417892456,0.5182752013206482,-1.0038827657699585,0.22141006588935852,1.6408146619796753,0.8658170700073242,-1.3681824207305908,0.9364989399909973,0.22851724922657013,0.3680408000946045,-0.110023632645607,-0.3234236240386963,1.5581505298614502,-0.9738933444023132,1.582230806350708,-1.2712045907974243,-0.4809449017047882,0.6824307441711426,2.0178637504577637,-1.6376348733901978,-2.0356040000915527,-0.46347519755363464,-0.7813403010368347,-0.8716573715209961,-0.3927975594997406,2.0508177280426025,0.33881378173828125,0.7811827659606934,1.169507622718811,0.19605255126953125,-0.18193022906780243,0.2818017601966858,-2.1830451488494873,-1.04771089553833,1.3119920492172241,0.27440717816352844,-0.25082361698150635,0.5698946714401245,2.275771141052246,-0.34786826372146606,0.7485876083374023,0.9480834007263184,0.5347394943237305,-0.3883541524410248,0.5228167772293091,0.18543210625648499,0.231680765748024,0.021699484437704086,1.5688586235046387,-1.273131251335144,1.86185884475708,0.020015431568026543,-1.0677648782730103,-0.8898140788078308,0.4022156894207001,0.8997206091880798,-1.2954894304275513,-0.7794913053512573,-1.4687529802322388,-2.0605111122131348,-0.012707126326858997,-2.0300025939941406,0.6942247748374939,1.1390656232833862,-0.41010376811027527,1.6036369800567627,1.8022218942642212,0.034791965037584305,1.7087591886520386,0.007042712066322565,-0.6626396775245667,0.7677633166313171,0.5495560169219971,-0.2052076756954193,-1.2996482849121094,-1.168723464012146,0.5771826505661011,-0.578552782535553,1.5791484117507935,1.3611842393875122,-0.48552462458610535,1.7701387405395508,-1.1460367441177368,-0.053989484906196594,-1.0832712650299072,-0.7940953373908997,-0.3320571184158325,0.3970007300376892,-0.8947976231575012,-0.4882282018661499,-0.5752499103546143,-1.321440577507019,-1.1310323476791382,-1.377858281135559,0.6126339435577393,1.1656591892242432,-1.0294992923736572,0.9005666971206665,1.389450192451477,-1.3961151838302612,0.7514567375183105,0.8856642842292786,-1.0339950323104858,0.7875041961669922,0.9819033145904541,-0.6457928419113159,-0.3215700387954712,-0.5073416829109192,-0.25939396023750305,-0.35827741026878357,0.7075080275535583,-0.5847342610359192,-1.9183640480041504,-0.7366223931312561,-0.9623401761054993,-1.5607961416244507,-1.2322520017623901,-0.5550681948661804,0.7854084968566895,-0.7129042148590088,-0.10327690094709396,0.20359191298484802,1.1378991603851318,0.841711163520813,1.0001806020736694,-1.5010470151901245,0.2577453851699829,0.47152113914489746,1.0897338390350342,0.9278174042701721,-0.7861441373825073,0.3224373459815979,-0.6050770878791809,-0.690976083278656,0.16052119433879852,-0.5811471343040466,-0.2652169466018677,-0.4103894829750061,0.4530656933784485,-0.015158661641180515,0.8459484577178955,1.097007155418396,0.8650760650634766,1.4617388248443604,-0.5984777212142944,0.45155906677246094,0.9019829630851746,0.4960134029388428,-0.6713034510612488,-1.1287930011749268,0.4731290936470032,-0.42869216203689575,-0.07547269761562347,-0.5866915583610535,0.4431268274784088,-0.5070018768310547,0.7875009179115295,1.9789633750915527,1.4687625169754028,-0.30765676498413086,-0.10121919214725494,1.7464826107025146,1.4490554332733154,2.5058956146240234,0.4548766613006592,0.08115988969802856,1.439812183380127,1.669631004333496,-2.1462056636810303,-0.03623625263571739,-1.8696181774139404,-0.6606301069259644,0.3292213976383209,-1.9045602083206177,1.233115553855896,-0.9704729914665222,1.068933367729187,0.49163877964019775,0.18712396919727325,0.3147984743118286,-0.22122754156589508,0.4224569499492645,0.28143054246902466,-0.2602703273296356,-0.27056166529655457,1.253918170928955,0.2923519015312195,0.18591494858264923,0.9427033066749573,-0.7085295915603638,0.9897345304489136,-0.07818936556577682,0.9913884997367859,0.3113907277584076,0.04817117005586624,0.008663157001137733,-0.405524879693985,-0.4300343096256256,0.20159044861793518,0.20882995426654816,-0.08744239062070847,-0.7897472977638245,0.5597043037414551,0.46926212310791016,-0.6764999628067017,0.9833428859710693,-0.17854122817516327,0.6720409393310547,-0.1353043019771576,-0.1035996526479721,0.026660747826099396,-0.9044268131256104,0.036739055067300797,0.18437635898590088,0.920559823513031,0.6167001128196716,-0.5391989350318909,-0.4567168951034546,0.20963498950004578,0.3385467827320099,0.5544376373291016,0.0914706364274025,-0.7732124924659729,0.03720049187541008,0.9034751653671265,-0.172406867146492]},"inputHidden":{"rows":20,"columns":20,"weights":[-5.846116065979004,-1.6283073425292969,0.089332215487957,-0.2720935642719269,1.637399435043335,-3.3423514366149902,1.0303300619125366,0.5913929343223572,0.0036991441156715155,-0.5179603695869446,-2.11676025390625,-0.6152171492576599,2.5013420581817627,-2.584318161010742,1.3623127937316895,0.48277348279953003,0.6458467245101929,-0.9117872714996338,0.7212609648704529,-1.556915521621704,-1.5868315696716309,4.9062981605529785,-0.9602128863334656,0.6494387984275818,0.8179295659065247,-0.06452398747205734,-1.1680572032928467,2.241551160812378,2.3270328044891357,3.5836751461029053,-1.11643385887146,-0.5730020999908447,1.4791266918182373,1.7787522077560425,0.9579958915710449,4.843566417694092,0.7176306843757629,-0.7870683670043945,-1.1708279848098755,0.5736502408981323,0.2387026697397232,-0.4075518846511841,2.0705575942993164,-3.1502671241760254,2.0907411575317383,1.3863685131072998,0.4676869809627533,-1.3302267789840698,-1.6700774431228638,-0.2975095808506012,-0.2064548134803772,0.11984754353761673,-2.7699689865112305,2.175650119781494,1.6113905906677246,-1.261011004447937,0.1765349805355072,1.1621320247650146,1.9310952425003052,-1.157059669494629,-0.8582292199134827,-2.564138174057007,0.7307718992233276,0.22078517079353333,0.24684782326221466,1.2692067623138428,2.642289876937866,0.20851850509643555,-0.3364906311035156,-3.1109373569488525,-0.7619511485099792,0.17796166241168976,-1.4372038841247559,-4.4751763343811035,1.6465716361999512,-0.2159148007631302,-1.1777864694595337,-1.9879971742630005,0.24081511795520782,-1.1918939352035522,0.6999892592430115,-0.2196100354194641,-2.249127149581909,3.0081772804260254,-1.1178929805755615,-1.2952903509140015,-1.5462514162063599,-0.8702243566513062,-0.487292617559433,-0.5418712496757507,0.7106960415840149,0.8898476362228394,0.3642834722995758,-3.4310038089752197,-1.9013662338256836,-2.009463310241699,0.41994473338127136,-0.6807416081428528,0.8815568089485168,-0.703236997127533,-1.704243540763855,1.0683083534240723,-0.6814814209938049,-1.972596287727356,0.8042843341827393,-1.3688708543777466,-0.9704992175102234,-0.8162276148796082,0.59593266248703,2.681511640548706,-0.17201903462409973,-1.1491975784301758,4.972628116607666,-2.5409016609191895,1.2927488088607788,1.7575963735580444,0.028199411928653717,0.08192474395036697,-3.8837835788726807,-1.6960679292678833,3.8421993255615234,1.3494703769683838,-4.974931716918945,-1.0561773777008057,0.19384731352329254,-2.423614025115967,1.0477478504180908,0.907690703868866,0.3427805006504059,-0.09294907003641129,-0.6142405867576599,2.150938034057617,3.104506015777588,-2.7287259101867676,-0.7121020555496216,-3.67850399017334,1.2694576978683472,1.154118537902832,-3.8014721870422363,-3.6485164165496826,0.18733005225658417,1.7962132692337036,-0.35465601086616516,0.06746233254671097,-1.8826754093170166,-0.6035334467887878,0.0705525353550911,0.05903414636850357,-1.5345994234085083,-0.7549854516983032,4.104626178741455,0.3368847966194153,-0.07626363635063171,-1.010515570640564,-2.073849678039551,1.0395970344543457,2.1261510848999023,-4.605463981628418,-0.41128426790237427,-0.18060073256492615,-1.1254401206970215,1.4283716678619385,0.43153366446495056,3.136627435684204,-2.324662446975708,-1.2767876386642456,-1.408616304397583,-0.2132927030324936,-2.299483299255371,-0.27605727314949036,3.6847245693206787,-1.9360326528549194,-0.9346819519996643,-1.15291428565979,-3.7609972953796387,-1.3485621213912964,-2.227144479751587,0.006943744141608477,0.17350324988365173,1.8720018863677979,-0.08942582458257675,-0.5723775625228882,0.2896004915237427,-0.2724624276161194,0.03994306921958923,1.2108075618743896,1.613839864730835,-0.28545325994491577,-0.3094594180583954,0.5071316361427307,-0.15791617333889008,0.06726233661174774,0.10144981741905212,-0.059951942414045334,0.1379830241203308,-0.08022090047597885,-0.35369348526000977,-0.8300144076347351,-1.2261923551559448,-1.1721757650375366,1.6841422319412231,1.2854164838790894,0.5523728132247925,-2.2208192348480225,-1.4890064001083374,0.7446981072425842,0.7634976506233215,-0.9622174501419067,3.736694097518921,1.723103404045105,1.0739368200302124,-0.9198247790336609,1.0279765129089355,0.4982805550098419,1.2201825380325317,-2.113929033279419,-1.708950400352478,-1.7369877099990845,1.1805946826934814,0.2866523861885071,-3.436012029647827,1.5572623014450073,-2.61582350730896,3.3943731784820557,-0.9913698434829712,-0.9614415764808655,3.6965065002441406,-0.7590332627296448,0.9837992191314697,-1.4793847799301147,1.249385952949524,-0.9388610124588013,2.3134477138519287,-0.12105067074298859,-0.11509232968091965,-0.5326200127601624,-0.3899449110031128,-0.8060399889945984,0.1147524043917656,0.029253747314214706,-2.630056619644165,-0.5597878694534302,-1.7402894496917725,-0.07881609350442886,-0.3387210965156555,-0.5177851915359497,1.6926629543304443,-0.7639037370681763,0.310621976852417,0.041714951395988464,0.7357857823371887,0.6210669279098511,-0.9404402375221252,-1.5915418863296509,0.8723925948143005,-0.7514387369155884,0.27273958921432495,-1.3050450086593628,-0.437812477350235,-0.6025277376174927,-0.29162096977233887,0.30776217579841614,0.7293031215667725,-1.0810812711715698,-1.2538729906082153,1.0980674028396606,1.962584376335144,2.097029685974121,-0.6825225949287415,0.08272229880094528,-1.9503403902053833,0.24491143226623535,3.6463677883148193,2.6102938652038574,0.46353888511657715,-0.13533246517181396,0.3096499443054199,-2.1731069087982178,-1.5741825103759766,0.9133697152137756,0.13276831805706024,-0.5062896609306335,-0.45949786901474,-0.8232136368751526,1.6948360204696655,-0.40834319591522217,0.10755622386932373,-0.7511985301971436,0.6233317255973816,-0.550540566444397,0.13152049481868744,0.908673107624054,0.17971546947956085,0.8635078072547913,0.5037263631820679,0.5724217295646667,1.3160516023635864,1.3565369844436646,0.5215373039245605,-1.0314724445343018,0.06541146337985992,1.4034873247146606,0.03843619301915169,0.35954761505126953,-0.28026431798934937,-1.0034855604171753,-1.813061237335205,-1.2077089548110962,-1.1709275245666504,0.5117640495300293,0.33381325006484985,-0.6875324249267578,-0.03766589239239693,-0.06948720663785934,-0.8585143089294434,0.021095938980579376,-0.28890132904052734,0.5533167719841003,1.5093994140625,0.12288516014814377,-3.8686940670013428,1.1471513509750366,-1.1383706331253052,3.6680908203125,0.027186812832951546,0.7748978137969971,0.37736785411834717,-0.32355377078056335,0.33701327443122864,-2.044374704360962,3.2536256313323975,0.29474076628685,0.19281114637851715,-1.2845643758773804,-1.862143874168396,0.3425537347793579,-3.731719732284546,-0.4818081557750702,1.2958372831344604,-0.21812547743320465,0.20483794808387756,-0.9648284912109375,-3.259182929992676,0.0673883855342865,1.335392713546753,-0.8950933218002319,1.5681053400039673,0.07924127578735352,1.3557062149047852,0.8956238031387329,-0.9715272188186646,1.7647937536239624,2.2775440216064453,-1.3056340217590332,1.7390577793121338,-0.14579157531261444,1.9863231182098389,0.9929026365280151,-1.2366085052490234,-2.3924334049224854,0.4098714590072632,-0.28704312443733215,-0.49673664569854736,-0.6370328664779663,0.2906537652015686,-0.5893936157226562,-0.0705089196562767,-0.17617881298065186,-0.6000531315803528,-1.6223182678222656,-0.008937934413552284,-0.08363974094390869,0.8998590707778931,2.0855424404144287,-1.2106423377990723,1.14517343044281,-0.5032119750976562,-0.8335517644882202,0.8701343536376953,-0.6818930506706238,-1.9360713958740234,1.6311216354370117,0.6902391910552979,3.670830249786377,-5.3228535652160645,-0.083917997777462,-1.7550870180130005,1.5672428607940674,-0.9686406850814819,0.4474095106124878,1.315322756767273,-3.987412929534912,-3.1415579319000244,-0.5637073516845703,-1.467589020729065,-0.06610232591629028,-3.2935163974761963,2.300319194793701,-0.989780843257904,2.7286815643310547]},"inputBias":{"rows":20,"columns":1,"weights":[-0.28041720390319824,0.02777482010424137,-0.07709562033414841,-0.18608763813972473,-1.21954345703125,0.6383739113807678,-0.14366084337234497,-0.09763258695602417,0.055996835231781006,0.13317331671714783,-1.6534013748168945,-0.3446081876754761,-0.029464231804013252,0.00667957216501236,0.1279049515724182,-0.6512751579284668,-0.3133738040924072,-0.3648943603038788,-0.7150351405143738,-1.715607762336731]},"forgetMatrix":{"rows":20,"columns":35,"weights":[0.27801772952079773,0.9788264036178589,0.3972213864326477,0.12601232528686523,-1.388175129890442,-0.43075719475746155,0.5458375811576843,-0.36158832907676697,2.137327194213867,-1.4421988725662231,2.324014186859131,-2.358844518661499,0.5532633662223816,0.6471828818321228,-0.43041688203811646,-0.8369986414909363,0.8015742897987366,1.2068705558776855,-2.5833017826080322,2.3154196739196777,0.024239005520939827,-1.543155550956726,1.142000436782837,0.7109739780426025,1.1001521348953247,-1.6756120920181274,0.4661562144756317,0.14809803664684296,-0.6398876309394836,0.3085012137889862,-0.8397683501243591,1.4961152076721191,-1.3865275382995605,1.6256474256515503,-1.5569791793823242,-1.1652679443359375,0.14572249352931976,0.16806595027446747,-1.3182542324066162,-0.35089191794395447,-0.09345237910747528,-0.17777390778064728,-0.6904543042182922,-0.5752514004707336,-0.2514774799346924,-0.612606942653656,2.494053840637207,0.3770517408847809,-0.5369166731834412,1.9056719541549683,0.4931262135505676,0.46440523862838745,-0.4222741723060608,0.3703383803367615,-1.338888168334961,0.2739447355270386,-0.2932746410369873,0.7234602570533752,0.05028991773724556,1.175735592842102,-0.35537388920783997,-0.3887957036495209,-0.7837314605712891,-0.4751375615596771,-0.19293731451034546,0.011731169186532497,0.06982593983411789,0.165166437625885,0.6313129663467407,-0.5878511071205139,1.0399503707885742,-0.8732589483261108,-1.737932562828064,1.5065641403198242,-0.17322929203510284,0.4456466734409332,0.18390551209449768,-0.7840179800987244,-0.39234262704849243,-0.2561454474925995,1.2895119190216064,-0.7174705266952515,0.5365134477615356,0.9081140756607056,-1.8647514581680298,-1.7105433940887451,1.6105256080627441,1.200571894645691,-2.1603355407714844,0.21538640558719635,2.870704174041748,1.120505690574646,0.7728827595710754,0.6283982992172241,-0.3849722743034363,0.6056509017944336,0.35747870802879333,-1.8280292749404907,1.574007272720337,0.21672451496124268,1.6127480268478394,2.662013530731201,-0.18254658579826355,1.3380491733551025,-0.9306046366691589,-0.2981070280075073,-0.7195319533348083,-0.6631078124046326,0.8848679065704346,0.36800676584243774,0.15987735986709595,-1.5216901302337646,-1.1985968351364136,-0.9054075479507446,-1.0500285625457764,-2.8114917278289795,-0.8384228944778442,0.8522048592567444,-1.3816940784454346,2.643183946609497,1.4339019060134888,0.5031970143318176,2.5842676162719727,-0.6423900723457336,0.9361289143562317,-0.6202091574668884,0.21578972041606903,-0.3680408000946045,-0.5180944800376892,-0.262124627828598,-0.3720690608024597,-0.4839679002761841,0.16202014684677124,0.9278805255889893,-0.927190363407135,0.10918381810188293,-0.5163218379020691,-0.9480855464935303,-0.1253194361925125,-1.987827181816101,0.1110747903585434,-0.6227213144302368,0.43803805112838745,-0.5266980528831482,-0.9541094899177551,-0.6784683465957642,-1.285364031791687,-1.5592472553253174,0.40319591760635376,-0.13838981091976166,-1.5313305854797363,-0.595060408115387,1.394020915031433,-1.3114415407180786,0.8075476288795471,1.3712553977966309,-1.4121315479278564,1.1282061338424683,-0.49101516604423523,1.6410874128341675,-1.3587149381637573,-0.815294623374939,0.9905930161476135,-0.9612969756126404,0.1082393079996109,-0.03784537687897682,0.5642300248146057,1.1763719320297241,-0.006121397018432617,-0.5901596546173096,-0.4441356062889099,-0.7744196057319641,-0.8602128028869629,-0.7828226089477539,-0.586625337600708,1.3338896036148071,0.16069395840168,-0.7318689823150635,0.25316473841667175,0.07833799719810486,-0.5277450680732727,0.40653088688850403,0.1043107882142067,-1.1286979913711548,-0.3183501064777374,-0.09161186218261719,0.23814420402050018,-0.665744960308075,-0.25389015674591064,-1.6083437204360962,0.3793071210384369,0.9761660695075989,-0.188479945063591,0.20165322721004486,-1.1603177785873413,3.0748796463012695,0.1979755163192749,0.2784150242805481,-1.9394350051879883,-0.004212082829326391,0.7884138822555542,-0.801197350025177,-0.4193500280380249,-1.091516137123108,-0.36812520027160645,1.1727241277694702,1.3067387342453003,0.07253330200910568,-1.7296464443206787,-0.9400848150253296,-0.9357007145881653,0.7279216647148132,2.635004997253418,-0.7385755181312561,-1.2282497882843018,0.40076956152915955,-0.26859840750694275,-0.3765033781528473,-0.2892306447029114,0.08613617718219757,-0.1916733980178833,-0.9921964406967163,0.3059682846069336,0.9702203869819641,1.4716705083847046,-0.09653719514608383,1.0934321880340576,0.0379815548658371,-0.5247214436531067,2.074103593826294,-0.12869475781917572,0.32618820667266846,1.7545756101608276,0.9826402068138123,0.6636437177658081,0.4169963598251343,0.1033274233341217,0.4097804129123688,1.290986180305481,1.5494842529296875,-0.1526249498128891,-0.19539900124073029,0.23516593873500824,-0.4151912331581116,-1.213836431503296,-0.11774709075689316,-0.06054044887423515,-0.0650937408208847,1.2030436992645264,-0.6021642684936523,0.4306219220161438,1.379357933998108,0.9342080950737,0.04561254754662514,-0.7635148763656616,2.285585641860962,-0.17415033280849457,-0.9826797842979431,1.716510534286499,-0.7844453454017639,-1.6013349294662476,1.303930401802063,0.5736204981803894,-1.7598676681518555,0.8926681280136108,0.8931335210800171,0.6195356249809265,0.8329612612724304,-0.09228120744228363,0.15025541186332703,0.5313615798950195,-0.9648675918579102,-0.43222951889038086,0.37909623980522156,1.3949841260910034,0.7163491249084473,0.896909773349762,-0.9672214984893799,1.4104900360107422,-1.674813151359558,-0.37451979517936707,0.2663401663303375,0.1451779156923294,-0.20487280189990997,-0.6299464702606201,1.1848344802856445,1.427206039428711,1.7831991910934448,0.8317235708236694,0.5273006558418274,1.552846074104309,0.8192170262336731,-1.705100417137146,1.048251748085022,-1.4020358324050903,-1.5530297756195068,-0.27076295018196106,-0.5415499806404114,0.4765830636024475,-0.8817110657691956,0.46666550636291504,0.13592426478862762,0.5358699560165405,-0.22286103665828705,-0.5434379577636719,0.03700431063771248,0.2106228917837143,-0.691683828830719,-0.4059688448905945,0.9766967296600342,-0.20137940347194672,-0.32354283332824707,0.5268316268920898,1.4246041774749756,0.6560921669006348,-0.23559924960136414,0.7593764066696167,0.7976045608520508,-0.413739949464798,0.27908560633659363,-0.9946945309638977,-0.17440545558929443,-0.27410054206848145,-1.5340023040771484,1.3714673519134521,-0.06543360650539398,1.3908295631408691,0.5524762272834778,-0.9452077150344849,-0.8357602953910828,0.4106220006942749,-1.0577735900878906,-1.0982444286346436,0.159742534160614,-1.0110628604888916,-0.008581040427088737,0.9118077754974365,0.14857237040996552,0.6313120722770691,0.11417671293020248,0.7367132902145386,-1.297529935836792,-0.41256916522979736,0.8572599291801453,-0.43472471833229065,0.5739561915397644,-0.3946573734283447,1.5981255769729614,-0.7989784479141235,1.3037478923797607,-0.03954580798745155,-0.4838884770870209,-0.30225899815559387,-0.22687658667564392,0.04031116142868996,-1.5959118604660034,-1.977566123008728,-2.2722766399383545,-0.3281753361225128,0.1565452665090561,-0.9375487565994263,0.3825289309024811,2.542262554168701,-1.6799957752227783,0.30440378189086914,1.8378499746322632,-0.39757490158081055,0.38804423809051514,-0.09197482466697693,0.14376641809940338,-0.46751290559768677,-0.4767354428768158,-1.1668444871902466,-0.4775114357471466,-0.30076539516448975,-0.5235185623168945,-0.5533208250999451,0.7574076652526855,0.8259828686714172,-1.4256112575531006,1.0479803085327148,0.9097160696983337,-0.16577693819999695,-0.6994014382362366,0.2287389636039734,0.3308297097682953,0.5218203663825989,-0.09901759028434753,0.970222532749176,-0.08323489129543304,1.0732834339141846,-0.8482869267463684,-0.3174167275428772,-0.4754961431026459,-1.035714864730835,-0.6195303797721863,-1.8661766052246094,-0.14139685034751892,0.8387808799743652,-0.12562096118927002,-0.49061018228530884,1.0238791704177856,-0.5660303235054016,-1.1126843690872192,0.8800845742225647,0.33071163296699524,0.37941062450408936,-0.411697655916214,0.09379015862941742,1.3343095779418945,0.33533963561058044,0.27508944272994995,-1.0340403318405151,-0.07596098631620407,0.3513798713684082,0.2779863476753235,1.6833722591400146,-0.5653305053710938,-0.3582131266593933,-1.60209059715271,0.48747116327285767,-0.23585206270217896,-3.0687437057495117,0.045979104936122894,0.5941957235336304,-1.3086191415786743,-0.31830865144729614,-0.5397912859916687,0.5639169812202454,-0.3658350706100464,-0.6295154690742493,1.8177623748779297,0.7385579347610474,-2.255164623260498,-0.049795109778642654,0.8360942602157593,-0.5751583576202393,0.4270182251930237,-0.585117757320404,-1.8336604833602905,-1.1181930303573608,-1.1584781408309937,-1.1731255054473877,0.26398393511772156,-0.552161455154419,-1.7146166563034058,-0.8549647927284241,-0.6993117928504944,0.32343900203704834,-2.1847636699676514,0.24417966604232788,0.6926028728485107,-0.3478659391403198,0.47566619515419006,0.5188517570495605,0.7621012926101685,0.2716537117958069,0.10228360444307327,-1.6108609437942505,0.26103946566581726,-0.44749629497528076,2.2487449645996094,0.5278676152229309,1.1821006536483765,0.897931694984436,0.7528634071350098,-0.8446372151374817,-1.3390696048736572,1.386655330657959,-1.090697169303894,-0.12179578095674515,-0.029530154541134834,-1.1799182891845703,-0.09237633645534515,-0.9461727142333984,-0.2865068018436432,0.3559039235115051,0.34648823738098145,0.2542499303817749,0.11979140341281891,-0.14512327313423157,2.157630443572998,1.0736535787582397,-0.7281283736228943,-0.20722070336341858,0.2040351778268814,1.855023980140686,0.8599902987480164,0.5892662405967712,-0.7982217669487,0.6080572009086609,0.6694562435150146,-0.034346770495176315,0.9529289603233337,-0.42740750312805176,0.37923792004585266,0.535616934299469,0.7387767434120178,0.47694405913352966,-0.5184152126312256,0.7093136310577393,-0.5222559571266174,-0.581632673740387,0.5664394497871399,0.1660236418247223,-0.809770941734314,1.1871589422225952,1.0196985006332397,-0.31149178743362427,0.9844672679901123,0.18670541048049927,0.3520779609680176,0.2735612690448761,-0.23301298916339874,-0.34071415662765503,0.26059502363204956,0.47027313709259033,-0.27493539452552795,-0.4774177372455597,0.5036382675170898,-0.36278048157691956,0.4852955639362335,-0.5648494362831116,0.3276362419128418,-0.5105546116828918,-0.14063800871372223,-0.61942058801651,-1.3829996585845947,-0.9459433555603027,1.2667820453643799,-0.1311585158109665,-0.19975678622722626,0.25115445256233215,0.33657145500183105,0.06656187027692795,-0.26865193247795105,0.14208093285560608,-0.09887101501226425,-0.09524092823266983,-1.0295367240905762,-0.05991902947425842,0.6664489507675171,-0.19434423744678497,-0.08848947286605835,-1.5316683053970337,-1.3331412076950073,-1.1467336416244507,-1.3042171001434326,0.2820592224597931,-0.2814355492591858,-1.1587761640548706,0.38966813683509827,-0.8288025259971619,0.04700864851474762,-0.1961231529712677,0.006934432312846184,1.719491958618164,0.8437955975532532,0.5751288533210754,1.1767579317092896,0.8850277662277222,-1.3982659578323364,-0.23124079406261444,0.6696682572364807,-0.12690404057502747,-0.5360350012779236,-0.22245055437088013,-0.5467379689216614,-0.5222164988517761,-0.9061300754547119,0.13555702567100525,-0.11467251926660538,0.5927801132202148,0.6684584617614746,0.25995635986328125,-0.40493345260620117,1.1922812461853027,-0.777461051940918,-0.26867014169692993,0.7480623126029968,0.007153787650167942,-0.7942411303520203,-1.7415804862976074,0.6621799468994141,0.6698942184448242,-0.5818061828613281,0.4082412123680115,-0.29311442375183105,0.3334098160266876,-0.6460903882980347,-0.017604654654860497,1.1837564706802368,-0.5381012558937073,-0.04485737532377243,0.4623955190181732,0.15158051252365112,1.5785542726516724,0.1380084753036499,-1.6487641334533691,0.2778593599796295,-0.37812528014183044,0.9845787286758423,0.3081536889076233,-0.5300025939941406,1.9867016077041626,0.4869235157966614,0.6449247002601624,0.23609387874603271,0.692317008972168,-0.7743433713912964,-1.6929974555969238,-0.24918781220912933,-1.3796361684799194,1.2504431009292603,-1.2850679159164429,-0.6766396164894104,-0.6493254899978638,0.23039305210113525,1.371036171913147,0.16955244541168213,-0.9594944715499878,0.07885251939296722,-1.2473033666610718,0.18167877197265625,0.6504743099212646,-1.3544756174087524,-0.03961682319641113,1.9579119682312012,1.2711453437805176,0.3931507468223572,-0.2713378369808197,0.5471858978271484,-0.45424044132232666,-0.4439660310745239,-0.4846658408641815,0.005769488401710987,0.8312762975692749,-0.13953031599521637,0.5592126250267029,1.0910311937332153,0.5584460496902466,1.3779411315917969,0.21491007506847382,-0.685912549495697,-1.4281949996948242,0.5413904190063477,-1.1357864141464233,0.7404312491416931,-0.006823222618550062,-1.4739044904708862,1.2657699584960938,0.7034475803375244,0.8846882581710815,-0.3651387691497803,-0.3342410624027252,0.8157767653465271,-1.1297866106033325,1.235538363456726,0.1928863823413849,-0.55296790599823,1.0720798969268799,0.2336658537387848,0.7228906154632568,-1.0299320220947266,0.5797175765037537,0.419500470161438,-0.92132169008255,-0.5117630362510681,0.7347187399864197,0.6246491074562073,-1.0590298175811768,-2.0297083854675293,-1.4234706163406372,-0.8990411758422852,0.050509802997112274,-0.9130299091339111,-0.5411937236785889,1.460763931274414,-1.0780553817749023,2.039215564727783,1.4351606369018555,0.46534264087677,1.6172243356704712,-0.5222622156143188,0.27773675322532654,0.4028475284576416,0.41298195719718933,-0.6653189063072205,-0.018617715686559677,-0.6819167733192444,0.2554936707019806,-0.8292892575263977,1.129119873046875,0.8865545988082886,-0.5664889812469482,-1.091455101966858,0.2876620590686798,-0.1680285930633545,-0.5776844024658203,0.12572020292282104]},"forgetHidden":{"rows":20,"columns":20,"weights":[-0.24634318053722382,0.09537078440189362,-1.2124181985855103,1.2630923986434937,-0.021672207862138748,0.5653825998306274,-0.14359886944293976,0.9373400807380676,0.43557819724082947,1.131980299949646,1.3066234588623047,-0.23388731479644775,0.16175106167793274,0.624013364315033,-0.2012946456670761,-0.92746502161026,-1.3440332412719727,-0.8303753137588501,-1.2746806144714355,0.8655847311019897,1.1669042110443115,0.20761284232139587,0.4969032108783722,0.662074863910675,-3.212770938873291,-0.7814978957176208,-5.219872951507568,1.8787661790847778,2.699613571166992,-4.213381767272949,-1.4926502704620361,-0.5531747937202454,2.2196953296661377,-3.859848737716675,0.25963255763053894,1.8824043273925781,-1.4689592123031616,-0.7262787222862244,3.394680976867676,1.5793389081954956,-1.126569151878357,-2.4191555976867676,-0.8689501881599426,0.8521129488945007,0.22878645360469818,-1.6706122159957886,2.212815523147583,1.2942466735839844,0.5170193314552307,-0.040431149303913116,0.8812324404716492,1.003957986831665,-3.5400445461273193,1.1945538520812988,0.6092653870582581,-0.8712022304534912,0.3928554058074951,-2.338446855545044,-1.721406102180481,0.21292950212955475,-4.7919087409973145,-0.9668189287185669,-1.1746437549591064,-0.12349609285593033,-0.08321794867515564,0.17254066467285156,0.5364179611206055,-0.1789514720439911,1.2304556369781494,1.0102672576904297,-0.3811888098716736,-1.151280403137207,-0.004544231109321117,-0.5600683689117432,2.685659170150757,1.9322912693023682,-0.8608832359313965,0.09271764755249023,1.3258827924728394,1.6369727849960327,-2.225167989730835,1.6190476417541504,0.3192131817340851,0.34551164507865906,-0.14706158638000488,-1.9755980968475342,5.044356346130371,-1.3185949325561523,0.22143998742103577,1.9250909090042114,3.617978096008301,0.4982134699821472,-2.960891008377075,-4.491818904876709,-1.7591899633407593,1.162516474723816,0.19491073489189148,-1.0483267307281494,1.2607208490371704,0.08440564572811127,-2.664872884750366,0.7130213975906372,-0.3184892535209656,-2.465211868286133,1.8991013765335083,1.402530312538147,1.8683176040649414,2.5718939304351807,-0.8633168339729309,-1.1308586597442627,1.3841959238052368,1.7072629928588867,-3.0433804988861084,1.6279208660125732,-0.6853848099708557,-1.0916162729263306,2.488374948501587,0.13394533097743988,1.8993237018585205,0.06765976548194885,-0.9988206624984741,0.24864482879638672,0.7280704975128174,1.1345354318618774,-0.252380907535553,0.1660611480474472,-1.8070377111434937,-1.0101417303085327,-0.6162711381912231,1.7635185718536377,-1.4759408235549927,-0.9866761565208435,-0.7192860841751099,2.3333704471588135,-1.2906519174575806,0.9380993843078613,-0.8269105553627014,-1.435430645942688,0.2831207513809204,-0.7656511068344116,-0.42450419068336487,0.2765227258205414,0.0154849449172616,0.16374808549880981,-0.3233334720134735,0.05001478269696236,0.835564136505127,0.8725396990776062,-0.42915108799934387,-0.11811388283967972,0.9769583940505981,-0.30156585574150085,-0.8654001355171204,-0.5915393829345703,-0.9062572717666626,0.2948240637779236,-0.07427234947681427,0.3852134943008423,-0.3630322217941284,0.578396737575531,1.5150195360183716,0.2774040997028351,0.303723007440567,0.16261084377765656,1.9817557334899902,4.5099897384643555,3.1214678287506104,-1.2237451076507568,-0.9542369842529297,-2.6996994018554688,2.120911121368408,1.496334433555603,2.4719042778015137,-1.079875111579895,-2.1649343967437744,-3.32635235786438,1.653243899345398,-0.7906965017318726,1.6575148105621338,-1.766231656074524,-0.9427761435508728,-4.120150566101074,0.258833646774292,-1.5757925510406494,2.228461503982544,-0.7011361122131348,-3.161088228225708,-0.8975287079811096,0.866342306137085,-1.2440003156661987,-1.8617029190063477,2.9380342960357666,-0.7856433391571045,0.07746154814958572,-0.8517369627952576,-3.2054169178009033,2.6088876724243164,-1.9233571290969849,0.265674889087677,-1.6166141033172607,-0.45387136936187744,0.4658587872982025,0.36892104148864746,2.161402463912964,-0.71470046043396,-0.4117182791233063,-0.1310722678899765,0.02921377308666706,0.12000399827957153,0.23537449538707733,0.9264019727706909,-1.0606027841567993,1.0860024690628052,-0.582798957824707,0.044933535158634186,0.6743383407592773,-2.3046681880950928,1.048064112663269,0.18556296825408936,0.9647873640060425,-1.3186043500900269,2.3981173038482666,0.9898651242256165,4.579251766204834,0.49697136878967285,-1.9157195091247559,-1.4397822618484497,0.5767928957939148,0.08316463232040405,0.003280011937022209,2.435683488845825,-1.6304091215133667,-0.6206617951393127,-3.07621693611145,-1.2475674152374268,4.730601787567139,-1.369813084602356,1.3925631046295166,1.2333475351333618,1.4277145862579346,-0.8417947292327881,-0.7842158079147339,-2.9487109184265137,-1.8383867740631104,0.9393029808998108,-1.4137269258499146,-0.40433403849601746,-0.02524973824620247,2.0946054458618164,3.668398857116699,-2.573969602584839,0.01801845245063305,-0.8106363415718079,2.122765302658081,3.386594533920288,-1.659401535987854,1.5237922668457031,2.419743537902832,-0.5136876702308655,2.9219374656677246,-3.4896459579467773,1.119201421737671,1.3743350505828857,-2.4983468055725098,1.2892377376556396,1.7965341806411743,-0.6725720167160034,3.382995367050171,3.174140691757202,3.405806541442871,-4.318049907684326,1.0861947536468506,3.045003890991211,1.2669986486434937,0.18035398423671722,0.48106086254119873,0.6500530242919922,0.004157262854278088,1.2421818971633911,-0.8822699785232544,0.02034742385149002,-0.8513960242271423,0.9436613917350769,-2.309128522872925,2.1092543601989746,-0.7547594308853149,0.16339066624641418,-0.4388818144798279,0.21287564933300018,0.8074195981025696,-1.046015739440918,1.840550422668457,0.8319830894470215,0.263762503862381,0.7269432544708252,0.10079219937324524,1.7703155279159546,0.22729343175888062,0.17577803134918213,-2.428938388824463,3.536160945892334,1.4034614562988281,0.7204641103744507,2.2530887126922607,-3.2157175540924072,3.5941998958587646,1.738714337348938,-2.447704315185547,-1.437892198562622,1.457655906677246,-0.09302685409784317,-1.2364521026611328,1.0742963552474976,3.647040367126465,-3.965472936630249,0.9141680002212524,-2.749587059020996,-0.29283085465431213,1.4275987148284912,-0.23133337497711182,-0.1844327598810196,3.60056471824646,-1.8031831979751587,2.6001498699188232,0.6116098761558533,-0.9036585688591003,1.4992091655731201,-0.0018325370037928224,0.15368840098381042,-0.23836185038089752,1.446839690208435,-1.6839594841003418,1.520564317703247,0.27136749029159546,0.6554006934165955,1.74813711643219,-1.9061403274536133,-2.0035815238952637,-0.2534770667552948,0.3551771938800812,-0.38116180896759033,0.10176587849855423,0.43693771958351135,0.8329275250434875,0.6045031547546387,-0.7828583717346191,0.9910974502563477,0.22393417358398438,1.269607663154602,1.7899671792984009,0.8573325276374817,-0.01495499350130558,0.6419509649276733,0.4280637800693512,1.4289933443069458,0.703822910785675,-0.1173945739865303,0.9601483941078186,-0.09101765602827072,0.28548192977905273,-2.097031354904175,-0.493864506483078,0.24943341314792633,-0.6826674342155457,0.8848277926445007,-0.24754509329795837,0.22405952215194702,0.04101395606994629,-0.7422172427177429,-0.6523210406303406,-0.713280975818634,0.5642892718315125,0.30868616700172424,-0.4795840382575989,-1.0074901580810547,-0.5153679847717285,0.6306638717651367,-0.4254879653453827,0.8972999453544617,-1.0348825454711914,0.22529810667037964,0.1003718450665474,1.8278379440307617,0.26549455523490906,0.3121371567249298,2.0485942363739014,-0.8561547994613647,-0.18515171110630035,2.3232336044311523,-0.8125008940696716,-0.7321637868881226,-0.3899250626564026,-1.2682116031646729,-3.868255376815796,-0.3229129910469055,-0.6851754188537598,-0.5069100856781006,1.006004810333252,0.2688385844230652,1.2811062335968018]},"forgetBias":{"rows":20,"columns":1,"weights":[0,0,0,0,0,0,0,0,0,0,0,0,0,0,0,0,0,0,0,0]},"outputMatrix":{"rows":20,"columns":35,"weights":[0.5410804748535156,1.518871545791626,0.7404839992523193,0.35357022285461426,-0.8184254169464111,0.2705611288547516,1.453646183013916,0.31060469150543213,0.8026571869850159,-0.34129592776298523,0.058808691799640656,-0.21109741926193237,-0.4782903790473938,-0.23130762577056885,-0.7605385780334473,-0.08576686680316925,-0.8963737487792969,-0.6072632670402527,0.38452303409576416,-0.4022681415081024,-0.36426037549972534,0.791244626045227,0.9221588969230652,1.3066619634628296,0.4227677881717682,0.6074941754341125,0.5046728849411011,1.1069023609161377,-1.1836906671524048,-0.05508621037006378,-0.5729325413703918,-0.860878586769104,0.018796389922499657,-0.2762736678123474,-0.17704254388809204,-0.3242209553718567,0.27451902627944946,-2.241814613342285,-0.7344148755073547,1.0592989921569824,0.5471382141113281,0.17248108983039856,-0.28251317143440247,-1.063509225845337,2.478963851928711,-0.4632262885570526,0.574033260345459,0.09670988470315933,-0.6716756820678711,-1.5672082901000977,-0.3122353255748749,-0.6394966244697571,0.05465489998459816,2.598362922668457,-3.409450054168701,0.6708987951278687,1.1024597883224487,0.0881328135728836,-0.7714046239852905,0.34198591113090515,0.5127479434013367,-1.442181944847107,-1.6784441471099854,1.4167051315307617,-0.18913611769676208,1.3059139251708984,0.37253090739250183,3.0377509593963623,-1.7750555276870728,3.5355098247528076,-0.32713985443115234,0.5187291502952576,0.15148477256298065,-0.22293971478939056,0.34717485308647156,-0.5087494850158691,0.5150441527366638,-0.06681544333696365,0.8166201114654541,0.27166834473609924,0.8232396841049194,-0.8690639138221741,-0.3118100166320801,0.5263451337814331,0.18773134052753448,-0.6431363224983215,0.0752846822142601,1.356476068496704,-1.6299996376037598,-0.11914857476949692,0.7187196016311646,0.03297371789813042,2.678267002105713,2.2843258380889893,0.9465093612670898,-0.40855512022972107,0.029205234721302986,1.356741189956665,1.023044228553772,1.1211950778961182,-0.23537611961364746,1.0722862482070923,0.25021326541900635,2.161141872406006,-0.5515618324279785,0.2691981792449951,0.19727620482444763,0.30778270959854126,-0.4000081419944763,0.23811869323253632,-1.6693872213363647,-2.4728009700775146,-1.338848352432251,-0.141519233584404,-0.5438979864120483,-1.0806727409362793,0.10799805074930191,1.017009973526001,-1.160170316696167,0.6630377769470215,1.2837682962417603,0.8035880923271179,-0.8548967838287354,0.1910122185945511,0.16754411160945892,-0.7930104732513428,-0.17589609324932098,-0.990944504737854,0.8408910036087036,0.8337869048118591,-0.6387187242507935,-0.3649231493473053,1.337963581085205,0.17268560826778412,-1.154201626777649,-0.7628238797187805,0.6414426565170288,-0.7354815602302551,-0.5077400803565979,-0.3726543188095093,1.122479796409607,0.2959669530391693,0.7481672763824463,0.5006515383720398,-0.32698872685432434,-0.5450519323348999,0.07227933406829834,0.07450772821903229,0.25456443428993225,-0.5359492897987366,-0.20890168845653534,1.3992588520050049,0.6523599028587341,-0.5423170328140259,0.47871845960617065,0.7570081353187561,-0.6774449348449707,-2.14180850982666,-0.19046105444431305,-0.14883853495121002,-0.8100438714027405,0.713786244392395,-0.6975454688072205,-0.3674129545688629,-0.2178078293800354,0.5567958354949951,1.16094970703125,2.29048490524292,-0.9796894192695618,-1.0251497030258179,0.017794404178857803,0.20403814315795898,-0.6611253619194031,-1.7479182481765747,0.08690597862005234,0.9181835055351257,-0.6748219132423401,-0.4596530497074127,0.6983645558357239,-0.9284202456474304,-0.947250485420227,-1.6214960813522339,-1.3734949827194214,-1.217043399810791,-0.40409499406814575,-1.0646147727966309,-0.5991296768188477,1.406374454498291,0.09470363706350327,0.6975313425064087,0.6326472163200378,0.958384096622467,0.9352937340736389,-2.125425100326538,1.3270922899246216,0.14148388803005219,0.7155113816261292,-0.2775384187698364,-2.2238924503326416,0.3071487843990326,0.5766414999961853,0.8419805765151978,-1.3335837125778198,-0.06340847909450531,-0.318438321352005,0.7118105292320251,1.9151853322982788,-0.6449964642524719,-0.8155674338340759,-2.0868706703186035,0.2324059009552002,-0.8453346490859985,0.2814725339412689,0.39588701725006104,-0.04633614793419838,0.34401994943618774,-0.21073085069656372,0.10270069539546967,1.3310799598693848,-1.3608171939849854,-0.5592758059501648,-1.7058650255203247,-0.4634162187576294,0.39568617939949036,0.1076512411236763,0.9958403706550598,-0.5950451493263245,0.4223553538322449,-0.12327524274587631,1.448334813117981,-1.2833601236343384,-0.7002875208854675,-0.07922477275133133,-1.8617796897888184,0.3201059401035309,-0.20205187797546387,0.25748956203460693,1.5849655866622925,-1.4292869567871094,-0.9020659923553467,-0.510161280632019,-0.9800518155097961,-1.6632359027862549,-1.413110613822937,-0.21524515748023987,1.1352225542068481,-0.048414718359708786,0.15811696648597717,0.4583931565284729,-0.9942172169685364,0.746263861656189,-0.8424906730651855,0.5733604431152344,0.722521960735321,-1.4573562145233154,-0.14334481954574585,0.7180896997451782,-0.5260301828384399,1.0880508422851562,1.68641197681427,-0.9664738178253174,1.4010831117630005,-0.6460204124450684,-0.6368139982223511,0.17917262017726898,1.1642526388168335,-0.2106945663690567,0.46244361996650696,-1.420274257659912,-0.40628522634506226,0.2830730676651001,0.7863955497741699,-1.5403891801834106,0.6901496052742004,0.9036470651626587,0.2948099374771118,0.49219486117362976,-1.266548752784729,-0.8069434762001038,-1.8410203456878662,0.687471866607666,0.14168480038642883,0.9920309782028198,0.5542253255844116,0.0511401891708374,-0.787960410118103,-1.2049494981765747,-0.04238954558968544,0.9613616466522217,-1.9896268844604492,-1.5620919466018677,0.5505158305168152,0.13314877450466156,-1.876416563987732,2.3370251655578613,2.082794666290283,0.3233102262020111,-0.14007927477359772,0.2849563658237457,-0.14445826411247253,-0.6107912659645081,0.12561482191085815,-1.0048848390579224,-0.591526210308075,-0.2133173644542694,0.47808653116226196,-0.7061849236488342,2.640772581100464,-0.5858855843544006,-1.4757753610610962,-1.4303234815597534,-0.5546432733535767,-1.5231497287750244,-2.4724462032318115,-0.9113158583641052,-0.7365941405296326,0.8602548837661743,1.7131153345108032,0.8095499277114868,-0.07139146327972412,-0.8687764406204224,-0.718002438545227,0.06198350340127945,-0.16608306765556335,-1.8774371147155762,-1.747819423675537,-1.7823691368103027,0.12011122703552246,-0.6776828169822693,1.969572901725769,1.6891759634017944,-0.8692948222160339,-0.17800238728523254,0.06921033561229706,1.7525333166122437,-0.7265799045562744,-0.7008259892463684,0.04873577132821083,0.40008965134620667,0.9798029065132141,0.08794814348220825,-1.9172073602676392,1.9039865732192993,-1.6474345922470093,0.3254208564758301,-1.5532077550888062,-3.184157133102417,-0.8598334193229675,-0.7982925176620483,-1.0064946413040161,0.601707398891449,-0.09989411383867264,-0.008088410831987858,1.2632310390472412,0.02469852939248085,-0.46946075558662415,-1.3825827836990356,-0.15392780303955078,-0.7896806597709656,-1.5725159645080566,-0.8088874220848083,-0.14123448729515076,0.28689122200012207,-1.1067860126495361,0.6379107236862183,0.9518921971321106,0.5883494019508362,-0.18398240208625793,-0.12438536435365677,0.3544600009918213,-0.5754860043525696,0.49891960620880127,-1.1847450733184814,-0.7983511090278625,0.19004814326763153,0.6744996309280396,-0.550335168838501,1.2606521844863892,-0.3996261656284332,-0.6797124743461609,-0.4706723392009735,0.34512007236480713,-1.1578127145767212,-2.287029266357422,-0.07308129221200943,0.2365671843290329,-0.7372589707374573,0.006010751239955425,-0.28141167759895325,0.9975764155387878,-0.6438650488853455,-0.7292816638946533,-0.7330629825592041,-0.2840956449508667,0.039038896560668945,0.22555674612522125,0.017847662791609764,1.027241826057434,0.21354925632476807,1.0304067134857178,-0.0851365476846695,1.2714359760284424,-0.8423020839691162,-0.1926097720861435,-0.3315734565258026,-0.2509237229824066,-1.3733900785446167,-2.3810341358184814,1.0159261226654053,0.8066723346710205,-1.5220837593078613,0.3337499797344208,0.01740705966949463,0.6463993191719055,-0.542959451675415,-0.3644924461841583,2.259510040283203,0.126440167427063,0.17466327548027039,0.16444076597690582,0.2898608446121216,0.05857707932591438,-0.38135507702827454,1.7498072385787964,0.19583642482757568,-0.07805247604846954,0.7808542847633362,0.2912064790725708,-0.7746995687484741,-1.5455902814865112,1.1548341512680054,-0.22359296679496765,-0.6151040196418762,1.4611982107162476,-0.31002697348594666,-1.5967037677764893,2.425605535507202,-0.09139738231897354,-0.8002387285232544,-0.8808555006980896,0.901201069355011,0.5874196887016296,-0.02105460688471794,-0.030714765191078186,1.4089425802230835,0.3923332989215851,-0.3040105402469635,-1.5668046474456787,-0.020016135647892952,0.8433749079704285,0.9183925986289978,1.4878369569778442,-0.7470518946647644,1.9478611946105957,-1.5876775979995728,-0.029493262991309166,0.15627384185791016,-0.9005271792411804,-0.7344417572021484,1.0578864812850952,-0.6005997657775879,-0.0008951981435529888,0.08928185701370239,0.42964455485343933,0.4196639060974121,0.016896557062864304,0.5725091099739075,-0.28949296474456787,-0.8243488669395447,0.509133517742157,0.5861026644706726,0.4737464189529419,0.7006915211677551,-0.3783648908138275,-0.675391435623169,-0.1423358917236328,-0.6797140836715698,-0.5656980276107788,0.4681337773799896,-0.13965336978435516,-1.027616024017334,-0.45678696036338806,0.678986132144928,-0.03961557149887085,-0.3080434203147888,-0.3079080283641815,0.9421494603157043,0.33726391196250916,1.0815057754516602,-0.3181295096874237,0.2574617564678192,0.15410037338733673,0.1400863081216812,-1.0782325267791748,-0.4180167317390442,-1.3573476076126099,-1.355504035949707,-1.1019223928451538,-0.5443201661109924,2.312859296798706,-1.8408288955688477,1.7540031671524048,1.11851966381073,-0.8117592334747314,1.2252860069274902,1.2540316581726074,-1.5535610914230347,-0.06900540739297867,2.91904354095459,-0.7039387822151184,-0.9879202842712402,0.15234263241291046,0.2315445840358734,-0.47914835810661316,-0.6228276491165161,-0.10106728225946426,-0.2846062183380127,-0.16824744641780853,0.492094486951828,-0.6816919445991516,-0.8135380148887634,-1.5022735595703125,1.7933094501495361,-1.2931325435638428,1.3940231800079346,0.26394397020339966,0.4308822751045227,-1.008678674697876,-1.4145681858062744,0.6163508296012878,-1.1397953033447266,0.23124879598617554,-0.775312066078186,-1.014905571937561,1.5827463865280151,0.1320883184671402,0.8758901357650757,0.6981392502784729,-0.8840515613555908,-1.6899988651275635,0.15934345126152039,0.6279879212379456,-0.06824959069490433,0.674967348575592,-2.805079460144043,1.0248723030090332,0.6166493892669678,0.07582961022853851,-2.9891207218170166,-0.20025040209293365,0.6016196608543396,-0.06301409751176834,-1.4681024551391602,0.9535160064697266,-0.8757761120796204,1.2922405004501343,2.079711437225342,1.8502761125564575,-0.4538455903530121,0.8419641256332397,-0.16554121673107147,0.031990986317396164,-0.9708671569824219,-0.1051456481218338,1.4705840349197388,-0.37062039971351624,-0.9969011545181274,-0.6441160440444946,-1.0516417026519775,0.34818050265312195,-1.3542168140411377,0.7283883690834045,0.8484264016151428,-1.0485347509384155,0.9036571383476257,1.0130589008331299,1.1531709432601929,-0.015107452869415283,0.6104604601860046,-0.42777761816978455,-0.09460753947496414,0.44564002752304077,-1.6723319292068481,1.0904667377471924,-0.1491388976573944,0.09429150074720383,-0.8536610007286072,0.4473820924758911,0.2496936321258545,-0.5091431140899658,0.46515244245529175,0.814450204372406,0.5601871013641357,-0.38462215662002563,0.3334413170814514,-0.30012762546539307,1.3211418390274048,0.1755443960428238,-0.9730040431022644,-0.16902613639831543,0.29410359263420105,1.8507848978042603,1.9943033456802368,0.5380823016166687,0.4298686683177948,1.5804808139801025,0.4651721715927124,-1.45804762840271,0.06434755772352219,-2.140636444091797,-0.6928384900093079,-0.8832277655601501,-2.319511651992798,0.4743819534778595,-1.8182666301727295,-0.621623694896698,-0.40094655752182007,0.17744341492652893,-0.13434141874313354,0.8392688035964966,-0.349256306886673,1.0380737781524658,-0.16920235753059387,-1.9000921249389648,0.27687588334083557,-0.4830343723297119,0.9737406969070435,0.9284369945526123,1.7797064781188965,0.8194081783294678,1.2311511039733887,1.020216703414917,1.9965592622756958,0.8867269158363342,-2.244774103164673,0.6021876335144043,-0.051127415150403976,-0.5202030539512634,0.9441999197006226,-1.0112158060073853,-0.013108741492033005,-0.3094519078731537,0.07877204567193985,0.5242042541503906,1.9103838205337524,0.5604482889175415,0.752793550491333,0.7012460827827454,-0.14446017146110535,0.872589111328125,1.311195969581604,0.623957633972168,1.133975863456726,0.11752030998468399,0.5223053097724915,0.6877030730247498,0.8227947354316711,0.5771623253822327,-2.1291298866271973,-0.04253522306680679,-1.2211447954177856,-1.4342190027236938,-0.9739087224006653,-1.2198797464370728,-1.7616605758666992,0.6169216632843018,-0.022729655727744102,0.14642037451267242,1.2208322286605835,0.1259389966726303,-0.10790099203586578,-0.8014766573905945,-0.340521901845932,0.15892614424228668,-0.8885684609413147,0.42127180099487305,-0.0283573716878891,0.7014733552932739,0.1919221580028534,0.6083580851554871,-0.32740893959999084,0.9818738698959351,-0.02366366982460022,-1.531906247138977,0.9238225221633911,-1.4030457735061646,0.9741257429122925,-0.9846011400222778,1.8309848308563232,-0.06919308751821518,0.41850313544273376,-0.0033203463535755873,1.2857691049575806,0.48564213514328003,-0.17821332812309265,-0.9027175903320312,0.3506360948085785,-1.2666674852371216,0.20784445106983185,0.10257311165332794]},"outputHidden":{"rows":20,"columns":20,"weights":[-3.0239510536193848,-0.21514825522899628,-1.0918751955032349,-2.6506803035736084,4.57476806640625,2.064145803451538,-2.489497661590576,1.6054799556732178,3.441145420074463,1.1592286825180054,-3.87381649017334,1.052563190460205,2.16133451461792,-2.2700605392456055,-0.9357390403747559,-0.7508515119552612,0.11963413655757904,3.777853012084961,-1.2354673147201538,-1.0189707279205322,0.36415478587150574,-0.5899087190628052,0.26957839727401733,0.3752586543560028,-1.0181224346160889,1.3109917640686035,-2.1299352645874023,0.5806306004524231,0.7035492062568665,0.7155264616012573,-0.3048962354660034,-0.3795682489871979,0.3938784599304199,-0.6118817925453186,-1.0594253540039062,0.39232131838798523,-0.4010244905948639,0.045340873301029205,0.27344924211502075,0.6599438786506653,0.0817117914557457,1.2141462564468384,-0.5485420227050781,-0.9346181154251099,1.5763014554977417,0.6870700716972351,-0.789711594581604,-0.0009423582814633846,-2.660245895385742,1.0591624975204468,-0.2347620576620102,-0.3198392987251282,1.0721668004989624,3.375620126724243,1.8741035461425781,0.906055212020874,0.3777386546134949,0.6183105111122131,-0.03560125455260277,-0.2374904751777649,-0.5425856113433838,1.324558973312378,-0.2719971537590027,2.4286141395568848,-1.7296433448791504,1.3952016830444336,1.8522778749465942,2.0877344608306885,-0.1287468820810318,-0.5703607797622681,1.9490853548049927,-1.0491842031478882,0.2658369839191437,-1.5035713911056519,0.6233606338500977,0.9094305634498596,-2.5825092792510986,-0.8101639151573181,-1.639569878578186,1.916198492050171,0.03169385716319084,3.394867181777954,-3.374882936477661,2.9252982139587402,-1.9594208002090454,-2.3247132301330566,1.6129158735275269,-0.763004720211029,1.1351956129074097,1.7382396459579468,2.6237690448760986,-2.186187744140625,2.471684217453003,1.395046591758728,-0.8172206878662109,1.581701636314392,-2.7821848392486572,2.095834493637085,0.3593662977218628,1.5141053199768066,-0.8349707126617432,-0.6106501817703247,-1.503920316696167,-2.7376058101654053,0.7431985139846802,0.5548103451728821,0.474376380443573,-0.3295387327671051,-0.44311219453811646,-0.07508011162281036,0.6925662159919739,0.17013218998908997,-0.4927169680595398,-2.671421766281128,-0.19670546054840088,0.372903972864151,1.502873420715332,-0.29763263463974,-1.7124731540679932,-0.6571193337440491,-0.712090790271759,-0.3115546703338623,0.5591461658477783,0.34791165590286255,-2.181591272354126,-2.5957813262939453,0.586188554763794,-1.4279510974884033,-3.419551134109497,-1.9098411798477173,0.47892090678215027,-0.9973260760307312,-0.8210031986236572,2.132495641708374,-0.5322669148445129,0.8831678628921509,-0.23425565659999847,-1.7007447481155396,0.3919520378112793,0.5164010524749756,-0.11385941505432129,1.7888233661651611,2.534674882888794,-0.9745876789093018,1.6538176536560059,0.02404813840985298,1.2222753763198853,0.10787346959114075,0.4583374261856079,0.04218868166208267,2.3658461570739746,0.5334595441818237,-0.03990230709314346,2.6367361545562744,-2.3427305221557617,1.2901966571807861,1.736871600151062,-0.04184228926897049,1.0527995824813843,-0.7567930221557617,1.667589783668518,3.152796983718872,3.6684072017669678,0.04622567072510719,0.939208984375,0.8293339610099792,0.2762816846370697,-0.7624444961547852,0.45886334776878357,0.8880823850631714,-0.8853528499603271,-0.1708788275718689,2.852440118789673,-1.6925171613693237,-2.2164270877838135,1.5672104358673096,0.973365068435669,1.8799515962600708,1.0233386754989624,1.6586512327194214,-0.7219330072402954,-1.1473171710968018,0.38418689370155334,0.34872883558273315,-0.5241661667823792,-1.054785966873169,1.6581363677978516,0.6692336797714233,0.08236696571111679,-0.0825541540980339,0.37144479155540466,-0.038675080984830856,-1.3794353008270264,-0.7493811249732971,-0.023111147806048393,-0.14734415709972382,0.24327990412712097,0.07058782130479813,-1.3659863471984863,0.04532143473625183,-1.54935884475708,2.240290880203247,2.962613582611084,-2.361032247543335,1.9767169952392578,1.7810778617858887,-1.8883295059204102,-0.18243053555488586,1.9766765832901,1.916672706604004,-1.3022526502609253,-1.6858093738555908,2.2623302936553955,2.0026376247406006,1.7037917375564575,1.8231300115585327,-2.817049264907837,2.978309154510498,1.0236364603042603,1.8118473291397095,0.27349579334259033,2.5103554725646973,0.3772234320640564,4.231955051422119,-1.968443751335144,0.39536088705062866,0.42679598927497864,-0.33272719383239746,0.7372167110443115,2.0367166996002197,2.422025442123413,-1.7152793407440186,0.5449607372283936,0.1413951963186264,-2.818946361541748,0.7054833769798279,-3.348682165145874,2.777054786682129,-0.23709546029567719,1.7376046180725098,-1.2963802814483643,0.3239416182041168,-1.2318602800369263,1.667641520500183,-1.2140138149261475,-1.2883695363998413,1.034920334815979,-1.1710771322250366,1.5292587280273438,3.2791974544525146,0.7864362001419067,-1.0957144498825073,-2.981269121170044,2.40140962600708,1.6076198816299438,2.833190679550171,-0.5138661861419678,1.3329482078552246,-0.7797618508338928,0.8437067270278931,-2.478502035140991,2.2969493865966797,-0.25638148188591003,1.792598843574524,1.277523159980774,1.314774990081787,1.588186502456665,4.815228462219238,1.9681453704833984,3.070249080657959,-3.015305280685425,0.5228540301322937,2.3079349994659424,-1.3216071128845215,-0.009602664038538933,-0.37208518385887146,1.2194193601608276,3.937608480453491,-3.4991350173950195,-0.6036773324012756,1.2572298049926758,-0.9786598086357117,0.8624238967895508,-0.8657299876213074,0.835753321647644,0.9678715467453003,0.48130181431770325,-0.2579338252544403,-0.5418657660484314,-0.8966115713119507,-0.23946739733219147,0.7921344637870789,1.13686203956604,0.49962887167930603,1.3664835691452026,0.46511131525039673,1.2582571506500244,-0.5511606931686401,-1.1540166139602661,-1.012213110923767,0.002278996864333749,0.11469757556915283,-2.5748136043548584,0.3721339702606201,-0.22292207181453705,-2.616243362426758,-0.48283836245536804,0.20356567203998566,-0.36363327503204346,-0.9895214438438416,-0.3136317729949951,0.1504698097705841,-0.2219543308019638,-1.7086595296859741,-3.077059030532837,0.5572986006736755,-0.34898704290390015,0.8128575086593628,0.19906118512153625,-0.3661537766456604,0.1398000866174698,2.7636148929595947,0.9879618287086487,2.0606579780578613,-1.7577346563339233,1.109298825263977,-0.21439164876937866,-0.573483407497406,0.03424043580889702,-2.8203396797180176,0.7234135270118713,-2.7087435722351074,0.29576316475868225,-2.6452832221984863,-1.6343446969985962,0.17362165451049805,-4.064505100250244,0.06107877567410469,2.17215895652771,1.7901508808135986,-0.5173057317733765,-1.8978523015975952,-0.03711927682161331,-1.8689486980438232,1.8589115142822266,3.1809377670288086,-0.042692288756370544,1.4922828674316406,2.8393282890319824,-0.2965281903743744,-1.7213517427444458,1.391350269317627,-1.9339962005615234,1.195115566253662,-1.6031482219696045,-0.7344014644622803,1.598653793334961,-0.23179900646209717,-0.3787975609302521,-0.23648008704185486,-4.861882209777832,-0.5300025939941406,-0.704253077507019,-2.0063843727111816,1.162286639213562,-0.48399680852890015,0.43660688400268555,0.0990179106593132,0.36212223768234253,0.06169617921113968,-1.3233171701431274,2.1646268367767334,0.5031484961509705,-0.6123558878898621,-0.6001403331756592,-1.3351417779922485,2.161231279373169,-1.1462244987487793,-0.3558691740036011,-2.00657320022583,-0.09207997471094131,3.1846799850463867,0.538021445274353,3.264002561569214,-1.0691620111465454,1.5436897277832031,-1.0504099130630493,1.2996584177017212,-0.3823656737804413,0.850236713886261,0.9586905837059021,-2.848701000213623,-1.5935691595077515,-1.0130767822265625,-1.4868371486663818,2.262291193008423,-3.346627950668335,1.21328866481781,-0.9550409913063049,3.44647479057312]},"outputBias":{"rows":20,"columns":1,"weights":[0.130718395113945,-0.028023645281791687,0.29325202107429504,-0.4954564571380615,-1.0123716592788696,0.16639047861099243,-0.21087141335010529,0.04284357652068138,1.3278528451919556,0.22943179309368134,-1.0637446641921997,-0.4272342324256897,-0.10934987664222717,-0.8860419392585754,-0.4922912120819092,-0.6916066408157349,-0.6406500339508057,-0.5992717146873474,-0.48205944895744324,-0.7554476857185364]},"cellActivationMatrix":{"rows":20,"columns":35,"weights":[1.0590986013412476,-2.464425563812256,-0.9814785718917847,-0.8149294853210449,0.02749769575893879,-1.3723516464233398,0.09643984586000443,-1.126869559288025,-0.9008978605270386,0.33452388644218445,-0.397738516330719,1.9501208066940308,0.43161240220069885,-0.18200752139091492,1.341375470161438,0.9225504994392395,0.9278199076652527,1.242021083831787,-0.20879356563091278,-1.1222363710403442,0.49403631687164307,0.25588303804397583,0.40608930587768555,-0.5717282295227051,-1.3314872980117798,-0.11064092069864273,-0.9841550588607788,1.1469823122024536,1.0693424940109253,-0.003362985560670495,1.367997646331787,1.584234595298767,0.17003659904003143,-0.3292424976825714,-0.5439435243606567,-0.023702282458543777,-0.18450403213500977,-0.2573096454143524,-0.5296713709831238,0.2982984483242035,-0.9238870143890381,-0.35291507840156555,-0.4229829013347626,-1.2319109439849854,0.9203690886497498,-0.3392113447189331,0.8623786568641663,0.6677868366241455,-0.44536736607551575,-0.48219040036201477,0.3249783217906952,0.40759873390197754,-0.5764875411987305,0.25859901309013367,-0.9214657545089722,-0.4377116858959198,-0.2588469386100769,-0.5706179141998291,0.2572040557861328,0.060184553265571594,-0.3432243764400482,-0.4117051959037781,0.1405884474515915,0.5854883193969727,-0.551375687122345,0.9945424199104309,0.7202874422073364,0.7698991894721985,-0.6306804418563843,0.6157889366149902,-2.191331624984741,-1.0628670454025269,-0.48696035146713257,-1.3686615228652954,0.3607158064842224,0.9001166820526123,-0.27887001633644104,0.26471108198165894,0.004663486033678055,1.0513700246810913,0.46593886613845825,-0.381473183631897,-0.19784115254878998,0.681061327457428,0.13328252732753754,-0.055166345089673996,-0.027381137013435364,1.490999698638916,-1.3457363843917847,0.7035452723503113,-0.28715673089027405,-1.7373906373977661,0.1025703102350235,-0.46025708317756653,-0.2719566524028778,-1.1614314317703247,0.8470655083656311,-1.1652960777282715,0.4848727285861969,1.5651347637176514,0.2069813758134842,0.44579756259918213,0.9285857677459717,1.495692253112793,-1.6983141899108887,-0.8794410228729248,-1.1641955375671387,-0.6397577524185181,0.22618557512760162,0.9196346998214722,-0.32953962683677673,-0.6423998475074768,-0.347805380821228,-1.9916772842407227,-0.1272701472043991,-1.021281361579895,0.7632390260696411,-0.02312399260699749,-0.7095465660095215,0.6178526282310486,0.9675692319869995,0.18735364079475403,0.8527450561523438,0.2575107216835022,-0.257845938205719,0.402264267206192,-0.407484233379364,-0.9885237216949463,0.19016337394714355,-1.2114506959915161,-0.15505164861679077,-1.037904977798462,0.2731062173843384,0.9310300946235657,-0.36693716049194336,0.8640601634979248,-0.7973685264587402,