{"type":"LSTM","options":{"inputSize":66,"inputRange":66,"hiddenLayers":[20,20],"outputSize":66,"decayRate":0.999,"smoothEps":1e-8,"regc":0.000001,"clipval":5,"maxPredictionLength":100,"dataFormatter":{"indexTable":{"0":61,"1":62,"2":60,"c":0,"a":1,"p":2,"i":3,"t":4,"l":5," ":6,"o":7,"f":8,"A":9,"g":10,"h":11,"n":12,"s":13,"K":14,"b":15,"u":16,"T":17,"r":18,"(":19,"e":20,")":21,"d":22,"V":23,"L":24,"B":25,"S":26,"J":27,"'":28,"m":29,"Y":30,"v":31,"C":32,"z":33,"j":34,"k":35,"N":36,"M":37,"D":38,"w":39,"P":40,",":41,"H":42,"G":43,"F":44,"O":45,"R":46,"ô":47,"I":48,"y":49,"Z":50,"E":51,"Q":52,"q":53,"-":54,"x":55,"U":56,"W":57,"ü":58,".":59,"stop-input":63,"start-output":64,"unrecognized":65},"characterTable":{"0":"c","1":"a","2":"p","3":"i","4":"t","5":"l","6":" ","7":"o","8":"f","9":"A","10":"g","11":"h","12":"n","13":"s","14":"K","15":"b","16":"u","17":"T","18":"r","19":"(","20":"e","21":")","22":"d","23":"V","24":"L","25":"B","26":"S","27":"J","28":"'","29":"m","30":"Y","31":"v","32":"C","33":"z","34":"j","35":"k","36":"N","37":"M","38":"D","39":"w","40":"P","41":",","42":"H","43":"G","44":"F","45":"O","46":"R","47":"ô","48":"I","49":"y","50":"Z","51":"E","52":"Q","53":"q","54":"-","55":"x","56":"U","57":"W","58":"ü","59":".","60":"2","61":"0","62":"1","63":null,"64":null,"65":null},"values":[{"input":"capital of Afghanistan","output":"Kabul"},{"input":"capital of Albania","output":"Tirana (Tirane)"},{"input":"capital of Algeria","output":"Algiers"},{"input":"capital of Andorra","output":"Andorra la Vella"},{"input":"capital of Angola","output":"Luanda"},{"input":"capital of Antigua and Barbuda","output":"Saint John's"},{"input":"capital of Argentina","output":"Buenos Aires"},{"input":"capital of Armenia","output":"Yerevan"},{"input":"capital of Australia","output":"Canberra"},{"input":"capital of Austria","output":"Vienna"},{"input":"capital of Azerbaijan","output":"Baku"},{"input":"capital of Bahamas","output":"Nassau"},{"input":"capital of Bahrain","output":"Manama"},{"input":"capital of Bangladesh","output":"Dhaka"},{"input":"capital of Barbados","output":"Bridgetown"},{"input":"capital of Belarus","output":"Minsk"},{"input":"capital of Belgium","output":"Brussels"},{"input":"capital of Belize","output":"Belmopan"},{"input":"capital of Benin","output":"Porto Novo"},{"input":"capital of Bhutan","output":"Thimphu"},{"input":"capital of Bolivia","output":"La Paz (administrative), Sucre (official)"},{"input":"capital of Bosnia and Herzegovina","output":"Sarajevo"},{"input":"capital of Botswana","output":"Gaborone"},{"input":"capital of Brazil","output":"Brasilia"},{"input":"capital of Brunei","output":"Bandar Seri Begawan"},{"input":"capital of Bulgaria","output":"Sofia"},{"input":"capital of Burkina Faso","output":"Ouagadougou"},{"input":"capital of Burundi","output":"Gitega"},{"input":"capital of Cambodia","output":"Phnom Penh"},{"input":"capital of Cameroon","output":"Yaounde"},{"input":"capital of Canada","output":"Ottawa"},{"input":"capital of Cape Verde","output":"Praia"},{"input":"capital of Central African Republic","output":"Bangui"},{"input":"capital of Chad","output":"N'Djamena"},{"input":"capital of Chile","output":"Santiago"},{"input":"capital of China","output":"Beijing"},{"input":"capital of Colombia","output":"Bogota"},{"input":"capital of Comoros","output":"Moroni"},{"input":"capital of Congo, Democratic Republic of the","output":"Kinshasa"},{"input":"capital of Congo, Republic of the","output":"Brazzaville"},{"input":"capital of Costa Rica","output":"San Jose"},{"input":"capital of Côte d'Ivoire (Ivory Coast)","output":"Yamoussoukro"},{"input":"capital of Croatia","output":"Zagreb"},{"input":"capital of Cuba","output":"Havana"},{"input":"capital of Cyprus","output":"Nicosia"},{"input":"capital of Czech Republic (Czechia)","output":"Prague"},{"input":"capital of Denmark","output":"Copenhagen"},{"input":"capital of Djibouti","output":"Djibouti"},{"input":"capital of Dominica","output":"Roseau"},{"input":"capital of Dominican Republic","output":"Santo Domingo"},{"input":"capital of East Timor","output":"Dili"},{"input":"capital of Ecuador","output":"Quito"},{"input":"capital of Egypt","output":"Cairo"},{"input":"capital of El Salvador","output":"San Salvador"},{"input":"capital of England","output":"London"},{"input":"capital of Equatorial Guinea","output":"Malabo"},{"input":"capital of Eritrea","output":"Asmara"},{"input":"capital of Estonia","output":"Tallinn"},{"input":"capital of Eswatini (Swaziland)","output":"Mbabana"},{"input":"capital of Ethiopia","output":"Addis Ababa"},{"input":"capital of Federated States of Micronesia","output":"Palikir"},{"input":"capital of Fiji","output":"Suva"},{"input":"capital of Finland","output":"Helsinki"},{"input":"capital of France","output":"Paris"},{"input":"capital of Gabon","output":"Libreville"},{"input":"capital of Gambia","output":"Banjul"},{"input":"capital of Georgia","output":"Tbilisi"},{"input":"capital of Germany","output":"Berlin"},{"input":"capital of Ghana","output":"Accra"},{"input":"capital of Greece","output":"Athens"},{"input":"capital of Grenada","output":"Saint George's"},{"input":"capital of Guatemala","output":"Guatemala City"},{"input":"capital of Guinea","output":"Conakry"},{"input":"capital of Guinea-Bissau","output":"Bissau"},{"input":"capital of Guyana","output":"Georgetown"},{"input":"capital of Haiti","output":"Port au Prince"},{"input":"capital of Honduras","output":"Tegucigalpa"},{"input":"capital of Hungary","output":"Budapest"},{"input":"capital of Iceland","output":"Reykjavik"},{"input":"capital of India","output":"New Delhi"},{"input":"capital of Indonesia","output":"Jakarta"},{"input":"capital of Iran","output":"Tehran"},{"input":"capital of Iraq","output":"Baghdad"},{"input":"capital of Ireland","output":"Dublin"},{"input":"capital of Israel","output":"Jerusalem"},{"input":"capital of Italy","output":"Rome"},{"input":"capital of Jamaica","output":"Kingston"},{"input":"capital of Japan","output":"Tokyo"},{"input":"capital of Jordan","output":"Amman"},{"input":"capital of Kazakhstan","output":"Nur-Sultan"},{"input":"capital of Kenya","output":"Nairobi"},{"input":"capital of Kiribati","output":"Tarawa Atoll"},{"input":"capital of Kosovo","output":"Pristina"},{"input":"capital of Kuwait","output":"Kuwait City"},{"input":"capital of Kyrgyzstan","output":"Bishkek"},{"input":"capital of Laos","output":"Vientiane"},{"input":"capital of Latvia","output":"Riga"},{"input":"capital of Lebanon","output":"Beirut"},{"input":"capital of Lesotho","output":"Maseru"},{"input":"capital of Liberia","output":"Monrovia"},{"input":"capital of Libya","output":"Tripoli"},{"input":"capital of Liechtenstein","output":"Vaduz"},{"input":"capital of Lithuania","output":"Vilnius"},{"input":"capital of Luxembourg","output":"Luxembourg"},{"input":"capital of Madagascar","output":"Antananarivo"},{"input":"capital of Malawi","output":"Lilongwe"},{"input":"capital of Malaysia","output":"Kuala Lumpur"},{"input":"capital of Maldives","output":"Male"},{"input":"capital of Mali","output":"Bamako"},{"input":"capital of Malta","output":"Valletta"},{"input":"capital of Marshall Islands","output":"Majuro"},{"input":"capital of Mauritania","output":"Nouakchott"},{"input":"capital of Mauritius","output":"Port Louis"},{"input":"capital of Mexico","output":"Mexico City"},{"input":"capital of Moldova","output":"Chisinau"},{"input":"capital of Monaco","output":"Monaco"},{"input":"capital of Mongolia","output":"Ulaanbaatar"},{"input":"capital of Montenegro","output":"Podgorica"},{"input":"capital of Morocco","output":"Rabat"},{"input":"capital of Mozambique","output":"Maputo"},{"input":"capital of Myanmar (Burma)","output":"Nay Pyi Taw"},{"input":"capital of Namibia","output":"Windhoek"},{"input":"capital of Nauru","output":"No official capital"},{"input":"capital of Nepal","output":"Kathmandu"},{"input":"capital of Netherlands","output":"Amsterdam"},{"input":"capital of New Zealand","output":"Wellington"},{"input":"capital of Nicaragua","output":"Managua"},{"input":"capital of Niger","output":"Niamey"},{"input":"capital of Nigeria","output":"Abuja"},{"input":"capital of North Korea","output":"Pyongyang"},{"input":"capital of North Macedonia (Macedonia)","output":"Skopje"},{"input":"capital of Northern Ireland","output":"Belfast"},{"input":"capital of Norway","output":"Oslo"},{"input":"capital of Oman","output":"Muscat"},{"input":"capital of Pakistan","output":"Islamabad"},{"input":"capital of Palau","output":"Melekeok"},{"input":"capital of Palestine","output":"Jerusalem (very limited recognition)"},{"input":"capital of Panama","output":"Panama City"},{"input":"capital of Papua New Guinea","output":"Port Moresby"},{"input":"capital of Paraguay","output":"Asuncion"},{"input":"capital of Peru","output":"Lima"},{"input":"capital of Philippines","output":"Manila"},{"input":"capital of Poland","output":"Warsaw"},{"input":"capital of Portugal","output":"Lisbon"},{"input":"capital of Qatar","output":"Doha"},{"input":"capital of Romania","output":"Bucharest"},{"input":"capital of Russia","output":"Moscow"},{"input":"capital of Rwanda","output":"Kigali"},{"input":"capital of Saint Kitts and Nevis","output":"Basseterre"},{"input":"capital of Saint Lucia","output":"Castries"},{"input":"capital of Saint Vincent and the Grenadines","output":"Kingstown"},{"input":"capital of Samoa","output":"Apia"},{"input":"capital of San Marino","output":"San Marino"},{"input":"capital of Sao Tome and Principe","output":"Sao Tome"},{"input":"capital of Saudi Arabia","output":"Riyadh"},{"input":"capital of Scotland","output":"Edinburgh"},{"input":"capital of Senegal","output":"Dakar"},{"input":"capital of Serbia","output":"Belgrade"},{"input":"capital of Seychelles","output":"Victoria"},{"input":"capital of Sierra Leone","output":"Freetown"},{"input":"capital of Singapore","output":"Singapore"},{"input":"capital of Slovakia","output":"Bratislava"},{"input":"capital of Slovenia","output":"Ljubljana"},{"input":"capital of Solomon Islands","output":"Honiara"},{"input":"capital of Somalia","output":"Mogadishu"},{"input":"capital of South Africa","output":"Pretoria, Bloemfontein, Cape Town"},{"input":"capital of South Korea","output":"Seoul"},{"input":"capital of South Sudan","output":"Juba"},{"input":"capital of Spain","output":"Madrid"},{"input":"capital of Sri Lanka","output":"Sri Jayawardenapura Kotte"},{"input":"capital of Sudan","output":"Khartoum"},{"input":"capital of Suriname","output":"Paramaribo"},{"input":"capital of Sweden","output":"Stockholm"},{"input":"capital of Switzerland","output":"Bern"},{"input":"capital of Syria","output":"Damascus"},{"input":"capital of Taiwan","output":"Taipei"},{"input":"capital of Tajikistan","output":"Dushanbe"},{"input":"capital of Tanzania","output":"Dodoma"},{"input":"capital of Thailand","output":"Bangkok"},{"input":"capital of Togo","output":"Lome"},{"input":"capital of Tonga","output":"Nuku'alofa"},{"input":"capital of Trinidad and Tobago","output":"Port of Spain"},{"input":"capital of Tunisia","output":"Tunis"},{"input":"capital of Türkiye (Turkey)","output":"Ankara"},{"input":"capital of Turkmenistan","output":"Ashgabat"},{"input":"capital of Tuvalu","output":"Funafuti"},{"input":"capital of Uganda","output":"Kampala"},{"input":"capital of Ukraine","output":"Kyiv or Kiev"},{"input":"capital of United Arab Emirates","output":"Abu Dhabi"},{"input":"capital of United Kingdom","output":"London"},{"input":"capital of United States","output":"Washington D.C."},{"input":"capital of Uruguay","output":"Montevideo"},{"input":"capital of Uzbekistan","output":"Tashkent"},{"input":"capital of Vanuatu","output":"Port Vila"},{"input":"capital of Vatican City","output":"Vatican City"},{"input":"capital of Venezuela","output":"Caracas"},{"input":"capital of Vietnam","output":"Hanoi"},{"input":"capital of Wales","output":"Cardiff"},{"input":"capital of Yemen","output":"Sana'a"},{"input":"capital of Zambia","output":"Lusaka"},{"input":"capital of Zimbabwe","output":"Harare"},{"input":"capital of 201","output":"201"}],"characters":["c","a","p","i","t","l"," ","o","f","A","g","h","n","s","K","b","u","T","r","(","e",")","d","V","L","B","S","J","'","m","Y","v","C","z","j","k","N","M","D","w","P",",","H","G","F","O","R","ô","I","y","Z","E","Q","q","-","x","U","W","ü",".","2","0","1","stop-input","start-output","unrecognized"],"specialIndexes":[63,64,65]}},"trainOpts":{"iterations":50,"errorThresh":0.005,"log":true,"logPeriod":10,"learningRate":0.01,"callbackPeriod":10,"timeout":"Infinity"},"input":{"rows":67,"columns":66,"weights":[-0.8778412938117981,-1.3912296295166016,0.47712942957878113,1.2182172536849976,0.15389025211334229,-0.6254469752311707,-0.714844286441803,-0.4471420347690582,-0.4466995298862457,-0.12780635058879852,1.0725122690200806,-1.643206000328064,-0.6344672441482544,-0.5937385559082031,-0.41173094511032104,0.2920304238796234,1.164628028869629,-0.4317954182624817,0.2127307653427124,-0.07139253616333008,-0.6149985194206238,0.3827184736728668,0.24829815328121185,-0.13021430373191833,0.1811038702726364,-0.7004736661911011,-0.14901205897331238,-0.2562118470668793,-1.0322039127349854,-0.13418136537075043,0.13063105940818787,0.7332782745361328,-0.21921515464782715,-0.22596465051174164,-0.9372506737709045,-0.9924132227897644,-0.8765077590942383,-0.4247790575027466,0.6098010540008545,1.3498127460479736,0.581506073474884,0.05785859376192093,0.2581650912761688,-0.7170836925506592,0.68299800157547,0.5755261182785034,1.7378950119018555,-0.1671401560306549,0.7277383804321289,0.24991263449192047,-0.309969037771225,0.1409681886434555,1.3616448640823364,-0.5174017548561096,-0.6115167140960693,0.11553709954023361,0.38412389159202576,-0.11835275590419769,-0.3548285663127899,0.04890544340014458,0.42924830317497253,-1.1921964883804321,1.5093414783477783,-0.01446231547743082,1.090950846672058,0.5293177962303162,0.32496753334999084,0.6134442687034607,-0.08469848334789276,0.011728308163583279,-0.07934428006410599,0.1083136573433876,-0.4292801022529602,-0.05514363572001457,-1.303446650505066,1.3093490600585938,0.4729720652103424,-0.5484654307365417,-1.261184811592102,0.015879768878221512,-1.3737120628356934,-0.2777694761753082,-0.7540096640586853,0.43926921486854553,-0.5959957838058472,0.9979660511016846,-0.14184258878231049,0.012503137812018394,-0.08001280575990677,2.4848787784576416,1.441235065460205,0.5109480619430542,0.41280168294906616,-0.5314422249794006,-1.9350358247756958,-0.2215203493833542,1.9325162172317505,-1.2856886386871338,0.30044320225715637,1.5538758039474487,0.27920010685920715,-2.781630754470825,-0.013787323608994484,-0.01836594194173813,-0.32801732420921326,-0.3051377534866333,0.13756753504276276,0.6708368062973022,-0.949860155582428,0.65941321849823,0.3220928907394409,-1.4841253757476807,-0.19823619723320007,1.816239356994629,2.3348801136016846,-0.7047709822654724,-0.4951421022415161,-0.13104993104934692,-0.8268190622329712,-1.434333324432373,-1.0956883430480957,-0.16740991175174713,-0.0741177573800087,-0.7539307475090027,-1.783050775527954,-0.6403742432594299,0.8264995217323303,-0.7209113836288452,3.1398143768310547,-0.04139162600040436,-0.6178234815597534,-1.2683587074279785,-0.3149445056915283,0.5450323820114136,-0.0826258733868599,-0.27245956659317017,0.12492014467716217,-1.1162539720535278,-1.2701162099838257,-1.3394795656204224,-0.04249260574579239,-0.19536665081977844,1.4762725830078125,-0.1592988818883896,-0.37365666031837463,0.26150381565093994,-0.3844837546348572,1.391883134841919,0.5353925824165344,-0.45906201004981995,0.5190519690513611,1.631308674812317,-0.5404472947120667,0.7006092071533203,0.21448151767253876,0.41721847653388977,0.22011110186576843,-0.900807797908783,-0.593986988067627,0.25713178515434265,-0.5708706974983215,-1.3397307395935059,0.19367660582065582,-0.2909913957118988,0.7805317640304565,-0.9532504081726074,-0.40466034412384033,0.8376257419586182,0.5887613296508789,-0.4281534254550934,0.20784129202365875,0.2578464150428772,-0.04099307954311371,0.9839138984680176,0.3834061026573181,0.24854885041713715,-0.3792376220226288,0.3864658772945404,1.2394006252288818,-0.7919048070907593,-0.5881771445274353,1.047250747680664,-0.7993372678756714,0.21102853119373322,-0.24677272140979767,-0.4195438325405121,0.1530134528875351,0.9889304041862488,0.8721773624420166,0.4751392900943756,-0.4185723662376404,-1.0141469240188599,0.615195095539093,0.22372837364673615,0.23417234420776367,0.5009490251541138,0.7928797602653503,-0.33446004986763,-0.6290596127510071,-0.6379754543304443,0.0814131423830986,0.9620393514633179,0.5926178693771362,-0.3207775950431824,-1.0627516508102417,-0.6922311782836914,-1.7317558526992798,0.7296713590621948,-1.0445811748504639,-1.0785316228866577,-1.0098092555999756,1.2725270986557007,-0.39024701714515686,0.6127299070358276,-0.48004233837127686,0.07489597797393799,-0.13500884175300598,1.4350523948669434,0.38434913754463196,0.06829967349767685,-0.31674253940582275,1.2970021963119507,0.17250214517116547,-0.20739078521728516,-1.0781046152114868,1.0499221086502075,-0.0996767207980156,-0.7609409093856812,0.06539525836706161,-0.9838297963142395,-0.2932988405227661,-1.1074904203414917,-0.29059892892837524,-1.3786931037902832,0.05992872640490532,0.3088834583759308,0.638900876045227,-0.5429267287254333,-0.16000570356845856,-0.24665965139865875,-0.7386324405670166,-0.31062284111976624,-1.2725259065628052,0.011073198169469833,0.7304846048355103,-0.7243651747703552,0.33740395307540894,-0.17574258148670197,-0.12781724333763123,-0.6113337874412537,0.45964372158050537,-0.8005333542823792,0.4350873827934265,-0.21627028286457062,-0.3284252882003784,-1.151208519935608,0.08863214403390884,0.7655624747276306,0.6885024309158325,-0.9896244406700134,1.2925845384597778,-0.7572565078735352,0.5698476433753967,-0.9350571632385254,0.543951690196991,0.6355651617050171,-0.7825228571891785,-0.42695581912994385,-0.026745155453681946,0.8140885233879089,1.4305702447891235,1.3436851501464844,0.5172856450080872,-0.8659740686416626,0.7514787912368774,0.6201608777046204,0.45242688059806824,-0.8259124755859375,1.0960370302200317,-1.4142221212387085,-0.9276477098464966,0.27182435989379883,0.3080679774284363,-0.8801836967468262,0.5459426045417786,0.3564841151237488,0.5583603382110596,-0.8391455411911011,-0.32616177201271057,0.8828643560409546,0.8325449824333191,-0.644943356513977,0.42145398259162903,-0.542339026927948,-0.7121210694313049,0.5807793736457825,0.4186817705631256,-0.5106929540634155,0.05882731452584267,0.7704125046730042,-0.8638271689414978,-0.37002894282341003,0.15818114578723907,2.3418126106262207,0.3501306176185608,0.6991379261016846,0.5765379667282104,-0.1791606843471527,-0.7720562815666199,-0.2827277183532715,-0.27740317583084106,-0.9180812835693359,0.5852905511856079,0.5214407444000244,0.6300134062767029,-1.0821173191070557,0.6827415227890015,-0.4034450650215149,-0.3443726897239685,0.8465476036071777,-0.476820707321167,1.2452069520950317,0.1210252121090889,0.011163726449012756,-0.4930846393108368,0.2588014006614685,-0.3504534959793091,-0.02312725968658924,-0.544852077960968,0.9713670611381531,-1.6120049953460693,1.6016075611114502,-0.5036381483078003,-0.37611547112464905,1.0603495836257935,0.03396390751004219,0.950800359249115,0.608466625213623,-1.2641490697860718,-0.8091521859169006,0.6884132623672485,0.41979315876960754,0.24746279418468475,-1.312558889389038,1.0641154050827026,-1.1577365398406982,-3.2638816833496094,-0.4753776490688324,-1.3369576930999756,-0.19535188376903534,0.8374714255332947,-0.3578234314918518,0.466603547334671,-0.9422118663787842,1.0659288167953491,-0.3022988736629486,1.5455149412155151,-1.4490859508514404,-0.24507592618465424,-0.11932552605867386,-0.4284171462059021,-0.18531949818134308,-0.10009507089853287,0.5706530809402466,-1.238073706626892,-0.26003143191337585,-0.4197096526622772,0.39410191774368286,0.5600534081459045,0.06687456369400024,0.9593585133552551,0.20962217450141907,2.2290899753570557,-0.14757925271987915,2.3406474590301514,0.549045979976654,0.5968015193939209,-0.6486150622367859,1.1328277587890625,-0.6172359585762024,-0.9108251929283142,-0.13138940930366516,-1.1539555788040161,0.1305234581232071,-0.33126479387283325,0.39471685886383057,-1.2894258499145508,-1.3501592874526978,-0.7173709273338318,-0.3544209599494934,2.2431182861328125,0.7116761803627014,0.08123952895402908,-1.721182942390442,0.3800102472305298,0.8249264359474182,1.1387848854064941,-0.9361339211463928,-1.0546056032180786,-0.924294114112854,0.3687949776649475,1.0195883512496948,1.6876295804977417,1.1958589553833008,0.7660244703292847,-0.13976895809173584,-0.005179299972951412,0.5304886698722839,1.8429795503616333,-0.5076435804367065,0.5384356379508972,-1.3871701955795288,0.19451701641082764,0.4889688789844513,0.10088829696178436,-1.1082574129104614,0.4797382950782776,-0.6682655811309814,0.5385457873344421,-0.21023176610469818,0.2979264259338379,0.720067024230957,-0.29517069458961487,-0.6772589683532715,-0.8867509961128235,0.5353392362594604,0.9284204840660095,0.5207465887069702,-0.2772293984889984,0.5152811408042908,1.1420423984527588,-0.5083914399147034,-1.2002930641174316,-0.36836323142051697,0.08106280863285065,1.9610141515731812,0.8273010849952698,-0.029053013771772385,-0.623968243598938,-0.7024480104446411,0.37221068143844604,-1.0806852579116821,-1.2080910205841064,0.20430690050125122,0.6977046132087708,0.03499443829059601,1.3866939544677734,-0.633969247341156,0.8033145666122437,-0.7018750309944153,-1.3831026554107666,-0.745958149433136,-0.9310541749000549,0.4969698488712311,-0.9835178256034851,1.2766549587249756,-0.3140934705734253,0.12388394773006439,-0.8677150011062622,0.38731661438941956,-1.6177929639816284,0.5539360046386719,0.9841575026512146,0.8275014758110046,-1.5217167139053345,0.33373507857322693,0.4717128574848175,-0.696345865726471,-0.12094715237617493,-0.8610108494758606,0.16448475420475006,0.08885577321052551,0.013179058209061623,0.27080410718917847,0.1576848030090332,-0.12501929700374603,-0.029859770089387894,0.605586588382721,-0.0971347987651825,0.9016125202178955,1.430640697479248,1.2156325578689575,-0.07187647372484207,0.36436575651168823,0.3783855140209198,0.061429884284734726,1.2904915809631348,0.6332647204399109,-0.10464189946651459,0.9100009202957153,-0.635372519493103,-1.2420653104782104,-0.2852727472782135,-0.11094021797180176,0.9804581999778748,-1.5451314449310303,1.6010823249816895,1.2043571472167969,0.519311249256134,-0.8417230248451233,0.7259218096733093,0.40560537576675415,0.8724960684776306,0.6555107235908508,-0.1692741960287094,0.06494881957769394,-0.437350332736969,-0.7273434400558472,0.6364110708236694,-0.5343260765075684,-1.0044907331466675,1.0222762823104858,1.3371038436889648,0.7544794082641602,0.7798537611961365,-0.7061359882354736,-0.4886270761489868,0.7137010097503662,0.44247424602508545,-0.3840036690235138,-0.477708637714386,-0.826744556427002,0.21184305846691132,0.8615042567253113,-0.8558917045593262,1.7187366485595703,-0.6250773072242737,-0.6083065271377563,0.6380603313446045,-0.6037746667861938,-0.8764879703521729,1.1013522148132324,0.9817714691162109,-0.6088631749153137,0.5350698828697205,-0.012694915756583214,0.8959680795669556,-0.7082145810127258,-0.05185914784669876,0.07469800859689713,1.134706974029541,-0.8511281609535217,1.173885703086853,-0.5422400236129761,-0.9440406560897827,1.0460654497146606,1.1088335514068604,-0.3775874674320221,1.5931106805801392,-0.25431105494499207,0.32429513335227966,-0.4073588252067566,0.0668170377612114,1.157036304473877,0.6390201449394226,-0.8878331184387207,-0.018809400498867035,0.07544742524623871,0.24006535112857819,0.5731441378593445,-0.812571108341217,0.9870683550834656,0.9075708389282227,0.025633351877331734,-0.7208924889564514,0.036209046840667725,1.474544882774353,0.6925453543663025,1.0795766115188599,-0.5456352233886719,0.09683685004711151,1.0219448804855347,0.33526861667633057,-0.6372359991073608,1.164915680885315,-0.3165580630302429,-0.33700114488601685,0.17189699411392212,1.8179187774658203,-0.5879154205322266,2.2884085178375244,-1.271589756011963,0.7160438299179077,-0.4574342370033264,-1.1314901113510132,-0.27951499819755554,0.26872754096984863,1.2492369413375854,0.551846981048584,0.1531788557767868,-1.101589560508728,-0.8838199973106384,-0.6790663599967957,0.6624986529350281,-1.3816214799880981,-0.22698445618152618,0.09840892255306244,0.3086221218109131,-0.9790551066398621,-1.0918875932693481,0.17422625422477722,-0.870482861995697,-0.6223703026771545,0.5018184185028076,0.46624520421028137,1.2421724796295166,2.966299057006836,0.1116146519780159,2.833238124847412,0.3027507960796356,-0.7115511298179626,-0.783424437046051,-0.790528416633606,0.2861195206642151,-0.3024822771549225,0.3889385759830475,-0.5451964139938354,0.4895023703575134,0.7809498906135559,-0.7990400195121765,-0.1967695951461792,-0.3151721954345703,-1.6569799184799194,-0.772666871547699,-0.01982050947844982,-0.0735260471701622,1.1142642498016357,-1.4977853298187256,-0.32790353894233704,0.48320668935775757,-1.3006298542022705,-0.9324255585670471,-1.2749536037445068,1.5817418098449707,-0.728499174118042,1.9180322885513306,0.8495669960975647,-0.6214019656181335,-0.5988967418670654,1.157516360282898,0.5705240964889526,-0.5187016725540161,2.2452731132507324,0.6294258832931519,-0.8822444081306458,-0.004799958318471909,-0.6726980209350586,-1.1634280681610107,-2.028604030609131,0.3770597577095032,0.7328544855117798,1.9824787378311157,-0.949299156665802,-0.5925021767616272,-0.8326201438903809,0.7189101576805115,-0.2874439060688019,0.38738813996315,0.7006145119667053,0.16019095480442047,2.4730136394500732,-2.1704905033111572,-5.558610439300537,0.9945992231369019,2.2676544189453125,1.2056901454925537,1.70670747756958,0.8459823131561279,2.0908854007720947,-7.677640914916992,-0.03619084507226944,1.025756597518921,4.293543338775635,-8.053229331970215,7.660943984985352,0.3495842516422272,0.04298403486609459,1.4799857139587402,7.607855319976807,-0.5278180241584778,0.6136095523834229,-2.3254170417785645,1.445106863975525,-6.1756744384765625,0.3137301802635193,2.010749101638794,6.40301513671875,-7.520848751068115,-3.0791025161743164,1.3036396503448486,0.9034305810928345,6.774966716766357,0.6767735481262207,-0.14575423300266266,2.536247491836548,3.424210786819458,0.05105307325720787,-7.7116475105285645,0.9774487614631653,4.399706840515137,5.971768379211426,0.9001851677894592,3.0207903385162354,-2.895277738571167,-4.111771106719971,-0.8609452247619629,-1.0890859365463257,-4.995880126953125,-1.7959351539611816,7.292586803436279,-1.3437832593917847,2.9134681224823,2.686305522918701,-2.6304423809051514,-6.474452972412109,-1.3826298713684082,-0.5395976305007935,4.211407661437988,-1.0064359903335571,0.8896050453186035,-5.453379154205322,4.343301296234131,-6.219642639160156,6.5840606689453125,-0.11579028517007828,7.9477949142456055,-0.3428431451320648,3.8543860912323,-0.7784573435783386,-3.0422637462615967,-3.7702221870422363,1.907355785369873,-0.37911608815193176,1.7318867444992065,3.1484129428863525,-5.998587608337402,2.5319101810455322,0.36042189598083496,3.5926947593688965,-4.572235584259033,5.569650173187256,1.4203155040740967,1.1891714334487915,-3.0387566089630127,-4.588325500488281,2.6033639907836914,-3.073281764984131,4.65503454208374,-0.2656051814556122,-2.5858495235443115,-4.072314262390137,-2.611855983734131,4.131049156188965,-5.265193462371826,2.8054251670837402,-3.5099964141845703,-0.6598226428031921,1.523794174194336,1.142223596572876,-2.350353956222534,-4.23834753036499,3.5808000564575195,1.240439534187317,0.7274245619773865,-1.5137819051742554,-0.025453444570302963,2.297968626022339,2.5836997032165527,4.844894886016846,-0.02483098767697811,0.41617000102996826,1.8565038442611694,-0.8449185490608215,-2.4861674308776855,-0.023426782339811325,2.774611234664917,-2.6962056159973145,3.9144070148468018,-3.827282667160034,1.2149543762207031,-0.11852718889713287,3.963487386703491,1.8983147144317627,3.3329451084136963,0.9817997217178345,-1.2976360321044922,-1.218217134475708,3.288688898086548,-4.771639347076416,-0.27718597650527954,1.1059638261795044,2.6601200103759766,-7.540351867675781,-3.0018081665039062,6.346418857574463,-2.0986194610595703,-4.378291606903076,1.6552871465682983,0.24454613029956818,2.4733853340148926,-0.3864671289920807,2.154719829559326,-3.402872323989868,-0.5792025327682495,-2.487178325653076,3.4824509620666504,-1.9087228775024414,-1.6812890768051147,0.839655876159668,-2.416874647140503,-1.1846131086349487,-3.3042707443237305,2.5533316135406494,-0.9389397501945496,-0.2318418174982071,-2.401315689086914,1.0332156419754028,-2.6415514945983887,-4.16134786605835,4.025518894195557,-0.7761138677597046,2.5687448978424072,-1.9071916341781616,-4.501958847045898,-0.28549376130104065,-0.08629660308361053,-2.5025930404663086,0.655470073223114,-2.5369932651519775,3.1459898948669434,-2.9707999229431152,-2.116772413253784,-3.981003999710083,0.4257068336009979,-1.0590665340423584,0.848061740398407,1.171007752418518,1.6720223426818848,-3.259800672531128,-1.3753279447555542,2.1793768405914307,-5.025979995727539,0.5357422232627869,-2.9207544326782227,-2.001769781112671,4.658328056335449,2.2875685691833496,-1.5125677585601807,-3.9630393981933594,-2.578702211380005,2.1815030574798584,2.780116081237793,1.9774152040481567,-5.405711650848389,2.812058925628662,-4.3959856033325195,0.3517458140850067,-4.115122318267822,0.25483739376068115,0.6347237825393677,0.6202979683876038,0.12992770969867706,-1.234221339225769,-0.3016739785671234,-1.6177420616149902,-2.812476873397827,0.7571843266487122,-1.8415035009384155,1.082599401473999,1.050816297531128,-0.6698802709579468,-0.5994426608085632,0.2265017032623291,0.7228593230247498,0.7689333558082581,-0.8077468872070312,1.3322498798370361,0.8953396677970886,-0.2381402552127838,1.40143883228302,-0.5933733582496643,-0.6228460669517517,-3.2058751583099365,-0.42696619033813477,-0.9081155061721802,-0.6445057988166809,1.9877938032150269,-0.7465704679489136,-1.5166860818862915,1.0779768228530884,-0.18373823165893555,0.8228316307067871,-0.9365667104721069,0.5961732268333435,3.0709989070892334,0.7407158613204956,-0.13808253407478333,-0.22615118324756622,-0.3023412823677063,0.9471839666366577,1.6119171380996704,0.9144866466522217,0.18822306394577026,1.0584137439727783,1.110901117324829,0.028558077290654182,-2.2436625957489014,0.889907956123352,0.2203642874956131,3.2564141750335693,-0.2704302668571472,0.16966189444065094,2.0553338527679443,1.6046686172485352,0.25616124272346497,1.2766222953796387,1.5338157415390015,-2.015352964401245,0.25297677516937256,1.3350332975387573,-1.235984444618225,-0.7752964496612549,1.336998462677002,1.098270058631897,1.7423853874206543,0.6710119247436523,-0.036630406975746155,-3.897592544555664,-1.4219348430633545,2.460526466369629,2.3002169132232666,0.9872816205024719,3.467433214187622,-1.1015841960906982,1.2509232759475708,4.532739639282227,6.822940826416016,-2.4450571537017822,3.2300188541412354,-0.7496227025985718,-1.0293232202529907,0.060880761593580246,-1.4221020936965942,-0.40901944041252136,-1.2483512163162231,1.9517968893051147,3.587289571762085,-2.017334222793579,0.7788153290748596,1.5751256942749023,-2.050492763519287,-1.3072941303253174,0.23553737998008728,-1.145134449005127,0.03844350203871727,-1.313866376876831,1.998354434967041,-1.7331061363220215,-0.15701280534267426,2.1368184089660645,0.5075433850288391,1.4306221008300781,-0.4240390360355377,3.868950843811035,1.6699084043502808,2.4994163513183594,1.5252671241760254,-1.4677550792694092,1.014987587928772,-0.3162829577922821,-3.1583731174468994,-0.3601054847240448,-2.0270655155181885,-0.5377234816551208,0.04063599184155464,0.5149997472763062,1.1466658115386963,1.681795358657837,-1.2707914113998413,1.9032763242721558,0.9571437239646912,2.3511993885040283,-1.4946402311325073,-1.6504566669464111,0.7447125315666199,0.8975350260734558,-1.085178017616272,0.17516689002513885,-1.9431337118148804,0.7969604730606079,-8.775680541992188,10.64030933380127,-1.124969482421875,-3.4231319427490234,-7.95948600769043,-0.19181212782859802,1.7385483980178833,0.7768217921257019,-2.1147732734680176,0.5749824047088623,7.707715034484863,8.690027236938477,2.304335832595825,12.512167930603027,2.072756052017212,-0.5835727453231812,-2.078333854675293,-10.211780548095703,0.4861615002155304,3.3759710788726807,1.4366039037704468,-4.513420581817627,-2.898195266723633,-8.661803245544434,5.800547122955322,-6.863840103149414,-7.999378681182861,1.7637544870376587,4.268169403076172,-4.024152755737305,-6.9447736740112305,0.5762097835540771,11.961980819702148,-7.380602836608887,-4.475026607513428,6.613908767700195,7.161213397979736,-3.9602622985839844,-8.94205379486084,1.8201591968536377,-2.648249626159668,3.3471181392669678,-4.527584075927734,1.2360678911209106,-2.8266501426696777,3.79396390914917,-3.2203176021575928,-11.273146629333496,-1.3730112314224243,3.294761896133423,0.6549414396286011,4.450859546661377,-7.940659523010254,-3.9839091300964355,0.29212942719459534,-1.6383086442947388,-4.066633701324463,3.688218116760254,-5.106499671936035,-5.0127973556518555,-3.626173973083496,11.034348487854004,-6.134055137634277,9.855467796325684,0.8892760872840881,0.9081389307975769,-4.056066036224365,-5.600282192230225,2.9947896003723145,1.0699818134307861,-0.7482594847679138,0.011347069405019283,1.6614370346069336,1.479524850845337,-0.4110620319843292,1.858786702156067,0.6545025706291199,-1.4653053283691406,3.9233105182647705,-0.39313721656799316,4.092625141143799,-2.4544692039489746,-4.354305744171143,-3.162623643875122,-2.4522030353546143,-2.380150079727173,0.010206990875303745,1.7545404434204102,-2.441420316696167,1.8878893852233887,0.5220568180084229,-3.3499302864074707,-0.327838271856308,2.143507957458496,-3.327435255050659,2.2708816528320312,2.956300735473633,-1.137344479560852,-4.904013156890869,-0.828725278377533,-2.867797374725342,0.40927842259407043,-1.6233811378479004,4.658156394958496,-0.9123361110687256,-2.5758068561553955,-2.8040096759796143,-5.101010322570801,-1.9440069198608398,3.4163897037506104,4.035394191741943,-2.110199213027954,1.0325700044631958,5.345836639404297,0.37418922781944275,-3.541374921798706,-3.6505160331726074,-0.43075940012931824,-2.175544023513794,-1.7675504684448242,2.486501932144165,-3.0739023685455322,0.8002918362617493,-0.9694966077804565,-4.013366222381592,2.4335010051727295,-0.572697639465332,-3.778153896331787,0.4530358910560608,-0.5508657693862915,2.7718398571014404,-4.166617393493652,-1.5195502042770386,-1.3270611763000488,1.2091964483261108,-1.357283592224121,-0.7041820883750916,1.1720569133758545,-1.468546986579895,-0.31900182366371155,-0.4934326708316803,1.170880675315857,0.03262525424361229,-1.9105538129806519,-2.7074177265167236,1.4771409034729004,-1.2537630796432495,0.8445420861244202,2.678462505340576,-2.4789388179779053,-1.1238338947296143,0.8967186808586121,-1.4946179389953613,-0.35086435079574585,-0.8989527821540833,0.5302276611328125,-1.2365827560424805,-2.4743094444274902,-1.1013143062591553,1.8453328609466553,0.48760369420051575,-0.37116149067878723,-1.7051169872283936,-0.6963090300559998,0.7482378482818604,-2.7576794624328613,-1.5351074934005737,-0.8101134896278381,2.5111453533172607,-0.507768452167511,-2.435774803161621,-0.8670751452445984,-1.269421935081482,1.6797821521759033,1.3995842933654785,-2.137514114379883,-1.716814398765564,3.4983713626861572,-0.7957272529602051,0.07780136168003082,-0.5079565644264221,-0.07320313900709152,-2.5874853134155273,2.5876457691192627,-0.9213999509811401,5.070772171020508,-0.310752272605896,-0.57148677110672,1.6795097589492798,0.38077065348625183,0.6095616817474365,-2.1486618518829346,-0.7618473172187805,-0.589496374130249,2.3652760982513428,-0.36091646552085876,3.399399995803833,-0.9795544743537903,-1.7771447896957397,-1.1280310153961182,0.3433665335178375,2.6055426597595215,-2.4590609073638916,-8.610162734985352,-8.389640808105469,-8.638936996459961,0.501486599445343,-2.284271240234375,6.232456207275391,-6.2217559814453125,-0.25751304626464844,-7.184826374053955,1.129394769668579,7.674007892608643,4.962024211883545,-6.918944358825684,-0.10072387009859085,4.798231601715088,-8.49918270111084,2.014702320098877,-4.027256965637207,1.9092304706573486,0.27773648500442505,-5.306395530700684,-1.1939834356307983,-0.2077254354953766,3.1089625358581543,-5.341543674468994,-0.020718729123473167,-3.3287405967712402,0.43358317017555237,0.5689845681190491,-5.211012363433838,0.48746421933174133,3.827385902404785,3.403280019760132,1.4068665504455566,-2.927614688873291,2.5199801921844482,1.082916259765625,4.66465425491333,5.906754493713379,3.7218024730682373,6.020198822021484,10.900337219238281,-0.09065232425928116,-0.09405835717916489,0.9598633050918579,-1.6235686540603638,2.740438461303711,1.612479567527771,2.27510404586792,5.423349380493164,3.60622501373291,7.752788066864014,-2.4010519981384277,1.2858754396438599,-3.838621139526367,6.4735918045043945,-2.046466588973999,0.9419498443603516,-4.786439895629883,3.541219711303711,-3.6574525833129883,-0.9341907501220703,1.5189138650894165,-0.05371098592877388,-2.0296075344085693,-1.575954556465149,-0.12973952293395996,2.839400053024292,0.05354354903101921,-0.8866845965385437,1.7091881036758423,0.08292298763990402,2.257314682006836,0.23753850162029266,1.7952407598495483,-1.3142732381820679,-0.6304831504821777,-1.3523869514465332,0.48640692234039307,-0.30838584899902344,0.12137391418218613,1.8155179023742676,-0.021993452683091164,-0.4860948920249939,0.3802868127822876,1.710543155670166,0.5740357041358948,-1.3999669551849365,0.6953955888748169,-0.5566408038139343,-0.05376160889863968,-0.7595264911651611,-0.8799181580543518,1.127534031867981,-0.7120687961578369,0.7763647437095642,0.6703158020973206,0.35959717631340027,0.42358696460723877,-1.6190522909164429,0.916087806224823,-1.216660976409912,1.4422358274459839,0.16862976551055908,1.702323317527771,0.7689761519432068,1.2804033756256104,-0.674650251865387,0.1495095193386078,0.01707974448800087,-0.6558092832565308,0.5160807967185974,2.4752156734466553,0.8843325972557068,0.4590994417667389,-0.35885921120643616,-0.4718518555164337,-0.7939391136169434,0.1677328497171402,-2.0692977905273438,-1.5738482475280762,1.3610706329345703,1.2793757915496826,0.5136821866035461,0.2808574140071869,-0.7091031074523926,-0.442417711019516,1.1565172672271729,4.059510231018066,-8.663631439208984,2.7119297981262207,6.6255106925964355,0.23338676989078522,-5.536762237548828,-8.216553688049316,-7.6136345863342285,-9.45532512664795,1.5695161819458008,-0.18941454589366913,8.464584350585938,-7.132977485656738,5.122188091278076,9.727455139160156,-7.551774978637695,-2.6811447143554688,1.2661712169647217,15.599239349365234,-8.659262657165527,13.801750183105469,0.9584364295005798,2.6979761123657227,-10.761556625366211,-3.2623932361602783,5.765198230743408,-10.710866928100586,5.57759428024292,-15.773449897766113,5.748717308044434,0.1830030083656311,3.520240068435669,-5.993407726287842,-2.471933603286743,-4.264076232910156,3.090534210205078,1.2388311624526978,4.013854026794434,-0.9307539463043213,8.471510887145996,5.8793768882751465,-3.652940511703491,-7.270204544067383,-1.1389437913894653,-7.619955062866211,-0.3096388578414917,-0.3873302936553955,0.5907772183418274,7.761541843414307,-2.0533385276794434,11.364107131958008,-9.239161491394043,-1.9895741939544678,-4.605390548706055,14.109220504760742,9.846701622009277,5.67183780670166,-4.80828857421875,-13.257095336914062,4.459143161773682,10.669061660766602,-9.01375675201416,3.4177165031433105,1.9215223789215088,1.694775104522705,-2.7387051582336426,1.7556411027908325,0.1557198017835617,2.370978355407715,-1.514874815940857,-3.1909475326538086,-1.8048847913742065,-3.288850784301758,-1.7355690002441406,-0.61599200963974,1.5117928981781006,0.717233419418335,1.748260736465454,1.5569775104522705,-0.17186641693115234,2.5884053707122803,0.5246344804763794,-1.493333339691162,0.9128699898719788,1.818882703781128,-0.5321202278137207,1.7896088361740112,1.4172085523605347,-0.6126105785369873,0.5993655323982239,-1.7471915483474731,-2.4933419227600098,0.9501886367797852,0.877454400062561,-2.326888084411621,-0.17197228968143463,0.4771610200405121,1.0034337043762207,0.06271355599164963,-1.687178373336792,-0.1403987854719162,0.5002416372299194,0.003318200120702386,-0.3414211571216583,1.6617443561553955,0.13852033019065857,1.4693883657455444,-1.1665047407150269,0.827374279499054,-0.8204127550125122,1.418527603149414,2.1613528728485107,1.4259369373321533,0.017268812283873558,0.27204573154449463,0.43394535779953003,-0.1919499784708023,-1.5533572435379028,-0.8062039613723755,0.04998495802283287,2.4835402965545654,1.789679765701294,1.0333409309387207,-0.03215532749891281,-1.006147027015686,-1.4295858144760132,1.100208044052124,-1.4606348276138306,0.7584954500198364,0.856178343296051,-0.7074602246284485,-1.4460458755493164,1.104775071144104,3.605705738067627,-1.1154369115829468,-2.2974607944488525,1.5038551092147827,-7.932806491851807,-4.202198505401611,-3.6250362396240234,4.627892971038818,6.7358622550964355,-4.216399192810059,-4.665999889373779,2.737100124359131,-2.8718879222869873,8.682001113891602,8.556097030639648,-2.551631450653076,-2.5275120735168457,8.715868949890137,-8.425467491149902,8.911638259887695,-5.356194972991943,3.631406307220459,-2.055891990661621,-4.297606945037842,-1.5895134210586548,2.818662405014038,-2.8619723320007324,-8.983305931091309,-2.6328959465026855,-5.538046836853027,2.8491594791412354,-9.075926780700684,-1.8638731241226196,-0.4721617102622986,-1.1772302389144897,-0.4699417054653168,-4.350212574005127,-3.8537442684173584,-3.827519178390503,3.1139605045318604,2.9300453662872314,1.6548733711242676,2.7386515140533447,4.294957637786865,0.5270183086395264,-3.5459370613098145,1.45108163356781,-2.6767804622650146,-3.473313808441162,3.1332898139953613,-5.034800052642822,0.9208084344863892,0.49074411392211914,7.37183952331543,9.258331298828125,2.567234516143799,0.15706434845924377,-9.404580116271973,5.9972429275512695,-2.3303890228271484,4.158635139465332,-1.5305827856063843,1.1190979480743408,-3.1998379230499268,-4.483074188232422,4.146036148071289,2.69860577583313,-0.692024290561676,1.1511296033859253,-0.8605377674102783,0.3392341136932373,-2.842557191848755,-2.4755659103393555,-3.238384485244751,-0.08640878647565842,1.6248878240585327,1.9464706182479858,2.1261889934539795,2.1331841945648193,-0.8733017444610596,-3.566692590713501,-4.792744159698486,-0.9327929019927979,-1.154097080230713,1.158736228942871,-0.9651766419410706,-3.3500375747680664,0.45534175634384155,-1.3106482028961182,-4.971915245056152,3.1714649200439453,-0.5890439748764038,1.7558809518814087,0.7270547151565552,1.4331276416778564,-4.513524055480957,0.014850305393338203,3.3777260780334473,-4.474284648895264,1.0523771047592163,2.653769016265869,3.0653183460235596,-0.28174296021461487,-1.7617988586425781,-0.5351713299751282,0.273855596780777,1.3593125343322754,3.122372627258301,-0.8624595403671265,2.2095682621002197,0.7284253835678101,-1.7892212867736816,-0.8965879678726196,4.09381103515625,-6.464560031890869,0.1528574526309967,-0.20371375977993011,3.6310744285583496,4.12350606918335,0.130057230591774,-4.867401123046875,-1.0252647399902344,1.334192156791687,1.1843035221099854,2.756930112838745,2.031074047088623,-1.580979585647583,-2.777667999267578,4.622443675994873,-1.588663101196289,-3.0609803199768066,14.78950023651123,-3.633845090866089,-4.952208995819092,-8.771045684814453,-2.064509868621826,-6.287954807281494,-6.376685619354248,-1.1944080591201782,-10.566884994506836,8.97423267364502,3.763688087463379,-1.7370067834854126,10.635746955871582,0.20995427668094635,6.757600784301758,1.8279986381530762,-5.498085975646973,4.856113910675049,-0.06018626689910889,-4.720849514007568,-1.5742534399032593,0.18538537621498108,-6.683380603790283,-2.3183252811431885,-3.378049612045288,-4.74260950088501,3.3411965370178223,8.253973007202148,-9.86568546295166,-8.845826148986816,0.4858517348766327,4.715557098388672,-10.428178787231445,-3.435948133468628,10.362363815307617,7.471118450164795,-2.894397020339966,-8.214006423950195,-1.5355194807052612,0.5039465427398682,11.114810943603516,5.079073905944824,-3.443737745285034,-14.140165328979492,6.364227771759033,2.630174160003662,-12.358503341674805,-2.404649257659912,6.790172100067139,-4.3703765869140625,1.3141279220581055,-5.385802268981934,3.655097007751465,1.0121301412582397,3.1581521034240723,-0.052168525755405426,-2.856696844100952,7.158328533172607,-8.077986717224121,-5.881598472595215,-0.0882905125617981,-4.804892063140869,10.17017650604248,8.369080543518066,7.928685188293457,1.1465086936950684,3.6380393505096436,-4.1695733070373535,0.5622494220733643,4.499366283416748,1.1886833906173706,0.3220163583755493,1.5581759214401245,1.2711037397384644,-5.300743103027344,0.9900087714195251,-0.03812919929623604,-0.2432985007762909,-5.104560852050781,1.2285709381103516,-1.480398416519165,1.2385882139205933,2.547316789627075,3.119997024536133,-1.1647224426269531,-0.22482794523239136,-2.6851518154144287,6.979068756103516,-4.736666202545166,-3.415668487548828,1.4790111780166626,5.310427665710449,-5.410863399505615,0.4949758052825928,-1.1862177848815918,-4.231818675994873,6.750438690185547,-1.1005878448486328,-2.726405382156372,1.6952006816864014,2.887772798538208,-1.41774320602417,-5.245051860809326,4.651285648345947,4.370375633239746,4.936708927154541,1.724981427192688,1.1150996685028076,-7.34578800201416,-6.3398919105529785,-2.140406608581543,-0.2852134108543396,-5.726987838745117,-1.0891674757003784,4.787058353424072,2.261611223220825,-2.9601211547851562,4.553158283233643,-0.8706647157669067,-7.700813293457031,-0.6739164590835571,0.33788302540779114,2.7091002464294434,2.8837411403656006,-3.5508768558502197,-7.572296619415283,-0.16555896401405334,-2.1274948120117188,5.5301666259765625,-1.2462096214294434,5.665580749511719,-2.9034171104431152,-1.057275652885437,-2.4793615341186523,6.122786998748779,2.0840141773223877,0.9227805733680725,-4.165951251983643,0.7862427234649658,-1.0832880735397339,-3.1653952598571777,0.7247710824012756,-8.662878036499023,-3.562411069869995,-1.1422860622406006,0.5677919983863831,3.4269375801086426,-2.4770143032073975,-0.5397360324859619,3.200613260269165,-0.301681786775589,-2.1982619762420654,-0.8232839703559875,2.063509464263916,-0.5998702049255371,-0.8495249152183533,0.051591500639915466,-0.9465733766555786,1.8130035400390625,4.987847805023193,-1.9037851095199585,0.31385907530784607,2.0992746353149414,-2.499187707901001,1.769911766052246,-5.63268518447876,-3.8488831520080566,3.3974292278289795,-1.8583964109420776,6.370064735412598,-2.348323345184326,4.078136920928955,-1.2563014030456543,-2.199583053588867,-1.3326544761657715,-2.699160099029541,-3.7283778190612793,-0.1029648706316948,-1.216925024986267,0.18458671867847443,-0.541242241859436,-3.0895349979400635,-2.3237736225128174,-0.15719839930534363,-1.966881275177002,1.4930195808410645,0.5693826079368591,0.9007686972618103,-3.425631046295166,3.645601272583008,0.5754969716072083,-1.9935152530670166,-5.60848331451416,1.6212762594223022,0.20115447044372559,2.570517063140869,0.779356837272644,1.370864987373352,-9.872884750366211,1.0554003715515137,3.4594526290893555,2.65779709815979,1.1560343503952026,-0.2132473737001419,4.571872234344482,1.9852911233901978,-0.7327578663825989,5.096240520477295,-0.7283055782318115,-2.1485118865966797,-0.7559230327606201,-6.522373199462891,-1.9792228937149048,5.349327087402344,1.9568521976470947,-3.685579299926758,-8.200068473815918,-3.5648059844970703,-0.8342257738113403,-1.6652542352676392,1.4366471767425537,-3.9816980361938477,1.2385449409484863,0.46450331807136536,-0.6657342910766602,3.5370044708251953,3.541858434677124,4.011919021606445,2.1951398849487305,-12.315534591674805,8.392102241516113,0.47250834107398987,-8.16557788848877,-14.171146392822266,5.1307573318481445,4.451096534729004,-3.973914861679077,0.2468038946390152,-3.5886921882629395,0.9113337993621826,3.023993968963623,9.107093811035156,-3.7594683170318604,0.7877801060676575,4.016714096069336,11.38709831237793,-5.007510662078857,0.6321879029273987,-7.863258361816406,0.7030245661735535,5.038604736328125,3.148782730102539,-2.5307631492614746,1.5478633642196655,-0.20426279306411743,4.894649505615234,8.238815307617188,2.0571160316467285,-0.6112260222434998,7.119244575500488,-4.267672538757324,-1.3262025117874146,-0.1555531919002533,7.465322017669678,-11.936026573181152,0.8698475360870361,-11.499895095825195,2.85363507270813,16.343454360961914,13.885784149169922,13.599365234375,-0.03386301174759865,5.577558517456055,-7.224910259246826,3.7363617420196533,11.01465892791748,2.838399887084961,-1.837827205657959,-12.933977127075195,3.113581895828247,-3.9375407695770264,-9.58749771118164,-10.035861015319824,-1.27112877368927,-5.613404750823975,-1.836713433265686,6.726523399353027,2.825687885284424,2.2636072635650635,8.573392868041992,-3.9825518131256104,-5.634110450744629,12.326399803161621,10.761902809143066,-0.37251153588294983,-8.668245315551758,1.1965020895004272,5.994353294372559,-4.1098504066467285,-10.846816062927246,-1.339473009109497,-3.55368709564209,0.7572263479232788,-1.7402358055114746,-2.9244863986968994,-0.4003438353538513,-8.91223430633545,3.589682102203369,-6.215478897094727,-13.173497200012207,12.3405179977417,10.668758392333984,-3.9557607173919678,2.6803853511810303,2.051067352294922,-2.6820321083068848,8.38941764831543,-8.95470142364502,-5.6883463859558105,-1.741105079650879,-1.9570260047912598,-1.321410059928894,4.940837383270264,-4.967185974121094,1.2224777936935425,-2.73136305809021,0.6608268618583679,-8.709994316101074,-5.5087385177612305,-0.8804367184638977,-4.685671806335449,4.441483020782471,-1.952742099761963,-7.259603023529053,3.848799467086792,4.119336128234863,0.3983752727508545,3.6461617946624756,8.569517135620117,-8.459692001342773,-0.7154240608215332,1.3764359951019287,8.940295219421387,0.7004919052124023,-3.799699306488037,-1.532761812210083,-4.399693965911865,0.918782651424408,-4.327967166900635,4.769906520843506,-3.5490057468414307,-5.757608890533447,7.185842990875244,3.2221949100494385,-1.8908482789993286,-7.829423427581787,8.911086082458496,-3.050503730773926,4.573585510253906,3.0040295124053955,-2.8185276985168457,-4.152724742889404,0.19847026467323303,-2.9310808181762695,2.4284443855285645,3.1340949535369873,5.504066467285156,-5.392812252044678,-4.677897930145264,-7.067074298858643,-7.19400691986084,-9.737161636352539,5.970156669616699,2.2833244800567627,-1.418872594833374,-4.119938373565674,7.955831527709961,-2.1789934635162354,-5.874139308929443,0.03324608504772186,0.7970387935638428,-2.108278751373291,6.567311763763428,7.715106010437012,-4.596632480621338,-1.476874589920044,-2.5251224040985107,-9.420646667480469,2.6628758907318115,-0.09668903797864914,-3.4389960765838623,-4.832122325897217,-1.5170620679855347,-0.8834228515625,-4.078641414642334,0.23948650062084198,1.5689549446105957,-1.2809382677078247,-1.098872423171997,1.3707374334335327,1.8771123886108398,-1.4543578624725342,0.9705866575241089,2.8465847969055176,-0.761301577091217,0.15683969855308533,0.5456403493881226,0.8107234835624695,-4.478978633880615,3.0335614681243896,1.415765643119812,1.6092244386672974,1.5871717929840088,4.582823753356934,-0.3871219754219055,0.16220343112945557,-1.151387333869934,4.48698091506958,-3.0471084117889404,-2.0464773178100586,1.1690346002578735,3.134021759033203,-2.457341432571411,1.7534608840942383,-0.26340359449386597,-6.552135467529297,6.148702621459961,2.673764944076538,-1.012751817703247,1.532090663909912,6.173338413238525,-0.017204076051712036,-2.243467330932617,0.809292197227478,2.4834160804748535,2.0238025188446045,2.9977688789367676,3.8734536170959473,-5.053520679473877,-3.854257583618164,0.7052577137947083,-1.6525473594665527,-3.8675856590270996,-3.174999237060547,4.445257663726807,0.4805721640586853,-0.5889414548873901,1.2091655731201172,2.531724691390991,-3.8100273609161377,0.631740152835846,0.1975763440132141,4.598063945770264,2.3265790939331055,-0.08423012495040894,-5.90807580947876,0.7268290519714355,-1.9645159244537354,1.8358992338180542,-1.682564616203308,5.348631381988525,-8.687796592712402,-6.169525146484375,8.90845775604248,16.693408966064453,-10.54080581665039,-11.934675216674805,-18.42692756652832,-14.903544425964355,-6.52324914932251,1.3839709758758545,17.848947525024414,-4.515110969543457,-5.458945274353027,4.895210266113281,-5.159806251525879,12.008841514587402,12.55123519897461,-10.063542366027832,-3.3029592037200928,4.959247589111328,-9.342096328735352,3.693849563598633,-2.886378765106201,2.9443368911743164,-13.577054023742676,-6.85899019241333,-8.763367652893066,4.144253730773926,-1.216327428817749,-8.010387420654297,-17.323673248291016,11.812355041503906,-3.714168071746826,-7.16956090927124,-9.362019538879395,0.16915275156497955,13.234435081481934,4.11795711517334,-7.000530242919922,-3.8393795490264893,-3.4526100158691406,3.137687921524048,3.4042727947235107,8.660825729370117,-13.1068115234375,13.997268676757812,11.683906555175781,-14.020398139953613,5.2305803298950195,1.8548166751861572,-8.434146881103516,8.67622184753418,-0.8968638181686401,8.525392532348633,9.225221633911133,7.444241523742676,10.203747749328613,10.566286087036133,-2.796908378601074,-11.02197551727295,-2.8102686405181885,-1.2134617567062378,3.18747615814209,-10.942398071289062,8.44920825958252,8.285602569580078,-0.5328154563903809,-1.4643604755401611,4.2111382484436035,-7.193558692932129,-4.51560640335083,8.831500053405762,5.595265865325928,9.578156471252441,-0.43389129638671875,-5.35610294342041,-1.0405751466751099,1.4057661294937134,4.699284076690674,-3.2370409965515137,4.713144302368164,-10.980412483215332,1.0263491868972778,-3.6515605449676514,-7.639379501342773,-7.211181163787842,2.00996470451355,-0.10510963201522827,-3.588750123977661,-0.4855559170246124,2.982544183731079,-1.2124056816101074,-0.27134427428245544,-1.2596098184585571,1.8005563020706177,5.915390491485596,0.9549060463905334,0.2966325581073761,-0.7022981643676758,-0.5518628358840942,-2.3260624408721924,-0.015173561871051788,-2.6439194679260254,0.6370040774345398,-5.036392688751221,4.302687644958496,-2.9058873653411865,1.516214370727539,0.030332529917359352,-3.777971029281616,-1.8349226713180542,5.530071258544922,-8.512430191040039,-1.6504771709442139,4.1286420822143555,3.0878844261169434,-0.08325587958097458,0.7501282691955566,1.0824337005615234,2.411522150039673,-1.7725633382797241,-0.15420211851596832,-3.7151575088500977,-0.2893117070198059,0.6035445928573608,5.110114097595215,-0.33682960271835327,-0.632042407989502,-2.1709792613983154,-3.223548650741577,0.5095657706260681,1.6266415119171143,2.2786004543304443,0.2454303503036499,-1.8440581560134888,-6.267177581787109,1.9697513580322266,5.639158248901367,6.802550315856934,4.437414169311523,3.401212215423584,-0.8808390498161316,-6.210043430328369,5.145178318023682,1.0685309171676636,-0.7564424872398376,1.2571965456008911,-6.318117618560791,-5.068093776702881,1.2034211158752441,1.2284291982650757,-8.59234619140625,7.543439865112305,-2.123623847961426,2.0268394947052,-3.1099376678466797,0.5263500213623047,2.734982490539551,3.176522731781006,-3.600339889526367,2.5100443363189697,5.237478256225586,3.3155200481414795,-5.470084190368652,1.7432461977005005,1.8012187480926514,1.4225271940231323,-1.1111562252044678,-0.43759340047836304,3.859890937805176,3.20451283454895,3.481959819793701,3.008737564086914,2.4082648754119873,5.676279544830322,-1.808424472808838,1.0271862745285034,0.009707819670438766,-5.203111171722412,2.736018180847168,0.4293459355831146,-0.46698933839797974,2.333502769470215,-4.898126602172852,-2.540886402130127,3.043818712234497,-3.3697938919067383,-3.0105395317077637,-8.146320343017578,-2.8340418338775635,4.668496608734131,11.045668601989746,4.3406195640563965,3.863513708114624,-2.959956169128418,-2.243318557739258,-0.592606246471405,-0.2914635241031647,9.688103675842285,7.456129550933838,-7.256321907043457,-6.1637187004089355,5.0904035568237305,9.099796295166016,-3.944495439529419,4.195434093475342,9.146870613098145,-7.628577709197998,-3.293788433074951,-3.3334920406341553,-3.9589946269989014,1.8993104696273804,-1.977780818939209,-2.5780200958251953,9.010554313659668,7.242325782775879,5.667075157165527,2.5835793018341064,2.9811248779296875,-4.198424816131592,3.9280800819396973,-0.8891158103942871,-1.389863133430481,8.498648643493652,5.191689491271973,2.8168842792510986,9.079635620117188,0.8310701251029968,-4.0596818923950195,8.389493942260742,0.9237436652183533,-1.227075457572937,6.278494358062744,8.60595989227295,6.703321933746338,1.5842128992080688,5.101195812225342,-2.790614128112793,1.1723629236221313,-1.3004943132400513,0.49055513739585876,-3.352623462677002,-9.149398803710938,-6.3269944190979,-9.66986083984375,-7.543705463409424,-12.920902252197266,5.693881034851074,7.4038166999816895,2.059401512145996,3.9902122020721436,8.355291366577148,0.3878028988838196,-0.20311927795410156,-0.8908096551895142,2.2755510807037354,7.742093563079834,-1.815484881401062,-12.326473236083984,-2.8514108657836914,-5.3372578620910645,11.551239013671875,-7.333195686340332,-0.5045033693313599,-1.8361437320709229,1.3367475271224976,1.7816908359527588,0.7749943137168884,0.9940014481544495,1.4396198987960815,-2.2359814643859863,-3.1804041862487793,-6.816763877868652,4.1628193855285645,-1.9868359565734863,-3.26603364944458,-5.967507839202881,4.1749162673950195,-7.847357273101807,-0.816033661365509,0.2753463089466095,1.1195815801620483,-3.4157042503356934,2.6122214794158936,-0.1639302670955658,-1.5946069955825806,0.3168591260910034,7.616955280303955,4.5917253494262695,-0.9386427998542786,-0.12376850843429565,4.060453414916992,-1.6740803718566895,-0.4572833776473999,4.41210412979126,-6.452040195465088,-2.5809431076049805,8.849137306213379,-3.3051769733428955,-4.7435150146484375,6.3833770751953125,2.222055435180664,-2.915944814682007,-4.235023021697998,-2.74884033203125,-2.3665130138397217,-3.846160650253296,2.257676362991333,3.2009429931640625,-0.9251686930656433,-0.466714084148407,6.97366189956665,0.8772310018539429,-2.812195301055908,-5.52804708480835,3.7246038913726807,0.4843077063560486,2.1084225177764893,2.1513636112213135,-0.14611835777759552,-1.2243547439575195,-3.431190013885498,-6.424605846405029,-10.573827743530273,2.4906980991363525,-8.004886627197266,6.685250759124756,-0.5048328042030334,0.5092852711677551,-5.671330451965332,-6.003891944885254,-0.5364754796028137,4.656763553619385,4.781111717224121,1.2853392362594604,-5.142228126525879,-1.8950471878051758,-0.15449154376983643,-3.469391107559204,-1.1853665113449097,2.6902379989624023,-4.118083953857422,-2.6886539459228516,0.011806118302047253,-1.6743178367614746,0.404828816652298,-2.9372267723083496,-1.5306682586669922,-2.4739577770233154,-1.2183701992034912,0.3902721703052521,-2.910161256790161,2.908635377883911,-2.04778790473938,1.7505252361297607,-2.2524819374084473,1.2537033557891846,-1.2591753005981445,2.956597089767456,1.803643822669983,-0.23958329856395721,-3.3546290397644043,-1.4941080808639526,2.2522196769714355,-5.526088714599609,-2.3457913398742676,2.3740711212158203,0.5345922112464905,2.0441768169403076,-1.2444231510162354,1.2271912097930908,-0.755010724067688,-1.3038512468338013,-0.2766708731651306,-0.22814667224884033,-1.6664960384368896,5.700536727905273,2.7607219219207764,2.847963333129883,-0.950465977191925,-6.3676886558532715,-4.5038161277771,0.4319491982460022,-1.4582585096359253,-0.6831676363945007,-0.7572735548019409,-1.3188472986221313,-4.437834739685059,3.248957633972168,2.953630208969116,0.9626163840293884,-6.311079502105713,6.904597282409668,-0.7409515380859375,6.056260585784912,-1.109448790550232,0.9919337034225464,5.570895195007324,-2.2025837898254395,2.677163600921631,3.7099623680114746,-1.4648354053497314,1.0063830614089966,1.6049507856369019,0.3044207990169525,-5.399780750274658,0.3379393517971039,-3.0532214641571045,-4.382014274597168,-0.5976731777191162,-2.998281478881836,-0.9731197357177734,0.16208164393901825,2.4932563304901123,3.2645983695983887,-0.6686901450157166,1.6362384557724,1.6588053703308105,4.765359878540039,-5.355653762817383,-3.734985589981079,1.79671311378479,2.7605693340301514,-1.1275984048843384,4.674118518829346,0.6843846440315247,-1.8992043733596802,4.372979640960693,4.056114196777344,1.4006630182266235,1.5724512338638306,3.251033067703247,-0.6116323471069336,-1.570623517036438,4.527667045593262,2.194833755493164,3.5796430110931396,1.77432119846344,-1.146338701248169,-4.285600662231445,-4.805543422698975,-2.4348056316375732,3.104914426803589,-4.252720355987549,-1.6497392654418945,0.9271634221076965,2.483419179916382,-4.045557975769043,6.506929874420166,0.030978165566921234,0.2505365014076233,3.901109218597412,-1.0080891847610474,-1.0428694486618042,5.790067672729492,0.4262014925479889,-0.7432389259338379,-1.7345623970031738,-0.19754187762737274,3.0493204593658447,-1.385635495185852,4.86375093460083,-5.884314060211182,3.7663965225219727,-2.9966917037963867,7.369516372680664,-5.487649917602539,-5.670468330383301,-3.4314141273498535,-3.248574733734131,-6.895021438598633,-1.8276686668395996,6.801578521728516,-3.840165853500366,-1.4223297834396362,1.4858771562576294,0.4731721878051758,4.976216793060303,0.4082120656967163,-2.225041389465332,0.24438972771167755,3.605581760406494,-2.014133930206299,6.589996337890625,5.486445903778076,-3.8087007999420166,2.3639514446258545,-1.6252000331878662,-2.4971730709075928,1.2300450801849365,0.8678597211837769,-6.378246307373047,-3.696108818054199,1.3873175382614136,2.3636674880981445,-0.4822046160697937,-3.4664113521575928,-2.3136534690856934,-5.572373867034912,-5.094326496124268,0.26326853036880493,4.753385066986084,3.08386492729187,3.3046085834503174,-3.3722987174987793,0.9951644539833069,-1.539145827293396,0.9975805282592773,6.2289347648620605,-1.3573402166366577,5.555549621582031,1.1967129707336426,-0.1990027129650116,-6.537843704223633,3.975264072418213,-2.2971267700195312,-0.13656237721443176,5.247018337249756,4.656111240386963,1.086601734161377,0.683934211730957,-1.236746072769165,2.517888069152832,-1.8163915872573853,4.4294891357421875,-1.5959389209747314,4.129499912261963,1.955809235572815,2.4089624881744385,3.751708507537842,-1.1065281629562378,0.40464988350868225,2.0644187927246094,0.13109609484672546,0.3610481321811676,0.9569776654243469,4.511007308959961,-3.150604486465454,0.9896193742752075,1.3713057041168213,1.6724640130996704,-4.294956207275391,3.190573215484619,2.114435911178589,-0.507888913154602,0.5429273247718811,3.3341286182403564,2.2455620765686035,2.8792359828948975,2.9868216514587402,2.771401882171631,-3.6867709159851074,-3.150258779525757,1.1411772966384888,3.531756639480591,-4.229698181152344,4.2843170166015625,-2.6201961040496826,-2.93562388420105,4.432384967803955,5.03245210647583,-4.745063781738281,0.41042089462280273,3.6419968605041504,0.058329708874225616,-4.360523223876953,1.8372257947921753,1.7906447649002075,2.243528127670288,4.6007466316223145,0.6922910809516907,-3.879246234893799,-3.9132039546966553,-0.574253499507904,0.10029418021440506,-4.506559371948242,-3.7605676651000977,4.284114837646484,0.3326679468154907,-2.2200005054473877,0.7431373596191406,-2.4323067665100098,-4.2467041015625,3.997248411178589,0.5387206673622131,4.47341251373291,4.6403045654296875,3.2565441131591797,-3.9507882595062256,3.358733654022217,-3.186676025390625,4.33936882019043,-1.0220824480056763,4.306317329406738,0.5910351872444153,8.951171875,1.8344215154647827,-0.5848642587661743,6.5511651039123535,-0.3992781341075897,-2.815652370452881,-2.520127773284912,4.778707504272461,-2.550173044204712,7.030302047729492,0.42282044887542725,-3.4786901473999023,3.7836754322052,-2.811903476715088,4.433198928833008,-5.95522403717041,4.249398708343506,-0.8946679830551147,-0.973034143447876,0.45079395174980164,-4.967307090759277,5.815557956695557,-6.847893714904785,-0.37616610527038574,4.849325180053711,6.887622833251953,-2.982600212097168,6.08242130279541,0.10155745595693588,-4.388678550720215,-1.0533663034439087,2.927074909210205,-0.5057552456855774,2.4145798683166504,5.519453048706055,5.0679779052734375,0.27212437987327576,3.1629414558410645,-0.47083204984664917,2.1003594398498535,-2.493546724319458,5.544395446777344,-0.1462438553571701,2.5265097618103027,3.0850441455841064,-0.8470443487167358,-5.032991886138916,-7.96931266784668,-1.434190034866333,-1.7642463445663452,7.593554496765137,2.3226521015167236,6.114119529724121,2.181126594543457,-4.327664852142334,-3.652883291244507,-7.5839152336120605,7.382709503173828,-4.724104404449463,1.94480299949646,-2.7934556007385254,3.851078987121582,1.8830366134643555,1.7461882829666138,4.217525959014893,3.4285659790039062,4.300332069396973,1.988035798072815,-1.521653413772583,7.296543121337891,-0.12276164442300797,-5.079556465148926,-0.1359514743089676,3.4491031169891357,-7.786489486694336,1.6741973161697388,-3.9186041355133057,-3.965949535369873,-3.5364372730255127,0.16733233630657196,2.3231201171875,1.678272008895874,0.44744354486465454,-0.7176547646522522,2.7649686336517334,-2.1405484676361084,0.9385761022567749,0.698340117931366,-4.438354969024658,-5.184599876403809,0.6646357774734497,8.881858825683594,-3.401139974594116,7.266451358795166,-1.1152483224868774,-0.2674446403980255,-0.03541943430900574,4.106884956359863,-4.775232791900635,-1.3816437721252441,-0.9993259310722351,4.1999192237854,0.09821002930402756,6.194483757019043,-1.9632912874221802,-0.16795161366462708,-1.1958670616149902,1.6854770183563232,-4.4402241706848145,-6.589936256408691,-1.181382417678833,3.9769985675811768,-3.0419843196868896,-5.008594036102295,0.9294618964195251,-2.5088212490081787,-2.88278865814209,-1.0984928607940674,4.890073776245117,-0.3467999994754791,2.6714980602264404,-0.06729035824537277,-3.7226457595825195,8.355002403259277,-0.3592167794704437,-1.249062418937683,-5.04666805267334,3.828603982925415,-1.6697481870651245,2.2486135959625244,0.41729116439819336,-5.177195072174072,4.350331783294678,-7.664005279541016,-0.4768028259277344,5.927312850952148,2.063831090927124,3.434584856033325,2.5952157974243164,3.914155960083008,-2.346639633178711,-2.498279094696045,9.452482223510742,9.588258743286133,9.371809959411621,-9.326416015625,-14.9203462600708,-5.0319437980651855,9.043717384338379,-7.9834160804748535,-13.135129928588867,14.644523620605469,0.14214591681957245,7.155957221984863,-6.506758689880371,-0.020549654960632324,11.021376609802246,5.107155799865723,-6.460108280181885,5.004141330718994,15.68844223022461,-4.440112590789795,4.631998062133789,4.822653770446777,-1.1519240140914917,-2.4875476360321045,-5.201346397399902,-9.923125267028809,-3.93962025642395,5.478616237640381,11.605440139770508,4.50646448135376,5.872751712799072,4.125933647155762,-4.399042129516602,6.591033935546875,6.77252197265625,-5.577618598937988,6.392620086669922,5.6672868728637695,-9.9133939743042,-1.9995884895324707,-6.99696683883667,13.20622730255127,-4.165571689605713,-9.640157699584961,0.9758668541908264,-15.093422889709473,-9.841172218322754,3.0594322681427,14.856775283813477,-7.442637920379639,7.6203837394714355,-9.117749214172363,7.886127948760986,0.5080244541168213,6.0713677406311035,-1.1075891256332397,-2.430124282836914,3.0002734661102295,-3.752161979675293,2.5420162677764893,1.483506441116333,1.3559256792068481,2.3779900074005127,-4.0179762840271,5.762788772583008,-2.8292734622955322,-1.8999367952346802,2.0808305740356445,3.692619800567627,-4.555727481842041,-8.057974815368652,-8.71688461303711,1.7073841094970703,-1.7299525737762451,-8.410070419311523,2.6981985569000244,-4.287628650665283,-1.7894201278686523,6.0012617111206055,1.0270792245864868,0.7869320511817932,2.3027775287628174,3.7501254081726074,-1.6369669437408447,9.54678726196289,7.110773086547852,-2.6830520629882812,-9.438549041748047,10.8818359375,0.17271688580513,-5.109752178192139,-2.4425761699676514,4.166650772094727,0.4593407213687897,-1.7302099466323853,-4.131738185882568,-9.103971481323242,-1.1823766231536865,2.4873311519622803,2.958379030227661,-2.2680437564849854,-0.6755161285400391,4.574190616607666,6.640390396118164,-3.6199522018432617,-2.95589542388916,-0.6146684288978577,2.404052257537842,3.408475875854492,3.0526223182678223,-9.790152549743652,-8.863601684570312,-2.0430593490600586,-1.0763057470321655,8.027634620666504,1.3657876253128052,-4.040860176086426,3.7284581661224365,-2.8720853328704834,2.5117409229278564,-4.185317039489746,-6.14813756942749,-1.6034919023513794,-3.934523344039917,-10.319764137268066,-1.9572041034698486,6.355626583099365,-1.8194581270217896,3.388476848602295,-4.053562641143799,3.5048863887786865,-3.3879823684692383,-0.34074562788009644,10.06338882446289,4.594984531402588,6.951368808746338,4.333160400390625,-0.5994270443916321,-4.545840263366699,-3.5594394207000732,3.9675981998443604,-4.9186835289001465,2.766446352005005,-4.364355564117432,2.7486348152160645,8.126631736755371,-6.316614627838135,-8.206326484680176,8.334874153137207,-8.513113975524902,-1.4926823377609253,11.323235511779785,-4.140089511871338,0.8854173421859741,-7.931188583374023,-0.5315242409706116,0.32695671916007996,6.645040512084961,-4.621349811553955,-7.3596343994140625,-0.7031351923942566,-1.9150546789169312,-1.0532944202423096,-13.445438385009766,-2.7000136375427246,-0.5908859968185425,-1.7759616374969482,-9.087153434753418,4.5508012771606445,-1.1083823442459106,2.8428568840026855,-6.4106364250183105,3.4136111736297607,-7.334540367126465,-0.9578919410705566,-4.441162109375,-0.5824217796325684,5.8012895584106445,1.5838204622268677,-7.934680938720703,4.1148362159729,-4.87158727645874,-2.5813910961151123,-6.756026744842529,9.449128150939941,0.6322925686836243,-10.734672546386719,6.24155330657959,2.3427116870880127,-7.382551670074463,5.595789432525635,3.6430764198303223,-1.7630130052566528,1.2306106090545654,1.3867530822753906,6.919370174407959,-4.339438438415527,1.143188238143921,3.6254897117614746,4.172128200531006,-13.60966682434082,1.6928173303604126,-0.6448051929473877,0.3736179769039154,4.21694278717041,3.9671480655670166,-0.42606261372566223,0.04705124720931053,2.3719236850738525,10.017104148864746,-4.953586101531982,-1.2958780527114868,4.5570807456970215,9.830669403076172,-6.320972919464111,0.47313737869262695,-0.239937886595726,-2.4165191650390625,9.602826118469238,0.3890238106250763,1.5765188932418823,5.665023326873779,-6.120003700256348,-6.685665130615234,-8.82740592956543,5.765453815460205,9.306272506713867,9.152754783630371,0.4164979159832001,-3.1526997089385986,-10.392003059387207,-3.12245512008667,-7.017913818359375,2.6699867248535156,-0.6871362924575806,8.796611785888672,-0.7517158389091492,6.227547645568848,-12.423458099365234,4.642691612243652,-12.099955558776855,-9.519582748413086,1.279311180114746,1.0958844423294067,-1.3276081085205078,0.5921751260757446,1.7855994701385498,-8.501503944396973,8.318005561828613,-5.873143196105957,7.294272422790527,-4.792133331298828,4.232691287994385,1.363511085510254,-16.050796508789062,-0.6596461534500122,-15.570337295532227,-2.3478987216949463,4.439391613006592,11.718306541442871,13.452827453613281,2.723858594894409,12.421863555908203,0.46806442737579346,-0.3994003236293793,4.964489936828613,10.142815589904785,-6.378045082092285,-15.922433853149414,-2.7761688232421875,2.9205074310302734,-9.046045303344727,-15.255231857299805,6.43610143661499,-7.052420616149902,7.242386341094971,10.132201194763184,8.51530647277832,6.586976051330566,-4.739758491516113,8.994062423706055,-13.516419410705566,8.082114219665527,13.91793441772461,-2.935523748397827,-14.370429992675781,2.345118761062622,3.5697176456451416,-13.426155090332031,-22.025358200073242,0.20436963438987732,-3.8161749839782715,1.4814236164093018,4.7022905349731445,-7.3781843185424805,-6.514089107513428,2.1947531700134277,17.531005859375,-5.615392208099365,-7.477079391479492,12.239761352539062,13.804646492004395,-20.654890060424805,9.68807601928711,-16.681385040283203,-3.462982416152954,0.7794266939163208,-5.515986919403076,-8.102727890014648,1.2828965187072754,-14.439189910888672,-6.87890100479126,16.120698928833008,9.58863353729248,-3.1288578510284424,-4.009540557861328,-0.3922639489173889,-7.375607967376709,-10.028424263000488,0.7959477305412292,-2.7366440296173096,0.4546014964580536,-4.332485198974609,-3.0771265029907227,3.0572633743286133,2.6881484985351562,0.16591817140579224,0.19863910973072052,10.60400104522705,-4.4283857345581055,1.5632437467575073,-0.436519056558609,7.165512561798096,-5.0846123695373535,-1.0511871576309204,-0.9677425026893616,-0.030225427821278572,-1.9385656118392944,0.18004372715950012,1.8737362623214722,-3.1471993923187256,-7.480926036834717,9.465239524841309,-0.16008897125720978,-0.3224819004535675,-1.8816440105438232,6.2182722091674805,-3.56048846244812,2.364945411682129,0.29928696155548096,-3.161062479019165,-2.391514301300049,0.04600200802087784,1.796035647392273,1.7598693370819092,4.115540981292725,6.093400955200195,-5.081847667694092,-8.047799110412598,-8.472664833068848,-4.591955184936523,-0.5579619407653809,6.162998199462891,3.459230661392212,-0.45220160484313965,-4.729217052459717,6.428908824920654,-5.30087423324585,-4.079474925994873,1.6937494277954102,7.822041034698486,-1.5468899011611938,7.065359592437744,8.532764434814453,-4.518141746520996,0.3108724057674408,-1.8260746002197266,-6.04179048538208,-2.7862086296081543,-0.37270891666412354,-1.434468150138855,-0.6969197988510132,-0.936665952205658,-1.4475724697113037,-3.317185401916504,8.127426147460938,-15.073883056640625,-6.066563129425049,-5.171933650970459,-11.204000473022461,25.14592170715332,13.853398323059082,24.08844757080078,-4.160234451293945,9.70787525177002,-15.155594825744629,5.03700590133667,-2.3984878063201904,5.899270057678223,-12.62982177734375,-17.178937911987305,16.369754791259766,3.558413505554199,-14.71484088897705,-20.92741584777832,12.38862419128418,-6.246464252471924,-3.113769292831421,1.591647982597351,1.4439033269882202,6.235287666320801,-3.516904830932617,4.307701110839844,-1.3435286283493042,11.042613983154297,-0.5057162046432495,16.876148223876953,-13.71859359741211,15.022926330566406,0.779539167881012,-31.940204620361328,-39.07463073730469,-9.013224601745605,-7.912800312042236,26.036026000976562,-10.896242141723633,-6.034544944763184,-3.8006842136383057,-17.2128849029541,7.435032844543457,-6.507142543792725,-23.58426856994629,13.799530982971191,35.42852020263672,-19.796993255615234,-0.22563686966896057,-28.185314178466797,6.50976037979126,0.9355556964874268,-9.265032768249512,-10.800044059753418,-3.1260218620300293,-15.435932159423828,4.630762577056885,25.251445770263672,-15.449462890625,7.775324821472168,-12.971883773803711,22.329391479492188,2.51263689994812,4.6678547859191895,6.039620399475098,-3.239304780960083,-2.574763536453247,5.726281642913818,1.4462976455688477,0.19748246669769287,3.21160888671875,5.7403717041015625,6.965627193450928,-8.99476146697998,3.408386707305908,3.955906629562378,7.426637649536133,-9.72980785369873,6.957536697387695,0.8419622182846069,-0.6833322048187256,3.738434314727783,1.9152545928955078,0.10813932865858078,-0.5662077069282532,2.5009889602661133,2.4838976860046387,-5.307186603546143,0.5426215529441833,6.1813507080078125,4.275081634521484,-7.93864107131958,-0.30154725909233093,-3.4870083332061768,0.5116751790046692,4.031656742095947,1.3120028972625732,-2.523921012878418,2.597609758377075,1.8359248638153076,-6.84282922744751,-1.5992705821990967,5.273541450500488,8.158519744873047,4.881707191467285,6.451678276062012,5.864614486694336,-2.188180923461914,-2.3843765258789062,-3.3041305541992188,-1.2641046047210693,-5.268322467803955,2.2800989151000977,5.28660249710083,6.341455936431885,-14.938065528869629,6.99468994140625,-8.103265762329102,-4.146083831787109,6.486728668212891,2.9576802253723145,3.458468437194824,3.089780330657959,7.750565528869629,-1.8128777742385864,4.642700672149658,-3.8546032905578613,-0.5338826775550842,-6.0961480140686035,6.446434020996094,-1.5151020288467407,-1.752659559249878,2.191514015197754,0.611705482006073,-7.446656703948975,0.1349904090166092,0.5496264100074768,-1.4708530902862549,0.27234798669815063,1.485247254371643,3.262160539627075,-0.2260553538799286,0.7269642353057861,0.9756324291229248,1.0400034189224243,-0.08884792774915695,5.645188331604004,-4.900193691253662,-1.2734956741333008,1.343875527381897,-3.194129705429077,4.864879131317139,-3.866628646850586,1.0492773056030273,-2.496140241622925,-3.6086714267730713,-4.962035655975342,1.2439032793045044,-2.2158164978027344,-2.3541996479034424,0.14269934594631195,-1.1390849351882935,-3.6525352001190186,-5.015789031982422,-3.4443652629852295,-0.2046930342912674,-1.1769661903381348,-2.6127612590789795,-7.229818820953369,-2.362701416015625,-2.489069700241089,4.529165744781494,3.9423294067382812,0.9797672629356384,3.9500484466552734,4.945274353027344,0.363376647233963,-0.4068426489830017,1.203769564628601,-1.8013664484024048,-2.229276657104492,5.310903549194336,-5.809990406036377,-1.1881102323532104,-0.8806247711181641,1.0644965171813965,3.8643367290496826,1.2681785821914673,-1.6147156953811646,-4.009446620941162,3.5931625366210938,4.055109977722168,-0.34904053807258606,-0.14964768290519714,1.8819501399993896,-3.615915060043335,-4.8967671394348145,-12.525805473327637,10.99670696258545,-10.182912826538086,-1.0084151029586792,5.085575103759766,10.494658470153809,9.342446327209473,-1.9972561597824097,11.505875587463379,8.248269081115723,-11.833666801452637,-2.606144666671753,-4.979920864105225,-0.790244996547699,-8.130621910095215,0.43225961923599243,0.38042739033699036,3.4298720359802246,-7.44834566116333,-5.497770309448242,-7.913851261138916,7.339122295379639,11.49341869354248,9.60916519165039,-3.117650032043457,-12.621309280395508,8.822745323181152,-17.28548240661621,7.357424736022949,-1.4001222848892212,0.6342006325721741,-7.642175197601318,8.819586753845215,-6.9334797859191895,-20.45224952697754,-8.225348472595215,-0.017984140664339066,0.2519865930080414,10.424139976501465,6.265809059143066,2.50687313079834,-1.2540680170059204,-1.6408262252807617,10.101408004760742,2.449923276901245,6.682298183441162,5.072142124176025,13.68549633026123,-12.870723724365234,-3.138735294342041,-7.279208660125732,14.735525131225586,2.901455879211426,2.3717401027679443,-10.276161193847656,-0.4879334270954132,-7.468088150024414,-13.758373260498047,3.651002883911133,1.917580485343933,-23.69980239868164,13.605429649353027,-9.51526927947998,2.20747971534729,2.403789520263672,-6.322630882263184,-3.165440797805786,-2.2765557765960693,-13.529352188110352,0.613560140132904,6.2383503913879395,16.543113708496094,10.72360610961914,-8.21688175201416,3.2319233417510986,-1.184548020362854,0.020352814346551895,-2.01520037651062,-4.588819980621338,-9.516589164733887,-13.22560977935791,-10.202733993530273,0.9905629754066467,-4.386132717132568,-7.581472873687744,6.155975818634033,-10.801766395568848,6.76457405090332,5.002346992492676,5.110467910766602,-1.8166210651397705,-8.188549041748047,2.5424230098724365,-7.825196266174316,8.720169067382812,1.4094440937042236,-6.616107940673828,-7.915267467498779,8.954580307006836,0.06848599016666412,4.617274284362793,-10.067402839660645,0.21849378943443298,-0.6891695261001587,7.404335021972656,1.931392788887024,-4.491451263427734,0.9035115242004395,1.1759755611419678,14.31709098815918,-1.7032198905944824,-1.6498934030532837,-12.495684623718262,10.624500274658203,-6.255326747894287,4.933040142059326,-2.1183559894561768,13.11026668548584,-4.471065044403076,-8.276077270507812,-8.356527328491211,-11.8264799118042,3.1803781986236572,-11.779071807861328,-6.237783432006836,7.831352710723877,-6.2014689445495605,5.591622352600098,-7.7047810554504395,-3.861149787902832,0.9427141547203064,-12.731476783752441,-10.848302841186523,21.263994216918945,2.202273368835449,-8.187902450561523,-3.0756237506866455,9.179003715515137,-3.175283670425415,-15.186929702758789,2.4597244262695312,-10.99600601196289,3.2499969005584717,0.2779220938682556,14.151684761047363,-2.1563611030578613,-3.452425003051758,-14.910070419311523,-8.846613883972168,-19.944320678710938,-8.66769790649414,18.085777282714844,-4.902873516082764,-15.664779663085938,28.244447708129883,3.3329107761383057,-9.736270904541016,-6.730216979980469,0.5382828712463379,1.4259974956512451,5.791955947875977,18.363664627075195,-23.48162269592285,-10.261305809020996,-2.1753368377685547,-14.300403594970703,-0.9929922819137573,-5.455244064331055,11.453217506408691,-9.130401611328125,-8.794551849365234,2.3548896312713623,-6.031759738922119,-13.726236343383789,9.23093318939209,5.565366744995117,12.19035530090332,3.088426113128662,0.9515182375907898,3.2677414417266846,-9.712392807006836,-17.90395164489746,-5.453606605529785,2.222864866256714,6.832036018371582,3.923611879348755,-6.4416913986206055,-20.17148208618164,-10.620534896850586,-4.524390697479248,18.0030517578125,10.96968936920166,-10.80332088470459,1.1234608888626099,-13.885241508483887,11.906244277954102,-8.420811653137207,-3.480684995651245,-1.194862723350525,3.1116721630096436,-0.7690041661262512,-6.948082447052002,-2.8697574138641357,-3.4073357582092285,-2.9019298553466797,-12.729467391967773,0.5290928483009338,2.4268343448638916,-0.5332302451133728,-3.530088424682617,7.4925103187561035,-3.043544292449951,2.298868417739868,-2.8758749961853027,-1.6548879146575928,-6.983834743499756,-0.28205928206443787,1.362599492073059,4.612048149108887,-9.877041816711426,10.079560279846191,5.727066516876221,-2.6397359371185303,-6.56289005279541,5.845837593078613,-1.3484959602355957,-2.2165510654449463,10.372124671936035,-4.45870304107666,-1.5095933675765991,5.214878082275391,-3.5154409408569336,-5.824349403381348,0.10067640990018845,7.409420967102051,-7.303445816040039,-3.498009443283081,-12.760237693786621,1.6290864944458008,-5.088584899902344,7.0010762214660645,-4.176093578338623,3.440096378326416,2.860107898712158,2.099602222442627,7.713066577911377,0.6522440910339355,-6.395103931427002,-1.4438749551773071,-7.069591999053955,1.2314687967300415,11.265283584594727,3.698282241821289,-5.649890899658203,-4.728911876678467,-6.523083686828613,-1.540390968322754,5.844956874847412,-5.048385143280029,3.850431442260742,-10.40454387664795,5.058227062225342,-4.839003086090088,5.840860366821289,-2.8903701305389404,-7.4748687744140625,-2.329030990600586,-3.9471099376678467,-2.269669532775879,6.514135360717773,2.7136614322662354,7.3709211349487305,-4.006221294403076,1.3429700136184692,9.051376342773438,8.87353229522705,-3.9462804794311523,-0.2615712583065033,-3.579334020614624,8.884822845458984,3.8269500732421875,13.375913619995117,-5.0403594970703125,8.957183837890625,5.330986976623535,2.571688413619995,-4.117500305175781,-3.3799760341644287,7.289257526397705,2.8030521869659424,0.3584524393081665,4.371184825897217,-2.682704210281372,-9.26280403137207,11.523650169372559,4.052552700042725,4.525383472442627,4.281618118286133,3.3290655612945557,-15.250357627868652,3.45332670211792,10.648795127868652,13.431270599365234,4.8175506591796875,9.799132347106934,15.496651649475098,2.6133320331573486,-1.603086233139038,8.272795677185059,1.839793086051941,-9.535243034362793,8.885590553283691,5.064678192138672,9.203048706054688,-16.6976375579834,10.125770568847656,2.402848958969116,-5.256732940673828,4.168139457702637,-5.398481845855713,-2.5076441764831543,12.224175453186035,11.515524864196777,-5.879551410675049,15.825979232788086,-11.188089370727539,-9.973291397094727,-6.139484405517578,6.465383052825928,8.975695610046387,-2.288445234298706,-11.317099571228027,-9.832050323486328,-7.255554676055908,-5.824178695678711,-4.056282997131348,-8.37992000579834,8.738551139831543,13.633020401000977,-13.853130340576172,-6.799927711486816,-3.5821378231048584,4.083095550537109,-3.536715269088745,6.417793273925781,1.0426632165908813,3.3122549057006836,12.555647850036621,7.017673969268799,6.836585521697998,-11.771540641784668,-5.565542221069336,6.254806041717529,16.846181869506836,7.409077167510986,-4.5396318435668945,18.421375274658203,-2.3236474990844727,-7.802152633666992,10.397010803222656,-15.62936019897461,-6.2519917488098145,16.11445426940918,7.144505023956299,15.015548706054688,5.9221510887146,17.479991912841797,-4.900213718414307,-20.804122924804688,-11.198701858520508,-20.22735023498535,-6.493916988372803,21.856399536132812,8.155921936035156,-1.7840439081192017,-9.321525573730469,14.275681495666504,-19.401947021484375,-15.80942440032959,11.031254768371582,4.778665065765381,-5.065065860748291,13.918940544128418,23.047983169555664,0.7727388739585876,5.4521708488464355,-2.2714505195617676,-11.22027587890625,-5.014534950256348,17.63855743408203,-0.740932822227478,-11.231221199035645,-2.7350680828094482,-10.697816848754883,-19.25464630126953,4.606349468231201,-13.809487342834473,-6.40337610244751,-11.38382625579834,3.5892460346221924,13.442745208740234,-10.512764930725098,10.653373718261719,1.4358948469161987,3.6971492767333984,-17.560409545898438,-9.233810424804688,-5.005678653717041,5.257406711578369,-7.2647624015808105,-2.567929983139038,-3.320289373397827,0.545174241065979,3.6237151622772217,-1.4186038970947266,3.709118127822876,-14.004305839538574,-10.186482429504395,11.81998062133789,15.058003425598145,0.3433333933353424,-5.7479119300842285,9.889153480529785,-6.710379600524902,6.005972385406494,16.36101722717285,-6.988193511962891,-7.928974151611328,-12.966778755187988,3.6760642528533936,-3.32810640335083,5.60429573059082,-0.24951481819152832,2.8928580284118652,-8.058473587036133,-7.453338623046875,-10.818319320678711,-20.194961547851562,14.12207317352295,-1.1425340175628662,-12.740941047668457,-4.490538597106934,12.179099082946777,-2.4084866046905518,-2.5722970962524414,1.7821022272109985,-4.289584159851074,-1.1793906688690186,3.7216174602508545,8.15966796875,-12.172062873840332,-0.6839045286178589,-9.655680656433105,-5.9283647537231445,12.649866104125977,3.1795547008514404,-4.755794525146484,-1.7744296789169312,2.428969621658325,-6.893680572509766,-13.319490432739258,-2.8241209983825684,-2.529724597930908,5.5778398513793945,4.675777912139893,-9.745613098144531,-17.932334899902344,8.003426551818848,-9.56774616241455,-5.151527404785156,-1.1802642345428467,5.734169960021973,3.4601478576660156,5.039200782775879,2.033613681793213,-1.111073613166809,-5.7995452880859375,1.278509259223938,-3.36163067817688,-6.685916423797607,-2.067106008529663,4.835498809814453,4.563487529754639,-4.701737880706787,-1.9624468088150024,-2.2516369819641113,-2.1363470554351807,-0.01639718934893608,6.3827104568481445,1.6847726106643677,0.5705756545066833,-5.710781097412109,-1.4702619314193726,-9.375126838684082,12.577589988708496,-0.6031695604324341,-4.943850517272949,-21.087913513183594,6.4555158615112305,-3.459993839263916,-3.1238722801208496,-6.753110408782959,-6.171324253082275,1.3719276189804077,12.79417610168457,6.830382823944092,5.369085311889648,18.76858139038086,-0.9811468124389648,14.758574485778809,-6.190896987915039,6.201014995574951,0.828963041305542,11.296676635742188,4.05620813369751,10.385181427001953,0.13558179140090942,2.0150203704833984,-2.4845495223999023,0.6773931384086609,-10.220952033996582,8.0288724899292,-0.5029188394546509,6.530490398406982,-15.232802391052246,0.03217686712741852,-0.8893929123878479,13.158452987670898,-11.29407787322998,-7.388054370880127,-17.463775634765625,8.882110595703125,7.852897644042969,10.667887687683105,12.445521354675293,10.112649917602539,20.22329330444336,-8.132156372070312,14.683382987976074,2.671381711959839,2.9882543087005615,-0.7782822847366333,-21.335927963256836,-13.754817008972168,11.86751937866211,22.108837127685547,-19.495588302612305,15.380770683288574,-19.96994400024414,-9.279905319213867,12.239524841308594,12.620399475097656,12.032849311828613,-7.244806289672852,6.29673433303833,-7.1092352867126465,18.42546272277832,-5.6512250900268555,-19.1445369720459,-9.54944133758545,12.374341011047363,14.704604148864746,4.022335529327393,-15.552061080932617,13.174549102783203,10.906667709350586,-6.150729179382324,11.251079559326172,-14.925846099853516,8.843432426452637,16.07366180419922,26.549089431762695,-10.909671783447266,-10.36400318145752,8.633849143981934,16.756465911865234,-25.191251754760742,17.47526741027832,-2.6186904907226562,20.051664352416992,1.106204867362976,6.436579704284668,-26.167724609375,-8.660762786865234,3.409298896789551,-3.3989570140838623,3.052989959716797,17.724838256835938,14.220229148864746,0.6120474338531494,16.434738159179688,-11.367632865905762,-18.472904205322266,0.09034430980682373,18.96234893798828,1.4742927551269531,14.529239654541016,-1.3188773393630981,-27.46352195739746,-15.714120864868164,-16.9285831451416,15.13754940032959,0.5411889553070068,2.2254104614257812,2.2455127239227295,-0.14163874089717865,-0.10879716277122498,-2.455430746078491,15.327381134033203,24.202293395996094,-1.1434190273284912,-4.257862091064453,16.4052791595459,-16.765478134155273,17.905517578125,-1.1069785356521606,-1.5333929061889648,-19.04300308227539,-0.5666120648384094,-0.29179272055625916,0.27157121896743774,18.819467544555664,-17.485904693603516,-2.6659114360809326,-0.48828426003456116,5.005460262298584,23.950687408447266,-1.0183433294296265,-2.031052827835083,-0.6694790124893188,1.2849286794662476,1.8709017038345337,-0.7292167544364929,-0.08286451548337936,1.9627938270568848,6.69890022277832,2.6385223865509033,6.712681293487549,2.8320212364196777,22.329486846923828,3.2378897666931152,-14.944616317749023,-1.0605944395065308,15.084168434143066,2.7728631496429443,0.5376569032669067,7.069509029388428,1.167622447013855,18.363187789916992,17.074193954467773,1.7004997730255127,20.41185760498047,-18.766136169433594,3.067925453186035,2.042619466781616,1.8011761903762817,-3.107887029647827,-15.683756828308105,1.2018842697143555,11.239506721496582,7.59526252746582,0.5296798944473267,-7.529263973236084,16.435352325439453,14.301488876342773,10.344198226928711,2.4451539516448975,18.94765281677246,-12.790781021118164,-27.320802688598633,-7.045985698699951,24.739938735961914,-9.397842407226562,17.395248413085938,-6.3081841468811035,-7.410871982574463,19.433998107910156,7.861949920654297,-3.552004814147949,4.25870943069458,-2.987816333770752,15.811534881591797,-11.284728050231934,-13.262788772583008,21.928714752197266,12.797282218933105,-9.12966251373291,15.829314231872559,4.330941200256348,-10.346033096313477,-7.386017322540283,-5.94842004776001,5.42781400680542,11.843306541442871,4.199029922485352,-16.76774024963379,5.150610446929932,15.656122207641602,-26.957836151123047,14.853009223937988,-21.6314754486084,12.884592056274414,-11.685835838317871,-5.013651371002197,-20.067899703979492,-16.46039581298828,-5.351737976074219,-21.871807098388672,-7.915971755981445,4.69203519821167,-1.6390645503997803,17.902097702026367,14.448668479919434,23.055810928344727,6.828922271728516,-3.5365443229675293,0.7704709768295288,14.517461776733398,1.5466166734695435,2.751392364501953,3.366398572921753,-5.594679832458496,4.407392501831055,-16.93494987487793,11.079459190368652,8.816238403320312,10.290705680847168,-12.662252426147461,1.1862963438034058,6.6769866943359375,-5.875767230987549,-16.605831146240234,-17.13124656677246,26.584041595458984,-7.131985187530518,-4.051939487457275,3.255807399749756,18.06951904296875,7.539834976196289,8.1384859085083,19.056968688964844,17.196950912475586,3.491342544555664,8.713321685791016,18.60203742980957,-15.965140342712402,7.721489429473877,-1.3887379169464111,3.0926742553710938,-3.7078068256378174,4.520699501037598,-7.455440044403076,0.8908366560935974,3.423905372619629,-18.477148056030273,5.492536544799805,-2.2356231212615967,11.637948036193848,-10.483757019042969,16.499736785888672,14.061531066894531,-2.9428482055664062,-12.05665111541748,9.91104507446289,-10.745073318481445,-3.2879316806793213,15.317975044250488,4.191580772399902,6.125495910644531,-20.3653564453125,20.0430850982666,2.7682697772979736,1.4901221990585327,-24.338266372680664,9.621996879577637,24.73758316040039,-5.234364986419678,0.1743336170911789,-18.150144577026367,-17.351171493530273,5.562274932861328,16.271953582763672,8.843757629394531,6.192791938781738,-5.872024059295654,-3.1308796405792236,15.374530792236328,-12.965147972106934,8.386529922485352,-29.121484756469727,-0.57929527759552,28.152019500732422,2.742361545562744,-18.79656982421875,2.4817233085632324,1.2986671924591064,-13.203996658325195,-9.17059326171875,-14.657010078430176,22.055213928222656,-5.7950873374938965,12.15700912475586,39.84909439086914,24.176179885864258,-4.550686359405518,16.57962989807129,7.6814188957214355,2.7955288887023926,23.098350524902344,23.867183685302734,3.154041051864624,-3.251356363296509,-2.8121426105499268,2.3657965660095215,-3.240816116333008,2.0408172607421875,25.71321678161621,-0.7348711490631104,-11.95191764831543,-4.520197868347168,-3.2529492378234863,-4.664092540740967,14.78590202331543,7.508106708526611,-2.859239339828491,28.553861618041992,3.475820302963257,-13.35693359375,-7.908603668212891,5.90979528427124,19.30654525756836,13.092582702636719,13.619363784790039,9.534082412719727,1.1601876020431519,4.541547775268555,-11.237321853637695,-0.7251592874526978,0.42300209403038025,-15.017642974853516,20.007545471191406,26.37537956237793,-5.614394187927246,11.951457977294922,-15.836031913757324,-14.161165237426758,-4.435668468475342,6.190757751464844,21.55363655090332,0.2892703711986542,5.630228042602539,-7.818035125732422,24.505517959594727,-28.00994300842285,11.81744384765625,-21.34607696533203,7.012145519256592,1.0613881349563599,-0.06743737310171127,0.42953771352767944,0.5748487710952759,0.07726463675498962,-1.4262301921844482,-0.025368481874465942,-1.7127151489257812,2.6837661266326904,-0.46797797083854675,-0.2429676502943039,3.154731273651123,1.2864696979522705,-0.004163453821092844,-0.47171393036842346,0.26882079243659973,0.3045531213283539,0.5910331606864929,0.39695602655410767,-0.4297412037849426,-0.010893196798861027,0.5718472599983215,-0.6693210005760193,0.04304225370287895,-0.9918022155761719,0.8508440256118774,1.1197208166122437,-0.3439567983150482,0.1462620496749878,0.3603309988975525,-0.1624584197998047,0.006851267535239458,-0.9323566555976868,1.2565441131591797,1.025473713874817,0.3484872281551361,-1.1984217166900635,1.4691365957260132,0.3542018532752991,-1.1126344203948975,-0.6361495852470398,-0.21830707788467407,0.8422772884368896,1.1322565078735352,0.011682486161589622,0.25809749960899353,1.8653010129928589,1.35502290725708,-0.9090010523796082,-0.6200839281082153,1.8305851221084595,1.712652325630188,0.791580319404602,0.2480485886335373,0.34966638684272766,-0.23774631321430206,0.6094495058059692,0.1638782024383545,1.1503381729125977,-0.14461743831634521,-0.7614105343818665,0.7768561244010925,-0.30354586243629456,-1.3664108514785767,-1.4341692924499512,0.13698238134384155,-1.1556440591812134,1.9937715530395508,0.24777217209339142,-0.9712642431259155,-0.0016836957074701786,-0.7980948686599731,-0.11395373195409775,-1.0091632604599,0.183041512966156,1.2714078426361084,0.6539120078086853,0.33935630321502686,-1.0225398540496826,0.557584285736084,-1.5331006050109863,1.3345807790756226,0.5194870829582214,-0.05012151226401329,0.7439880967140198,1.4682049751281738,-0.6476582288742065,-1.241917371749878,0.6353391408920288,-0.831842303276062,0.5876175165176392,-0.25667864084243774,0.4228021502494812,0.45634379982948303,-0.04365983232855797,-0.9215598106384277,-1.9347593784332275,-0.40289244055747986,3.0829927921295166,-0.19632744789123535,-0.002692956244572997,1.618252158164978,1.602412223815918,-0.4345458447933197,-0.7047521471977234,-0.672042965888977,-0.5997229218482971,1.1971808671951294,0.8551762104034424,0.7343727350234985,0.09843698143959045,1.493178367614746,-0.027256004512310028,-0.3419445753097534,-1.8568819761276245,-0.5696591734886169,-0.695679247379303,1.7230499982833862,-0.008776074275374413,0.6062951683998108,-0.4074746072292328,0.17345350980758667,0.7967300415039062,-0.6205275654792786,0.14874430000782013,-1.8888740539550781,0.7391334772109985,-1.2510442733764648,0.47820985317230225,0.14903953671455383,-0.0720471739768982,1.0231214761734009,0.043388839811086655,-0.05504167452454567,-0.06843303889036179,0.0244735199958086,0.028806500136852264,0.027070650830864906,-0.07791522145271301,-0.033865492790937424,-0.0007542437524534762,-0.03748859465122223,-0.057062894105911255,-0.061484094709157944,-0.070747509598732,0.063053198158741,0.05968543142080307,0.005071013700217009,-0.06938701122999191,-0.04258201643824577,0.005442614667117596,-0.005882103927433491,0.04817450791597366,0.035692643374204636,0.001327740028500557,0.021388856694102287,-0.03845236077904701,-0.06940653175115585,-0.03734396770596504,-0.01937282271683216,-0.011841041035950184,-0.07119046896696091,-0.04341418668627739,-0.02160245180130005,-0.07783054560422897,-0.05378425866365433,0.016743522137403488,-0.00028614202165044844,0.04431820288300514,-0.004376736003905535,-0.0722174271941185,-0.05700719356536865,0.011760380119085312,0.0032572962809354067,0.07656031847000122,0.006556411739438772,-0.03805311769247055,0.06513138115406036,-0.0419284850358963,-0.020995594561100006,-0.07177521288394928,0.01976347342133522,0.06272625178098679,-0.06371571868658066,0.03668738901615143,0.046390920877456665,-0.015297925099730492,0.07630806416273117,0.010756170377135277,-0.03799618408083916,-0.04999665170907974,0.02793695218861103,-0.030577298253774643,0.05995762348175049,0.018222348764538765,-0.04457782581448555,-0.04672757908701897,0.028896912932395935]},"hiddenLayers":[{"inputMatrix":{"rows":20,"columns":66,"weights":[1.3912217617034912,0.7171695232391357,-1.2576124668121338,0.38402697443962097,0.9965665340423584,-0.37624168395996094,0.026450108736753464,-0.22052502632141113,1.6013466119766235,-1.298280119895935,0.7698565721511841,0.9923075437545776,0.8102268576622009,-0.9312395453453064,0.4767008125782013,0.2178623080253601,-0.4934745728969574,0.9815564751625061,0.935538649559021,0.5445425510406494,-0.09487350285053253,0.806659460067749,1.418137788772583,-1.5653988122940063,-1.3275600671768188,1.0004843473434448,0.9827637076377869,-1.9714539051055908,0.8328666687011719,-0.5482418537139893,-0.5332697629928589,0.8550208806991577,1.2906657457351685,-1.1300417184829712,0.8259570002555847,0.8890918493270874,0.3303394913673401,-0.8604127168655396,1.1244711875915527,0.794357180595398,1.0436257123947144,1.5334899425506592,0.5693357586860657,-0.6077828407287598,-0.9327017068862915,-0.7575770616531372,0.7680937051773071,-0.6689560413360596,-1.1679173707962036,0.47238725423812866,0.7638688087463379,-0.7877213954925537,0.38840633630752563,-0.6261955499649048,-0.5667343735694885,0.8223984241485596,0.3316369950771332,1.932273030281067,1.0599446296691895,-0.04150986671447754,-1.3010681867599487,1.4155731201171875,-0.943845808506012,0.32445228099823,-0.55827397108078,1.7139418125152588,-0.6495658755302429,1.1219522953033447,-0.1670600324869156,0.0023696657735854387,-0.8076342940330505,-0.6645499467849731,-0.05724610760807991,-1.130271315574646,-0.8010417819023132,-0.08844690769910812,0.7490215301513672,1.4984029531478882,0.9263498783111572,-0.29733511805534363,0.5448403358459473,1.1863789558410645,0.34070420265197754,-0.9349997639656067,-0.5101003646850586,1.534728765487671,-0.8163790106773376,1.4644112586975098,-0.39269348978996277,0.19342532753944397,-0.036153990775346756,-1.1629948616027832,-0.6972821950912476,-0.25306904315948486,-0.10565076768398285,-1.6502140760421753,0.5098885297775269,-0.1434342861175537,1.6419652700424194,-1.7256733179092407,-0.5469745397567749,-0.2940236032009125,0.7139266133308411,-0.7872034311294556,-0.8065227270126343,1.2073085308074951,0.2808304727077484,2.9072296619415283,0.5269649028778076,-0.09399019926786423,-0.8450140357017517,0.6429226398468018,0.49859729409217834,-0.5913152098655701,0.3318263292312622,0.40449202060699463,-0.3768547475337982,0.30822667479515076,-2.2268872261047363,-1.0776536464691162,-1.5359249114990234,1.5696512460708618,0.5732536911964417,0.8844296932220459,0.030467255041003227,-0.434029757976532,0.10378636419773102,