{"type":"LSTM","options":{"inputSize":35,"inputRange":35,"hiddenLayers":[20,20],"outputSize":35,"decayRate":0.999,"smoothEps":1e-8,"regc":0.000001,"clipval":5,"maxPredictionLength":100,"dataFormatter":{"indexTable":{"1":16,"I":0,"'":1,"m":2," ":3,"h":4,"a":5,"v":6,"i":7,"n":8,"g":9,"r":10,"e":11,"t":12,"d":13,"y":14,"!":15,"T":17,"s":18,"l":19,"o":20,"c":21,"u":22,"p":23,"f":24,"M":25,"j":26,"w":27,"k":28,"b":29,"x":30,"z":31,"stop-input":32,"start-output":33,"unrecognized":34},"characterTable":{"0":"I","1":"'","2":"m","3":" ","4":"h","5":"a","6":"v","7":"i","8":"n","9":"g","10":"r","11":"e","12":"t","13":"d","14":"y","15":"!","16":"1","17":"T","18":"s","19":"l","20":"o","21":"c","22":"u","23":"p","24":"f","25":"M","26":"j","27":"w","28":"k","29":"b","30":"x","31":"z","32":null,"33":null,"34":null},"values":[{"input":"I'm having a great day!","output":1},{"input":"This meal is so delicious!","output":1},{"input":"I'm so proud of myself for passing my test!","output":1},{"input":"My child just made me the happiest parent in the world!","output":1},{"input":"I just got a promotion at work!","output":1},{"input":"I just got the best news ever!","output":1},{"input":"I'm so grateful for all the wonderful people in my life!","output":1},{"input":"I'm so excited to start my new job!","output":1},{"input":"I'm so lucky to be alive!","output":1},{"input":"I'm so lucky to have such amazing friends!","output":1},{"input":"I'm so proud of my accomplishments!","output":1},{"input":"I'm so in love with life!","output":1},{"input":"Today I'm going to do something I love!","output":1},{"input":"I'm so content with my life!","output":1},{"input":"I'm so delighted to be surrounded by such supportive people!","output":1},{"input":"I'm so proud of my family!","output":1},{"input":"I'm so blessed to have my health!","output":1},{"input":"I'm so inspired by the beauty of the world!","output":1},{"input":"I'm so pleased with the results of my hard work!","output":1},{"input":"I'm feeling so optimistic about the future!","output":1},{"input":"I'm feeling so lucky to have such an incredible partner!","output":1},{"input":"I'm feeling so blessed to have a roof over my head!","output":1},{"input":"I'm so grateful for the opportunity to pursue my dreams!","output":1},{"input":"I'm so thankful for all the amazing experiences I've had!","output":1},{"input":"I'm so elated to have such a wonderful life!","output":1},{"input":"I'm having the time of my life!","output":1},{"input":"My heart is bursting with joy!","output":1},{"input":"Today is the best day ever!","output":1},{"input":"I'm so charmed by the beauty of nature!","output":1},{"input":"I'm so overjoyed to have such good friends!","output":1},{"input":"I'm so pleased with my progress!","output":1},{"input":"I'm so glad to have a chance to make a difference!","output":1},{"input":"I'm so over the moon to be able to travel!","output":1},{"input":"I'm so excited to see what the future holds!","output":1},{"input":"I'm so thrilled to have the opportunity to learn something new!","output":1},{"input":"I'm so blessed to have a loving family!","output":1},{"input":"I'm so humbled by the kindness of strangers!","output":1},{"input":"I'm feeling so fortunate to have such a wonderful life!","output":1},{"input":"I'm so pleased to have a career that I'm passionate about!","output":1},{"input":"I'm overjoyed to have a chance to explore the world!","output":1},{"input":"I'm so enamored with life!","output":1},{"input":"I'm so proud of myself for taking a chance!","output":1},{"input":"I'm so delighted to be alive!","output":1},{"input":"I'm so pleased to see how far I've come!","output":1},{"input":"I'm blessed to be able to help others!","output":1},{"input":"I'm excited for the future and all the possibilities it holds!","output":1},{"input":"I'm so blessed to have such a supportive network!","output":1},{"input":"I'm so content with where I am in life!","output":1},{"input":"I'm so thankful for all the amazing memories I have!","output":1},{"input":"I'm so thrilled to be able to experience the beauty of the world!","output":1},{"input":"I'm feeling so lucky to have such wonderful friends and family!","output":1},{"input":"I'm so appreciative of the opportunity to grow and learn!","output":1},{"input":"I'm so grateful to have the chance to follow my dreams!","output":1},{"input":"I'm so thankful for all the wonderful people in my life!","output":1},{"input":"I'm so pleased to be surrounded by such kind and loving people!","output":1},{"input":"I'm so inspired by the beauty of nature!","output":1},{"input":"I'm so ecstatic to have the chance to explore new places!","output":1},{"input":"I'm so happy to be alive and well!","output":1},{"input":"I'm so lucky to have such amazing opportunities!","output":1},{"input":"I'm so delighted to be able to live my life to the fullest!","output":1},{"input":"I'm so proud of all the hard work I've done!","output":1},{"input":"I'm so blessed to have such a wonderful life!","output":1},{"input":"I'm so grateful for all the wonderful memories I have!","output":1},{"input":"I'm so thrilled to be living my best life!","output":1},{"input":"I'm so lucky to have so many positive people in my life!","output":1},{"input":"I'm so overjoyed to have such amazing experiences!","output":1},{"input":"I'm so charmed by the beauty of the world!","output":1},{"input":"I'm so in love with life and all its wonders!","output":1},{"input":"I'm so ecstatic to have the chance to make the world a better place!","output":1},{"input":"I'm so fortunate to have such an incredible journey!","output":1},{"input":"I'm so delighted to be able to learn and grow everyday!","output":1},{"input":"I'm so thankful for all the love and support I receive!","output":1},{"input":"I'm so proud of how far I've come!","output":1},{"input":"I'm so blessed to be surrounded by such inspiring people!","output":1},{"input":"I'm so overjoyed to have the chance to make a difference!","output":1},{"input":"I'm so elated to be able to do what I love!","output":1},{"input":"I'm so pleased to have such a great life!","output":1},{"input":"I'm so thankful for all the wonderful moments I've had!","output":1}],"characters":["I","'","m"," ","h","a","v","i","n","g","r","e","t","d","y","!","1","T","s","l","o","c","u","p","f","M","j","w","k","b","x","z","stop-input","start-output","unrecognized"],"specialIndexes":[32,33,34]}},"trainOpts":{"iterations":200,"errorThresh":0.005,"log":true,"logPeriod":10,"learningRate":0.01,"callbackPeriod":10,"timeout":"Infinity"},"input":{"rows":36,"columns":35,"weights":[-1.2608801126480103,0.7888376116752625,-2.200077772140503,1.5150456428527832,-0.656250536441803,-0.6679162979125977,-2.09497332572937,-0.3063766062259674,1.3199210166931152,0.04111672192811966,-0.43125829100608826,-0.7501052618026733,-0.9930079579353333,-0.26939699053764343,0.5771266222000122,0.9938773512840271,-0.431169331073761,-0.3236338794231415,-1.819490909576416,-0.44826656579971313,1.2109440565109253,-1.062952995300293,0.3245331346988678,0.9382002353668213,-0.710662305355072,1.0780848264694214,0.7274249196052551,-0.40726518630981445,0.30273768305778503,-2.186678647994995,-0.6908431649208069,-0.782404363155365,-0.7428863048553467,0.3872540593147278,0.23125137388706207,-0.8266140818595886,1.8897714614868164,1.7233411073684692,0.4291515648365021,-0.7612813115119934,-0.8840602040290833,-1.6233385801315308,-2.2068655490875244,1.9319509267807007,-0.39511531591415405,1.2139781713485718,-0.8628957867622375,-0.5219035148620605,-0.330834299325943,-0.9211600422859192,2.151153087615967,0.6146993637084961,-0.6348404288291931,1.4148757457733154,-0.5441751480102539,-2.042766809463501,0.8287935853004456,-1.9006277322769165,-1.0691277980804443,0.7209131717681885,0.29480916261672974,1.9681800603866577,-0.07239363342523575,0.974545955657959,-0.3272874653339386,1.1751857995986938,0.4737977981567383,2.2108147144317627,2.187171220779419,-2.5921075344085693,3.151965618133545,-1.459923267364502,-1.1220368146896362,-2.7146170139312744,3.261124849319458,-0.9360073804855347,-3.413604259490967,5.061243057250977,-2.117784261703491,0.06537149846553802,0.5276247262954712,0.6221317052841187,1.8409956693649292,-0.13331133127212524,-0.7158290147781372,-1.9786365032196045,1.0079387426376343,-0.5932401418685913,0.04974302276968956,0.09193284809589386,-2.417311429977417,1.1821566820144653,2.143174648284912,-1.185239315032959,-0.2531748116016388,-0.8560585379600525,-2.9086251258850098,0.34338563680648804,-0.17984555661678314,-0.27696624398231506,2.7637457847595215,0.1709848940372467,2.6351828575134277,-2.527085781097412,1.2714089155197144,2.239879608154297,-1.7660514116287231,-4.26670503616333,1.65252685546875,-0.6197618246078491,-1.1392258405685425,-1.4600509405136108,1.4314733743667603,-2.29622745513916,-0.8388025760650635,-0.8166566491127014,3.0949950218200684,1.0334054231643677,-2.794931173324585,3.8767597675323486,-3.8161158561706543,2.2065558433532715,-0.7042410373687744,1.800817847251892,2.2923150062561035,0.5253587961196899,-0.15452827513217926,0.6640272736549377,-1.8070828914642334,3.0956063270568848,1.238296627998352,-1.063543438911438,-1.8923572301864624,-1.0259413719177246,-1.5956144332885742,-2.4892730712890625,2.251915693283081,-2.558356285095215,-2.623960256576538,0.46204128861427307,0.036171700805425644,-1.3526742458343506,-0.4824170768260956,-2.151198625564575,1.283649206161499,1.4313403367996216,-0.7336081266403198,0.5894344449043274,-1.369890809059143,0.431952565908432,-0.47271233797073364,-2.0791125297546387,-1.1331117153167725,2.3645336627960205,-0.4790339767932892,-0.4859049320220947,-0.8672128319740295,-0.31875696778297424,-0.01948552392423153,-1.966571569442749,-2.551372766494751,0.062266185879707336,2.047400951385498,-0.3649618923664093,0.696927011013031,-0.593317985534668,0.42074698209762573,1.005811333656311,0.9256452918052673,-0.9071996808052063,0.635408878326416,0.24793307483196259,-0.03318899869918823,0.006753260735422373,1.586513638496399,0.3832363784313202,1.5251281261444092,-0.9955267906188965,1.35723078250885,0.3343527019023895,-0.2203703075647354,-0.028246227651834488,-0.301736056804657,0.3146553933620453,0.14116744697093964,-0.6583721041679382,0.25235262513160706,-0.11895699799060822,-1.5164556503295898,-1.363016128540039,-0.49340012669563293,-0.10529141128063202,0.38784870505332947,-1.0360748767852783,1.1211317777633667,0.9115505218505859,-1.5973581075668335,-0.007829816080629826,-0.12759235501289368,0.024286463856697083,-1.3210175037384033,0.05778997018933296,-0.20084095001220703,-2.9200093746185303,-0.6153674125671387,-0.22139456868171692,0.7959781885147095,-1.3396490812301636,0.424333393573761,-1.9521347284317017,-0.15197190642356873,0.8846491575241089,-0.13162097334861755,-0.5251243114471436,0.22305597364902496,-1.4996395111083984,-0.27494749426841736,-0.4826383888721466,-0.7477899789810181,0.6748734712600708,-0.5841440558433533,-1.6449521780014038,-0.6789735555648804,1.5628068447113037,1.9494812488555908,-2.862872838973999,1.6382163763046265,-1.0011475086212158,-0.8338934183120728,0.5864124298095703,-0.2853988707065582,0.006509441416710615,-0.4633063077926636,0.5134050846099854,-1.5820982456207275,-0.9073491096496582,0.35569390654563904,1.5483887195587158,3.102341413497925,1.8584654331207275,0.8605883121490479,2.9337010383605957,-6.952548027038574,0.8716147541999817,-2.6996238231658936,-0.013720040209591389,0.5406654477119446,-1.4267946481704712,-1.7714122533798218,-2.859456777572632,0.2209041863679886,-0.3856590688228607,1.997937798500061,-1.7718194723129272,-2.0280332565307617,0.07198135554790497,-1.5876822471618652,-1.08771550655365,-2.0141971111297607,1.783241629600525,-2.5970184803009033,-0.2134489119052887,0.6242083311080933,-1.5437144041061401,-1.0383784770965576,2.1150336265563965,1.9567583799362183,2.219562292098999,-0.5177728533744812,-0.06318064779043198,2.0009095668792725,-1.5479732751846313,0.5010194778442383,1.0242362022399902,-2.5635504722595215,-0.5352386832237244,0.23042254149913788,3.5394957065582275,-1.940108299255371,1.1929112672805786,-0.2536749839782715,0.9021680355072021,1.3797727823257446,1.0610363483428955,-0.8830114006996155,-0.6813006401062012,0.49328145384788513,-0.0917367935180664,1.3530162572860718,2.4716341495513916,0.35756540298461914,-0.8110017776489258,-0.3873738646507263,2.2609777450561523,-1.2054044008255005,0.6807115077972412,-0.211115762591362,0.22881023585796356,0.9048222899436951,-0.1648755520582199,-4.150666236877441,3.5719947814941406,-0.10511522740125656,-0.5849831700325012,0.1074177473783493,-2.0079801082611084,-0.05240614339709282,0.11890280246734619,1.6234331130981445,1.5529385805130005,3.5831198692321777,0.7725768685340881,-1.4831764698028564,0.7430557012557983,-1.0276020765304565,-0.10638967901468277,-2.7921535968780518,0.8144682049751282,-0.4050828218460083,0.273657888174057,2.600581407546997,1.3167855739593506,0.40391233563423157,-0.6949272751808167,1.2214341163635254,-1.9986083507537842,1.753066897392273,0.9828430414199829,-0.1046462282538414,2.4234769344329834,-0.1801726073026657,0.9806311130523682,0.966532289981842,1.3961397409439087,0.4608570635318756,-1.6444982290267944,0.715463399887085,1.2704272270202637,-2.711050271987915,0.7249395847320557,-0.28588494658470154,0.1213570237159729,0.6643125414848328,1.4574187994003296,-0.5538503527641296,1.8537300825119019,1.0706102848052979,-6.007546424865723,-0.2741362750530243,2.387406826019287,-2.063615083694458,1.6136661767959595,-4.955519199371338,3.6326966285705566,-2.2171874046325684,-1.1113595962524414,-3.957477569580078,-2.3007304668426514,1.0584983825683594,-0.1390218287706375,0.797673761844635,-2.0566904544830322,-3.1117308139801025,-0.5545911192893982,1.0022469758987427,2.5198934078216553,2.5198824405670166,0.3156723976135254,-3.1570193767547607,-2.2669434547424316,-1.557984709739685,-2.978426218032837,2.5012896060943604,2.6654698848724365,-1.190384030342102,0.016222994774580002,1.6590595245361328,-0.1692637801170349,1.137428641319275,-0.7419282793998718,0.6680291295051575,-2.01315975189209,-0.8636080026626587,1.2583492994308472,1.1082688570022583,0.5372260808944702,-3.2196197509765625,-1.5888137817382812,-3.0294642448425293,-0.13998334109783173,0.9118431210517883,0.27169424295425415,0.24319203197956085,0.08813086152076721,-0.38912829756736755,-1.1915276050567627,1.100013256072998,0.07731954008340836,2.0652987957000732,-0.7706525325775146,-1.6344386339187622,0.7852039337158203,-1.042145013809204,-0.4765944480895996,0.4648590087890625,0.8877679705619812,-0.14551721513271332,0.9570369720458984,1.4064146280288696,-0.8795596957206726,1.94121515750885,-0.6547353863716125,-1.1686360836029053,-1.964797854423523,0.46273812651634216,1.5217993259429932,1.4678994417190552,-0.47836822271347046,-2.0546884536743164,2.39815616607666,-0.21462559700012207,-0.8146364688873291,0.04879650101065636,-0.1541225165128708,-1.0858956575393677,1.429245114326477,1.126277208328247,-0.005134475417435169,-0.3517439067363739,0.4643365442752838,-1.2682812213897705,0.3507015109062195,-0.0022105276584625244,0.868468165397644,1.8448846340179443,-0.2079620659351349,-0.5549654960632324,0.5588833689689636,0.5766748785972595,0.24428947269916534,0.06454789638519287,0.5712781548500061,2.255596160888672,0.18409085273742676,-0.020652074366807938,-0.41014763712882996,0.5088759064674377,1.7884714603424072,1.5119314193725586,-0.7291737794876099,0.341867595911026,0.08613766729831696,-1.2445363998413086,0.3398340940475464,1.8162639141082764,0.743327796459198,0.3382601737976074,0.5679352283477783,-0.17693789303302765,-0.4641391336917877,0.5013304948806763,0.5259444117546082,0.779590904712677,-0.35920989513397217,-1.1200207471847534,0.43863388895988464,0.15051519870758057,-0.14623479545116425,0.19535908102989197,2.199306011199951,-1.5201361179351807,0.24218221008777618,-0.08908361196517944,-0.3939763307571411,0.5945324897766113,1.3525420427322388,-0.19124379754066467,-0.18295200169086456,-1.2602920532226562,0.08229299634695053,0.2928222119808197,-1.1431304216384888,-0.8570742607116699,-0.578978955745697,0.4341115653514862,-0.9549902677536011,1.4074143171310425,-0.2951365113258362,-0.8118321299552917,-0.8646830916404724,1.7391036748886108,-0.023299409076571465,-0.9643445611000061,-2.1617801189422607,0.5929612517356873,0.08749747276306152,-2.5482141971588135,-2.024263858795166,-1.8895779848098755,-1.314538836479187,0.016463033854961395,-1.7755157947540283,2.6255838871002197,-1.7610089778900146,-2.3039402961730957,-1.2074297666549683,1.038958191871643,-1.0637339353561401,-1.3570042848587036,0.9373109340667725,-2.7436904907226562,-2.8963608741760254,-1.4016289710998535,-1.2224210500717163,-1.6297694444656372,-2.306002140045166,0.955454409122467,0.3191831409931183,-0.20094607770442963,-1.150997281074524,4.534648418426514,1.468902826309204,-2.8485028743743896,-0.4877490699291229,-0.6586123108863831,-1.1179146766662598,-4.450385570526123,-2.307431221008301,-3.521432638168335,0.7243366837501526,1.447458028793335,-1.4735949039459229,0.36722490191459656,-0.7627525329589844,0.6300951838493347,1.2034151554107666,0.8965466618537903,2.2851014137268066,0.7329487800598145,0.9751856923103333,-2.0194904804229736,0.5330396294593811,0.33266565203666687,-2.6245341300964355,2.889601707458496,2.0390987396240234,-3.8562405109405518,-0.8386748433113098,-0.9447246789932251,1.436454176902771,3.6824417114257812,0.3882024586200714,-2.970836877822876,0.33693039417266846,2.958038568496704,1.1621029376983643,3.4742844104766846,-0.6956762075424194,-0.5476312637329102,0.6724982857704163,2.2474629878997803,-0.9270232915878296,-0.16992807388305664,-0.21714065968990326,0.2386951446533203,-0.6172135472297668,0.32310813665390015,-0.07607622444629669,-3.455984592437744,2.3737316131591797,-1.3444499969482422,3.643486738204956,1.4516125917434692,-1.0090582370758057,-2.558070421218872,-3.816226005554199,1.31215500831604,1.151023507118225,-0.5037180185317993,2.773104190826416,-2.0270936489105225,-0.8523615598678589,2.6189613342285156,-2.1220078468322754,-0.9729200005531311,-0.572200357913971,1.2220535278320312,0.7374681830406189,-5.8096160888671875,-2.149662971496582,0.7187052965164185,2.9278595447540283,-0.038385920226573944,-4.483863830566406,0.39439859986305237,-0.29206031560897827,-0.3392280638217926,0.7468985915184021,0.2830091416835785,-0.8851593732833862,-0.5648505091667175,0.5037363767623901,0.17790471017360687,-0.11088954657316208,-0.18555352091789246,-1.3063150644302368,-0.5822773575782776,-0.12761598825454712,-0.7690660357475281,1.171040654182434,0.16624034941196442,-0.17118987441062927,-1.7544870376586914,2.8783843517303467,0.49453747272491455,-1.0328049659729004,3.814832925796509,-1.4676040410995483,-1.5340263843536377,-0.5408840179443359,1.7624773979187012,-0.2369670867919922,-0.9086009860038757,0.524907648563385,-0.4650178849697113,-1.1034090518951416,0.14053858816623688,-1.2970683574676514,-0.25440141558647156,1.9187512397766113,-3.0012218952178955,4.391086578369141,-4.08425235748291,3.6096928119659424,-0.9141479134559631,-9.87181568145752,-0.27524060010910034,3.157468318939209,2.583913564682007,-10.121071815490723,-2.248460531234741,-0.28590458631515503,-1.1405744552612305,-14.983427047729492,-3.943380832672119,3.997344732284546,-1.3173339366912842,-4.940821170806885,-3.0128087997436523,-4.5302534103393555,2.3477683067321777,-1.0121480226516724,-2.7152466773986816,-3.676783323287964,12.916475296020508,3.03194260597229,-4.982408046722412,-10.866920471191406,3.153289318084717,-11.463374137878418,-4.9533915519714355,-0.5207585692405701,0.9985820651054382,4.879209041595459,-2.3851985931396484,0.7430859804153442,-0.0902593657374382,1.0697869062423706,-0.18184968829154968,0.873216986656189,-1.3827362060546875,-0.9307389855384827,-0.3027890622615814,-1.0399249792099,-1.4960681200027466,-0.24305066466331482,-0.7433638572692871,0.6054865717887878,-2.865262985229492,-0.6670637130737305,-1.175983190536499,-0.12894660234451294,0.8376195430755615,0.4035423994064331,-0.07111665606498718,-0.5531284213066101,-0.2133660763502121,0.3504484295845032,0.9722113013267517,1.837507963180542,-0.39287811517715454,0.5411474108695984,0.9524739980697632,0.5536773204803467,-1.3197808265686035,-2.4998230934143066,-1.0139353275299072,0.9841763973236084,0.17453257739543915,0.14912644028663635,0.3563915193080902,-1.5230385065078735,0.17126256227493286,-2.0074820518493652,0.8058152794837952,0.1075756698846817,1.1435703039169312,-0.5614076852798462,-0.9358407855033875,-0.34154799580574036,-0.24523353576660156,1.0440503358840942,0.23935432732105255,1.910163164138794,2.380790948867798,-1.570051908493042,-0.1685464084148407,0.014592302963137627,0.6169387698173523,0.16542649269104004,2.0781421661376953,0.0958845466375351,0.6860290169715881,2.4949569702148438,-0.8077285289764404,0.27052366733551025,0.5901986956596375,1.9664607048034668,-0.23754210770130157,1.0845508575439453,-1.8547109365463257,1.131143569946289,-0.8480257391929626,-1.0981791019439697,0.6075377464294434,-0.5021904706954956,1.111685037612915,2.839923143386841,3.1613502502441406,-2.0053532123565674,1.2272640466690063,2.174839735031128,0.0365217961370945,0.3004852831363678,0.1528715044260025,-0.7758234739303589,1.1066782474517822,-1.2061532735824585,0.30031535029411316,-1.7065073251724243,1.0122956037521362,0.1743234246969223,-0.41444718837738037,1.8502615690231323,2.2915656566619873,-2.819413661956787,0.9355457425117493,0.8524819016456604,-0.3606688678264618,-0.8266575932502747,-2.0335373878479004,0.37210386991500854,1.0347132682800293,1.237375259399414,-1.0257697105407715,2.176724672317505,-0.0050547304563224316,-2.6977996826171875,0.9813814163208008,1.3639483451843262,-0.21147064864635468,-0.48675552010536194,-2.0508615970611572,0.010501936078071594,-0.08035304397344589,1.1203633546829224,1.9872428178787231,0.9759140014648438,0.8013462424278259,-2.317260503768921,-1.147784948348999,1.737607717514038,-0.7399510145187378,-3.2754993438720703,-2.495771884918213,-0.42514705657958984,-0.8375727534294128,-1.7543466091156006,0.7978200912475586,0.6540190577507019,1.7163090705871582,0.9131648540496826,-5.460906982421875,-0.24571184813976288,-1.271154761314392,-1.3209506273269653,-1.0767805576324463,-0.7483261227607727,-1.3349947929382324,-0.2551136314868927,-3.1220476627349854,-0.9704485535621643,1.463551640510559,0.857425332069397,-3.321662187576294,0.6812258362770081,-2.2737581729888916,-2.077195644378662,-1.1913965940475464,1.0203646421432495,0.6764877438545227,-1.37744140625,0.8650190830230713,-0.751875102519989,-0.2318982183933258,-2.3056182861328125,-0.7835593223571777,0.6604296565055847,1.5119773149490356,-0.081570103764534,-1.333346962928772,-0.4047786593437195,0.07876846194267273,0.2652904987335205,-0.5011295080184937,1.6141225099563599,0.8974420428276062,0.5249042510986328,0.8473169803619385,1.3481853008270264,1.6011688709259033,0.5805083513259888,-0.6965054869651794,0.4658845067024231,0.7720968127250671,-0.4670187830924988,0.15993733704090118,-3.5583856105804443,-1.2774149179458618,1.1848723888397217,-2.4975690841674805,0.32404911518096924,0.7019850015640259,2.509443998336792,-2.027682065963745,1.5000606775283813,-0.2742660343647003,-0.6695206761360168,1.4882107973098755,1.3854868412017822,-1.0271635055541992,0.5065738558769226,-2.1637158393859863,1.3974990844726562,-3.19358491897583,1.4682561159133911,-1.2407244443893433,-0.8932052850723267,2.4711785316467285,-1.7318741083145142,-1.9590083360671997,1.8887733221054077,-1.528693437576294,-0.4651579260826111,-1.690688967704773,0.7377671003341675,0.6601262092590332,-1.0669517517089844,-1.0773378610610962,1.3010594844818115,1.894368290901184,0.3320084512233734,-0.48155277967453003,-0.4488866329193115,1.0624778270721436,1.7649282217025757,-1.6401649713516235,-3.284860372543335,-0.18017126619815826,-1.1639316082000732,2.6910400390625,0.6239579916000366,-1.3449355363845825,-0.7823506593704224,-0.6612463593482971,-0.7903220653533936,1.4657894372940063,0.8741745948791504,1.9605072736740112,-0.05752688646316528,-2.6560139656066895,-0.7904335856437683,1.4999542236328125,-1.7723098993301392,2.508535385131836,3.663825750350952,-0.9907842874526978,-1.2831768989562988,-2.7813210487365723,2.733786106109619,5.238174915313721,1.8760398626327515,-3.8800032138824463,-5.411239147186279,0.969481348991394,-2.4754605293273926,3.3905029296875,-5.992443084716797,-1.9272282123565674,3.5499086380004883,18.90363121032715,-3.7985174655914307,12.467021942138672,-5.128526210784912,9.970897674560547,-3.699333429336548,16.008556365966797,11.305519104003906,-3.452190637588501,5.749333381652832,-4.645115375518799,3.5692169666290283,2.030141830444336,3.3328709602355957,7.253478050231934,-10.07520866394043,-6.817783832550049,-0.03967256471514702,12.682031631469727,2.7418665885925293,0.7278606295585632,3.652848482131958,2.0671892166137695,-7.6991729736328125,-7.092869281768799,-3.1050314903259277,-10.364967346191406,-2.592327356338501,-5.782745838165283,14.624309539794922,-0.4941025376319885,5.9408369064331055,0.47255343198776245,-12.457160949707031,-0.3772415220737457,-2.1344716548919678,5.581652641296387,-6.184223651885986,1.721911072731018,-4.7266435623168945,-0.39126119017601013,-5.4796857833862305,-3.013286590576172,5.172821998596191,-1.1394685506820679,-2.475985288619995,-3.124300718307495,-3.1028518676757812,-4.932621479034424,-7.813231468200684,5.679794788360596,3.6078226566314697,-3.343411445617676,-4.693833351135254,-1.7256531715393066,3.9583847522735596,-4.0528130531311035,-4.027614116668701,-1.0762399435043335,1.6111372709274292,2.2358338832855225,2.4111709594726562,-10.974862098693848,3.483870029449463,-2.2989678382873535,5.228720188140869,2.3055009841918945,-0.5114120841026306,4.581638813018799,-3.2601137161254883,-0.8790463805198669,1.1368052959442139,-1.4422358274459839,1.7158054113388062,1.0622191429138184,0.45948323607444763,-3.8934311866760254,-0.309878408908844,1.2302590608596802,0.7036193609237671,2.0723259449005127,-1.1078413724899292,-0.25292956829071045,-2.0097451210021973,-1.4923336505889893,1.3077585697174072,2.4566478729248047,1.7738970518112183,-2.2280473709106445,0.39252713322639465,0.21001377701759338,-3.862110137939453,-0.8062591552734375,0.11598256230354309,1.659975290298462,-3.793401002883911,1.3022255897521973,1.9909650087356567,-0.4622614085674286,-1.9673805236816406,-0.17883631587028503,-0.5810051560401917,-3.3428280353546143,-0.4623562693595886,-0.8333249688148499,0.1824486404657364,0.8654820919036865,-4.348336219787598,0.507230818271637,0.6421813368797302,-1.2593343257904053,-2.533761501312256,1.6302247047424316,2.724949836730957,0.019460810348391533,-3.032320976257324,0.6633641719818115,-1.157450795173645,1.851371169090271,-0.7385470867156982,1.3064483404159546,0.19973254203796387,-3.280837297439575,-4.363183975219727,-1.18771231174469,4.622155666351318,0.31494826078414917,-3.49605655670166,-1.6239526271820068,-1.1146843433380127,2.4643917083740234,-2.001608371734619,-3.656830310821533,1.9523353576660156,0.3315950334072113,3.8800666332244873,1.4662208557128906,-7.253587245941162,1.8235467672348022,-1.4201769828796387,-0.48948028683662415,-1.7114393711090088,-1.631201982498169,-1.4713599681854248,-1.0447473526000977,0.2028663456439972,-0.2360868901014328,0.32983532547950745,-0.33268260955810547,1.3585094213485718,0.6332437992095947,1.9509025812149048,-0.20764169096946716,0.8449081182479858,2.189586877822876,-3.7164194583892822,0.11926979571580887,1.0285882949829102,-1.600151538848877,1.3598793745040894,1.9182403087615967,-2.1572036743164062,-0.07954724878072739,0.23564882576465607,3.147322416305542,3.4085476398468018,0.5795291066169739,-2.6691975593566895,0.09120422601699829,0.49584588408470154,-1.1630409955978394,0.4314199686050415,-0.6649521589279175,-1.529158592224121,1.270119071006775,0.4418579638004303,-0.8182575702667236,6.4349470138549805,-4.813788890838623,1.6277605295181274,2.0437986850738525,8.340245246887207,3.2553746700286865,-2.6165382862091064,-2.3716609477996826,-6.045397758483887,4.57933235168457,2.2777786254882812,0.1508381962776184,7.222522258758545,-3.3050427436828613,-6.045963764190674,3.389155864715576,3.559943675994873,2.9513518810272217,-3.965963363647461,5.988307476043701,2.276942253112793,-1.5671957731246948,-0.9073623418807983,-3.362602710723877,-4.494052410125732,2.374539852142334,3.381864070892334,7.1133856773376465,-1.6249290704727173,2.4831156730651855,-0.8974326848983765,3.289395570755005,-0.9273622035980225,1.6950324773788452,-0.4454731345176697,6.294909954071045,-8.261348724365234,-5.849146366119385,8.37368392944336,3.7900214195251465,-3.190619707107544,-5.171603679656982,11.383471488952637,2.2622690200805664,5.686312198638916,-0.8801026940345764,1.6202059984207153,-2.8070266246795654,-6.940471172332764,-4.756426811218262,10.183428764343262,-5.449829578399658,0.8164957761764526,-4.2942986488342285,1.224263310432434,5.337092399597168,-9.840794563293457,1.2557460069656372,-6.621929168701172,3.5831451416015625,4.619450569152832,-3.9886255264282227,5.477967262268066,4.19384765625,9.71327018737793,2.6133995056152344,-5.758523941040039,-2.177321434020996,-1.0165627002716064,0.7852444648742676,-2.3615756034851074,1.4015424251556396,0.23251262307167053,-0.26734068989753723,-1.6270767450332642,-0.13379766047000885,-0.9580540657043457,-0.7755013108253479,-0.9536616206169128,0.9149042963981628,0.14469343423843384,-2.146267890930176,-1.1366888284683228,-0.021657859906554222,0.34500184655189514,-0.012570063583552837,-0.16568879783153534,0.1579926460981369,0.00592406652867794,1.1464742422103882,1.5977845191955566,-0.518930971622467,1.5511881113052368,1.397783875465393,0.9813738465309143,-1.0097417831420898,0.12248930335044861,-2.9175069332122803,0.31773969531059265,-2.5068089962005615,1.1897395849227905,-0.13369622826576233,1.2710721492767334,0.2627321481704712,-0.012589340098202229,-0.6931155323982239,-0.9350326061248779,-1.6111490726470947,-0.17224043607711792,0.9287078380584717,0.323022723197937,-0.39706555008888245,0.20691435039043427,-1.2745749950408936,0.905625581741333,-0.6915649771690369,-0.17644594609737396,0.42774227261543274,-0.2511877715587616,0.1344275027513504,-0.08439172804355621,2.2901785373687744,1.1874561309814453,-1.7387028932571411,2.18731689453125,1.6461668014526367,0.37307530641555786,-1.402662992477417,0.13734929263591766,-0.9164911508560181,0.8984021544456482,0.6222414374351501,0.8186995387077332,0.7057838439941406,0.23718565702438354,-0.5554970502853394,-0.39440757036209106,1.4821763038635254,-0.0434245802462101,0.05591155216097832,-0.029856478795409203,-0.029590876772999763,-0.05182116478681564,0.07592594623565674,-0.06734595447778702,-0.01948806829750538,-0.0335797481238842,0.012377307750284672,-0.012727760709822178,0.010830341838300228,0.07033062726259232,-0.07291048020124435,0.06234339252114296,0.03834838047623634,0.021053984761238098,0.004469776526093483,0.03573821857571602,-0.052483610808849335,0.013750424608588219,0.004549229517579079,0.013485963456332684,-0.033435989171266556,-0.02294589765369892,0.06064515933394432,0.012507915496826172,-0.014374298974871635,0.014330016449093819,0.015263405628502369,-0.005930048879235983,0.05981060117483139,-0.043263811618089676,0.07445809245109558,-0.018755989149212837]},"hiddenLayers":[{"inputMatrix":{"rows":20,"columns":35,"weights":[-1.4582785367965698,-0.5685386657714844,0.42523691058158875,-3.120378017425537,-2.451770544052124,0.25115951895713806,1.449167013168335,0.03238585963845253,-0.45624077320098877,2.45981764793396,1.3460384607315063,0.19619791209697723,-1.0858052968978882,0.5426291823387146,-0.2125495970249176,-2.014296531677246,-1.2086880207061768,3.2612287998199463,-2.289151430130005,-0.5470259189605713,-0.8515368103981018,0.7192566394805908,0.27144289016723633,-0.8997358679771423,0.36285948753356934,2.816559314727783,0.8367405533790588,-1.1145260334014893,0.6173771619796753,1.1031138896942139,0.8695187568664551,0.8934764862060547,-0.3376176059246063,-1.4220460653305054,-0.38276809453964233,-0.10939904302358627,1.4228053092956543,-0.1728077381849289,1.490712285041809,0.15380001068115234,-0.4212430417537689,-0.6836907863616943,-0.6437454223632812,1.7744052410125732,0.2125176191329956,0.16077971458435059,-1.0034897327423096,1.170945644378662,-1.3308615684509277,-3.1808817386627197,2.8332407474517822,0.41760894656181335,1.018027424812317,-0.20078924298286438,-0.47313573956489563,-0.853347659111023,-1.209414005279541,-2.032512903213501,1.0016248226165771,-0.7836399674415588,-1.7579066753387451,1.3766262531280518,-1.1829333305358887,-0.8709629774093628,0.16723260283470154,1.6918387413024902,-1.1395294666290283,0.6556156277656555,1.0682259798049927,-1.6735690832138062,0.7314200401306152,-1.5865662097930908,-0.2132878303527832,-1.2755746841430664,0.23235051333904266,1.820542335510254,1.730509638786316,2.7022809982299805,0.05889449268579483,0.4686084985733032,-1.0504131317138672,1.1935383081436157,-1.2075620889663696,2.494267225265503,-1.021529197692871,-1.3929383754730225,-0.5569065809249878,-0.8134865760803223,-0.08769292384386063,-0.42608004808425903,0.7690402269363403,4.265382766723633,-0.27588003873825073,0.2334969937801361,0.00752571877092123,0.37519529461860657,-2.2020959854125977,-0.15692578256130219,-2.078280448913574,1.4238507747650146,0.7391324639320374,-0.11512355506420135,-0.400260865688324,-2.014017343521118,1.7424087524414062,-0.18264585733413696,-1.3517566919326782,-0.11732026934623718,-0.13577523827552795,-0.554716944694519,0.2819731533527374,0.4835388958454132,0.07435127347707748,0.3877113163471222,1.2942261695861816,0.35184550285339355,0.1125258356332779,-0.7645067572593689,0.8417157530784607,-1.6550419330596924,-1.7187904119491577,0.46478089690208435,-0.028211669996380806,0.3148506283760071,-0.4873153865337372,-0.9561769962310791,1.6004424095153809,0.32249072194099426,-0.9592084884643555,1.363874912261963,0.9108664989471436,0.0344761423766613,-0.8064467906951904,-0.7597377896308899,0.2091258317232132,0.39132818579673767,-0.2107841819524765,-0.5759330987930298,-1.7620186805725098,1.6995899677276611,0.5833909511566162,-0.12986789643764496,0.23295702040195465,-1.086709976196289,0.035108767449855804,-0.27087467908859253,0.7150096893310547,0.8660081624984741,-0.5139124393463135,1.7801294326782227,0.27194157242774963,-0.3740859925746918,-1.4140623807907104,1.2196967601776123,0.25944116711616516,-2.7463343143463135,-0.170810729265213,0.23141571879386902,0.5569974184036255,-1.0586671829223633,-1.5214768648147583,1.8219422101974487,0.00025744608137756586,-0.8071163892745972,1.1456809043884277,1.2619566917419434,-0.27943119406700134,-0.6082590222358704,0.06459777057170868,0.5442137718200684,0.22535905241966248,-0.18668809533119202,-1.514941692352295,-1.2315547466278076,0.19282223284244537,-0.28138649463653564,0.9607940912246704,1.1441245079040527,0.07244779169559479,-0.655611515045166,0.4865429699420929,1.5024484395980835,-0.8665041923522949,-1.494755506515503,-1.6473859548568726,-1.502403974533081,0.054302752017974854,1.2012248039245605,-1.0845242738723755,-1.9710479974746704,1.6324495077133179,-1.6316227912902832,0.10803549736738205,1.1072920560836792,1.0556626319885254,-1.5037508010864258,0.0887836217880249,0.854607105255127,-0.5958415865898132,-1.103602409362793,-1.526941180229187,0.8288028240203857,0.5746930837631226,0.7850411534309387,-0.8286686539649963,1.064760684967041,0.9820619821548462,1.6604633331298828,2.267573118209839,0.1142696961760521,-0.5098731517791748,-1.9602826833724976,0.4362293481826782,-1.5900434255599976,0.3796004056930542,0.763971745967865,-0.6053302884101868,-0.973494291305542,-0.31861773133277893,0.9133504629135132,-0.3979893624782562,-0.1011308804154396,0.7441328763961792,1.837354302406311,0.7463002800941467,0.8155491948127747,-1.4932615756988525,-0.28262636065483093,0.9103431701660156,-0.17583927512168884,-1.908926010131836,1.8243104219436646,0.18303273618221283,-2.5242156982421875,-0.4806209206581116,-0.22387540340423584,1.4053434133529663,0.31045544147491455,-1.308544635772705,0.7096511721611023,-0.07255440205335617,1.3062552213668823,2.285139322280884,-0.5150454640388489,0.38626471161842346,-0.6491093039512634,-0.01278628595173359,-1.3613027334213257,3.6961352825164795,-0.6333678364753723,0.5804903507232666,-1.1496661901474,-0.08316820859909058,0.412790447473526,0.17760024964809418,-1.313072919845581,1.186221718788147,0.9756222367286682,-2.514078140258789,-0.6334138512611389,1.8503358364105225,0.5128447413444519,-0.31707367300987244,0.5842127799987793,0.7411286234855652,-0.9813385605812073,0.044225502759218216,-0.2114177644252777,-0.33243080973625183,-1.005232334136963,-1.9737712144851685,0.3699053227901459,0.35360702872276306,0.20324189960956573,-0.7133407592773438,0.8863421678543091,0.1160125881433487,-0.6416510939598083,0.1058172956109047,-0.41033074259757996,-0.25686725974082947,-1.3905924558639526,-0.9929234981536865,0.3376624286174774,-0.29927340149879456,-0.7650551795959473,-1.5626906156539917,-0.46128982305526733,-0.12518727779388428,-0.06532439589500427,-0.18152283132076263,0.24043911695480347,0.2118445783853531,0.024229930713772774,2.123769998550415,-0.9947330951690674,1.138474702835083,-0.25997939705848694,-0.6325135231018066,0.5907142162322998,-0.3496118187904358,-0.7564560770988464,1.2006428241729736,0.08052714914083481,0.3449004590511322,0.10822529345750809,0.8660112023353577,0.3517304062843323,1.551294207572937,-0.8273675441741943,0.20107021927833557,-0.13972552120685577,-1.2236268520355225,-0.06437971442937851,1.4314018487930298,-0.17919538915157318,-0.5002457499504089,0.8746504187583923,-1.1253693103790283,-1.0339000225067139,1.788438081741333,1.2458295822143555,-1.7782862186431885,-0.5375842452049255,-2.3492319583892822,-1.4583888053894043,0.027167728170752525,2.15435791015625,1.1964313983917236,-1.4304357767105103,1.9309635162353516,-1.1278400421142578,-1.3394640684127808,1.5039125680923462,1.112060785293579,-0.12271861732006073,1.6691880226135254,-1.8786861896514893,-1.6098377704620361,-2.9017152786254883,-1.6870102882385254,0.5936370491981506,0.7844434380531311,3.22864031791687,0.4459354281425476,2.301060676574707,2.167327880859375,-0.029635543003678322,3.9076411724090576,-1.0763269662857056,-0.38291430473327637,0.8103323578834534,-0.3486965298652649,1.1304196119308472,0.23177003860473633,-0.2796187102794647,-1.2480968236923218,0.21775764226913452,0.8086225390434265,-0.41989752650260925,0.09033127874135971,-0.7598798274993896,-0.30472132563591003,-1.4561513662338257,-1.9298630952835083,1.2818067073822021,-0.5462899804115295,0.48536354303359985,-0.03433816507458687,-0.9326673150062561,-2.1345221996307373,-0.7733193039894104,0.05508884787559509,0.3301696181297302,-0.6347112655639648,-2.1461472511291504,-0.03211858868598938,0.4433639645576477,0.27695322036743164,-0.7033959627151489,-0.20122762024402618,-1.571284294128418,1.2927485704421997,1.3961442708969116,-1.306331753730774,0.7903293371200562,0.24727043509483337,3.0432052612304688,0.2686549723148346,-0.17655394971370697,1.3434245586395264,2.524338483810425,0.9998860955238342,1.1200960874557495,1.3515726327896118,0.007703504990786314,1.954386830329895,0.6938128471374512,0.9119412302970886,2.14223051071167,0.6938211917877197,-0.4024156630039215,0.046956613659858704,3.6397037506103516,1.0276191234588623,-0.5611273646354675,3.6709930896759033,-1.4693838357925415,-1.9190528392791748,-0.7761996984481812,-1.033376932144165,-1.7251808643341064,0.7384510040283203,0.4119017720222473,1.2422362565994263,0.40419259667396545,0.4322986602783203,2.132350206375122,0.3954505920410156,-0.909242570400238,1.8421761989593506,-1.059645175933838,-0.05560145527124405,-2.3775534629821777,0.9688247442245483,0.09803565591573715,1.2512542009353638,0.4678722321987152,-1.9100590944290161,-1.0930274724960327,-1.0544863939285278,0.12447670102119446,0.3297179937362671,-0.45724737644195557,0.9701032042503357,-2.860706090927124,-0.6532505750656128,-0.5364704728126526,1.0285395383834839,2.3108811378479004,0.3591628074645996,0.20802763104438782,0.6545435786247253,0.33062681555747986,-0.6697485446929932,-0.5186904072761536,0.37989237904548645,-0.19338899850845337,-1.118596076965332,0.45662760734558105,-1.523360252380371,1.3980989456176758,-0.17778636515140533,0.005802217870950699,0.10343481600284576,-0.7975265383720398,-0.006581068504601717,-0.6963666677474976,2.553279399871826,-1.372451901435852,1.770630121231079,0.11252350360155106,-0.7834101915359497,1.6186882257461548,-0.8890314102172852,-1.9873666763305664,0.9368872046470642,0.17548756301403046,-0.7015358805656433,-0.23404136300086975,3.6955811977386475,-2.325516939163208,0.5031774044036865,-0.10670732706785202,0.9996774792671204,1.4866719245910645,-0.7916757464408875,-0.46586620807647705,-0.733928918838501,-0.5320421457290649,0.10551591962575912,0.38975685834884644,-0.5647362470626831,-0.9218911528587341,-0.9396377205848694,-1.8929657936096191,-0.1844661831855774,0.39368337392807007,2.1251285076141357,1.953826665878296,-0.2652427554130554,-0.01153192576020956,-1.2084120512008667,0.24679850041866302,-0.07129285484552383,-2.388728141784668,-2.0887398719787598,-1.2305350303649902,0.1869966685771942,-1.2118439674377441,0.7185268998146057,-0.2898644208908081,0.9154605865478516,-2.9962594509124756,0.23391848802566528,-0.16526591777801514,1.3898078203201294,-0.683617115020752,0.29193606972694397,0.33091017603874207,-0.9205183386802673,-1.327275276184082,-0.5957959890365601,0.7691180109977722,2.5636332035064697,1.343111276626587,1.5933390855789185,-1.8971186876296997,1.8212202787399292,-2.4891879558563232,-1.2202914953231812,-2.4031951427459717,-3.8201205730438232,0.5119831562042236,1.0690706968307495,-0.4383030831813812,-0.3100646138191223,-1.0725044012069702,0.10254548490047455,-0.6684891581535339,0.07549674063920975,-0.9046974182128906,-0.32623013854026794,-0.21778437495231628,0.4262644946575165,1.3570104837417603,0.36165812611579895,-0.23003503680229187,-1.2193808555603027,-0.9890281558036804,-0.6468847990036011,-0.46201977133750916,0.8278984427452087,-1.5504086017608643,-0.7203018665313721,-1.6808418035507202,-0.9342339038848877,0.7541812658309937,-0.4429740309715271,0.4966655373573303,-1.2733681201934814,0.3881831467151642,0.9963991045951843,-0.3108096718788147,-3.276019334793091,0.4071747958660126,-0.5860931277275085,1.1954312324523926,-0.7821269631385803,0.16040746867656708,0.25239625573158264,-1.0649731159210205,0.33234015107154846,-0.924694299697876,0.25827404856681824,0.4104308784008026,0.06874552369117737,0.7651208639144897,-0.6175210475921631,-0.0919819101691246,0.08123617619276047,0.20163218677043915,0.1750938445329666,0.29851725697517395,0.8548207879066467,-1.162049412727356,-0.1753637045621872,-0.1357017457485199,0.11281360685825348,0.5542123913764954,0.33063775300979614,0.08205315470695496,0.4522717297077179,-0.5252808332443237,0.011006243526935577,-0.11295226216316223,-0.1468026340007782,0.23377040028572083,-0.8696575164794922,0.3768922686576843,-0.5680589079856873,0.8307554721832275,-0.04023702070116997,-1.0328322649002075,0.4545671343803406,1.3080276250839233,0.05299536511301994,1.1556460857391357,-0.8342676758766174,1.5548534393310547,-1.0665212869644165,1.5014452934265137,0.3061229884624481,-1.1450859308242798,0.34055012464523315,2.203770160675049,0.4875428080558777,-0.7541799545288086,-0.1664358228445053,0.12555767595767975,-4.446078300476074,0.1567167192697525,0.6023536920547485,-0.05502905696630478,0.15715324878692627,-1.2070107460021973,-0.43207889795303345,0.5203287601470947,0.08119817823171616,1.4755502939224243,1.763439655303955,-0.312980592250824,-0.7807599306106567,-2.027045488357544,-0.4974387586116791,-1.0779404640197754,1.4891687631607056,-0.11257602274417877,-1.5868685245513916,-0.0657784715294838,0.013803963549435139,0.1695788949728012,-0.6423789858818054,0.10496342927217484,0.14252646267414093,0.28325942158699036,-0.35524982213974,0.6365743279457092,0.9319823980331421,0.5890763998031616,0.398603230714798,-1.0597922801971436,-0.9627018570899963,1.4177565574645996,-2.8112263679504395,-0.060670435428619385,-0.10966796427965164,0.010380538180470467,-0.6541134119033813,-0.9522454738616943,0.07463445514440536,0.49041539430618286,-0.34344956278800964,-0.11776091903448105,0.30060136318206787,0.2095440775156021,-0.30448538064956665,-0.8552722930908203,-0.40125277638435364,0.5103025436401367,0.9116313457489014,0.3863966464996338,-0.44291073083877563,-0.8520236015319824,-0.12818466126918793,0.5414349436759949,0.2989809215068817,1.317336916923523,0.10961608588695526,-0.3153064250946045,-0.020881952717900276,0.5094434022903442,0.9928002953529358,-0.16607600450515747,-0.07398530840873718,0.8117151856422424,-1.258027195930481,-2.0592257976531982,0.6942383646965027,-1.3794082403182983,-2.0120716094970703,0.6705350279808044,-0.33063581585884094,-0.19744464755058289,-0.44298288226127625,0.5926306843757629,1.3801586627960205,-0.838011622428894,0.7587293982505798,0.27529779076576233,0.09774288535118103,0.06358587741851807,1.0064705610275269,-0.049421608448028564,-0.4004170298576355,-0.20122143626213074,0.7141004204750061,-2.916236639022827,-1.4934461116790771,-0.34324803948402405]},"inputHidden":{"rows":20,"columns":20,"weights":[0.19710496068000793,1.4010001420974731,0.49187636375427246,-0.8502949476242065,4.130931854248047,1.7591553926467896,1.9197877645492554,1.2861740589141846,-0.16341067850589752,3.622013568878174,-1.013137698173523,-1.4506535530090332,2.104428768157959,2.071223258972168,-1.630223035812378,-0.44211050868034363,-2.460373640060425,-2.515906572341919,-0.068644218146801,-1.822081208229065,-0.658028781414032,-0.47683218121528625,-0.114585280418396,-2.0998830795288086,-1.285020112991333,0.14104008674621582,1.0693979263305664,0.2895248234272003,0.9155988097190857,-2.429208278656006,-1.2842357158660889,0.04183519259095192,-1.2354809045791626,2.136914014816284,-4.249518394470215,-0.4210050404071808,2.7450554370880127,-0.5510140657424927,-1.507688283920288,2.2853140830993652,0.5570007562637329,1.618965983390808,-0.07283078879117966,-0.6642252206802368,-0.5404693484306335,-0.1877339780330658,-0.09410764276981354,2.1437153816223145,-0.19894874095916748,-0.7564610838890076,-2.441519021987915,0.9518420100212097,0.702994704246521,1.1536104679107666,0.7229630947113037,0.8197956085205078,-0.2952384054660797,0.47181862592697144,-0.19477659463882446,-0.7055163383483887,4.22602653503418,2.161975860595703,0.8079806566238403,-1.477517008781433,2.766453266143799,-1.2773945331573486,-1.7914882898330688,-2.6458210945129395,-2.7585604190826416,2.502096176147461,0.8948561549186707,-7.146430969238281,0.3461664915084839,-2.086230754852295,-3.890120267868042,-0.4562018811702728,-1.764194130897522,-0.927486002445221,-0.04068252444267273,-2.255523920059204,-0.3991222679615021,-0.024008657783269882,-1.5279393196105957,-0.23176980018615723,3.76558780670166,0.4103085696697235,2.4785585403442383,2.421614170074463,-1.6544852256774902,0.005023385863751173,-2.1073076725006104,0.00527822133153677,3.9045515060424805,2.2598681449890137,-4.351948261260986,1.0067132711410522,-0.6145306825637817,-2.0747811794281006,-0.4819762408733368,-1.3769276142120361,-0.5353280305862427,-1.4824919700622559,1.0337135791778564,1.9526329040527344,-1.3134762048721313,-0.19626976549625397,3.1935887336730957,0.3858678638935089,1.215488314628601,1.115775227546692,-2.106332540512085,1.1088366508483887,1.8597102165222168,-0.10226821899414062,2.0496456623077393,-0.20132623612880707,4.330199241638184,2.2349720001220703,-0.9844709038734436,1.6333376169204712,1.5066457986831665,0.8075225949287415,-1.1681902408599854,2.5309624671936035,0.05767211318016052,-2.854626178741455,-1.4810912609100342,0.21542948484420776,2.4898884296417236,0.523239254951477,-0.17970900237560272,-1.9195356369018555,-0.5585838556289673,2.2811248302459717,-1.5570205450057983,-1.4598281383514404,0.1808064579963684,-1.4381109476089478,0.4538014233112335,1.816724181175232,-0.8840306401252747,3.873727321624756,2.627493143081665,2.159949779510498,-0.9462001323699951,-0.29527971148490906,2.6673777103424072,-1.8388383388519287,0.5395442247390747,1.0188312530517578,0.3256150484085083,-3.774047613143921,0.12276092171669006,-1.0037122964859009,5.116307258605957,5.4351725578308105,5.185800075531006,-2.2385714054107666,2.790743350982666,-0.27983078360557556,-2.369379758834839,-0.7716789841651917,-1.3498260974884033,2.7626943588256836,0.6515295505523682,-1.1127057075500488,-3.2157416343688965,-0.8159961700439453,1.695448875427246,-3.6394684314727783,5.52352237701416,-3.7052958011627197,-2.1908750534057617,-2.9543778896331787,-2.592794895172119,-2.5216543674468994,3.3615164756774902,2.951711654663086,-2.299525499343872,-2.825141429901123,-0.6879175305366516,0.11569952964782715,1.0484328269958496,0.3451995253562927,-1.1346367597579956,0.5907238721847534,0.428451806306839,-0.18090656399726868,-0.29712504148483276,1.1270298957824707,0.5964162945747375,0.4481275975704193,0.7255077958106995,0.30022597312927246,1.6654856204986572,0.9506456255912781,1.2521369457244873,-0.36466237902641296,0.8849152326583862,0.5408521294593811,0.6881411075592041,-1.2439939975738525,-0.46458539366722107,-0.3241444528102875,-0.5159648060798645,-0.5945788025856018,1.238034963607788,1.1133370399475098,2.9100561141967773,-1.2724080085754395,2.1256349086761475,0.7224164605140686,-0.7611016035079956,-2.5169594287872314,1.5888930559158325,0.3525647222995758,2.4256527423858643,2.0717599391937256,-0.8784288763999939,-1.6426782608032227,1.6302298307418823,-0.22882921993732452,-1.126225471496582,0.41399815678596497,-0.44983774423599243,-0.3980141282081604,0.4706612229347229,0.9745179414749146,-0.6176993250846863,-0.4086499512195587,-0.504559338092804,0.7851596474647522,-0.5275540351867676,-0.5903201103210449,-0.09763120114803314,-0.16861560940742493,-0.24942535161972046,0.35902485251426697,0.884138822555542,0.332173228263855,-2.1861367225646973,1.1819759607315063,1.330439805984497,1.7830610275268555,-2.2221667766571045,-1.5401798486709595,-1.7226461172103882,-0.8367471098899841,0.44347453117370605,0.35358646512031555,2.058558225631714,-0.5241185426712036,-1.219905972480774,-1.5217167139053345,3.2706151008605957,-1.4642457962036133,0.5269911885261536,2.2011420726776123,-1.5697046518325806,1.2076658010482788,-2.676146984100342,-3.1840786933898926,0.1638106107711792,-1.8125454187393188,-2.203697443008423,-0.9831449389457703,1.9708170890808105,-1.0026016235351562,1.9964591264724731,-1.6550416946411133,0.4672081768512726,-0.14015381038188934,-2.484875202178955,-1.4087332487106323,0.6311866044998169,-3.3796324729919434,1.5949846506118774,1.0710536241531372,2.8133561611175537,1.9575152397155762,-0.010812985710799694,0.39267274737358093,0.9149584174156189,0.8254687190055847,0.5414597392082214,0.7290721535682678,-0.8729701638221741,0.37899714708328247,-1.5086663961410522,0.48371151089668274,-1.020244836807251,0.1822262406349182,0.5007681846618652,0.9039287567138672,-0.7887512445449829,-0.3960069417953491,-2.4362947940826416,-0.9718153476715088,-0.9818731546401978,-0.5229619741439819,-2.781585216522217,3.419909954071045,0.9823099970817566,0.2928932309150696,-1.6478550434112549,3.301102876663208,-0.41483938694000244,-0.7847627997398376,1.3047080039978027,0.6207036375999451,-0.048764076083898544,-3.56528639793396,-1.3063080310821533,1.3350309133529663,-4.320430755615234,-3.293511390686035,-3.862558126449585,2.0173180103302,0.28017160296440125,3.3337562084198,2.2750508785247803,-0.2045864462852478,3.2063512802124023,5.5945143699646,-1.8709187507629395,-0.12786000967025757,-0.8001350164413452,0.8119445443153381,1.3109221458435059,1.5627142190933228,-1.0522119998931885,0.4818072021007538,-4.474013328552246,0.05304086208343506,0.23070041835308075,-6.279483795166016,4.3411431312561035,4.614372730255127,0.4672960638999939,-0.8013493418693542,-0.6546335220336914,0.6568332314491272,1.5601388216018677,1.1831951141357422,-0.49735578894615173,-2.26631236076355,-1.6911327838897705,-1.3716539144515991,2.3386623859405518,-3.925109386444092,1.324206829071045,0.21887944638729095,0.3370601534843445,-4.885691165924072,0.3249909281730652,0.4223891794681549,-1.6285762786865234,1.4923992156982422,-2.3154687881469727,0.17414453625679016,-1.6904476881027222,3.9302690029144287,-1.8601911067962646,1.604734182357788,-1.9953354597091675,2.7654404640197754,2.01269268989563,0.3030400574207306,0.4008539319038391,5.061577796936035,-3.40170955657959,-5.880061626434326,-0.6395756602287292,3.4976613521575928,0.5776116847991943,-1.2293602228164673,1.0795884132385254,1.0075875520706177,-0.9795176982879639,2.2501449584960938,-5.488894462585449,-1.4910166263580322,0.3381700813770294,1.9831962585449219,1.7199033498764038,-1.3423007726669312,0.8744585514068604,-0.589621365070343,-0.3085750937461853,-0.773337185382843,0.023768162354826927,3.745182514190674,1.5375256538391113,0.4359891414642334,3.3604037761688232,-0.5643669366836548,1.861756682395935,-0.5863247513771057,-4.821312427520752,-3.8420214653015137]},"inputBias":{"rows":20,"columns":1,"weights":[-1.2988271713256836,-1.8826593160629272,-0.7047842741012573,-1.218813180923462,-1.0980387926101685,-1.5604802370071411,-1.4711239337921143,1.0874143838882446,-0.35062718391418457,-2.5172293186187744,0.07087733596563339,-0.5806836485862732,-0.8209482431411743,0.1858963966369629,0.3227492868900299,0.5973965525627136,-1.5724170207977295,-1.0039634704589844,-1.9563041925430298,-1.3482282161712646]},"forgetMatrix":{"rows":20,"columns":35,"weights":[0.09247032552957535,0.561089277267456,-0.13203375041484833,0.34794649481773376,0.04059978947043419,0.14796145260334015,-0.44910383224487305,-1.260987639427185,-0.3361903429031372,-1.307631254196167,-1.4602904319763184,1.5263718366622925,1.8467919826507568,-1.817762017250061,1.7095873355865479,1.6593791246414185,0.7168291807174683,0.38345828652381897,-0.15989452600479126,2.883478879928589,1.1002607345581055,-1.4256606101989746,0.038094889372587204,-0.2678197920322418,-0.39186891913414,0.11521437019109726,1.3436777591705322,-0.2948736846446991,-1.1880145072937012,-1.2702927589416504,-1.2462877035140991,0.5120577812194824,1.7765086889266968,1.4510533809661865,-0.5296458005905151,-1.2101868391036987,-0.06949056684970856,-1.7425599098205566,0.7579358220100403,0.6131783127784729,-0.5671700835227966,-0.8662123680114746,-1.273708462715149,-0.8081381320953369,-1.7608919143676758,0.33439144492149353,0.14109665155410767,0.9301642179489136,-0.6578538417816162,0.59940505027771,0.13062646985054016,1.5022395849227905,-1.7119208574295044,-2.288217067718506,1.969154953956604,2.0986735820770264,-0.5978491306304932,1.9256101846694946,0.7935340404510498,-1.6401817798614502,-0.07468807697296143,-0.18787311017513275,0.7786518931388855,-1.3078662157058716,-0.592240035533905,-0.5624524354934692,0.16558627784252167,-0.1925048977136612,-1.1859445571899414,0.7139376997947693,-0.3125167489051819,1.197262167930603,1.150036096572876,-0.4395104646682739,0.33024322986602783,0.446276992559433,0.8918828964233398,-0.000058935915149049833,-0.03755296766757965,2.1477832794189453,-0.3409157693386078,-0.016435306519269943,-0.7143412232398987,1.8316105604171753,-0.2092123180627823,-0.18380971252918243,-0.0304196048527956,1.075171947479248,0.4800557494163513,-0.9264467358589172,-0.3314048945903778,1.0498470067977905,-0.18279115855693817,-1.1879605054855347,0.34254148602485657,-0.11549212783575058,-0.194343701004982,-0.29830172657966614,-1.3107703924179077,1.8172959089279175,1.2096725702285767,1.8327893018722534,-2.069984197616577,-0.9371101260185242,-0.32711508870124817,-0.39362406730651855,1.0995858907699585,0.8652536273002625,-0.09907439351081848,0.4840906858444214,1.5914620161056519,-0.13868902623653412,-1.1187269687652588,-0.0229283906519413,0.6136988997459412,-1.0938516855239868,0.30809178948402405,0.48551270365715027,0.5957497954368591,1.4429413080215454,1.8640626668930054,-0.7778933644294739,-0.4036116898059845,1.1149760484695435,0.3600125014781952,0.05127677321434021,0.22825950384140015,-0.5151240229606628,-2.9346835613250732,-0.7577491998672485,0.4514337182044983,1.1748541593551636,-0.36155781149864197,2.3516571521759033,0.7442433834075928,0.6838698387145996,2.356802225112915,-2.2400801181793213,1.449985146522522,-1.1207033395767212,0.9470028877258301,0.768010139465332,-0.9539744853973389,-2.4078660011291504,0.36532458662986755,-2.6167781352996826,-1.3794223070144653,-0.12612634897232056,-1.4597256183624268,1.2967138290405273,3.4810991287231445,-1.347328543663025,-1.6770095825195312,0.14147043228149414,-0.7401694059371948,-2.6890625953674316,1.5694206953048706,-1.3297091722488403,-1.4293239116668701,-0.322596937417984,-0.5271760821342468,-0.9295496940612793,2.4279632568359375,1.280470848083496,0.3130522072315216,2.0117626190185547,0.14489372074604034,0.017032671719789505,-1.9181115627288818,-0.7262012958526611,-0.9666872620582581,0.7488254904747009,0.4528854787349701,-1.5750025510787964,0.4364021122455597,0.009131926111876965,1.4061882495880127,-0.3851025700569153,1.291502594947815,0.4085181951522827,0.2102191001176834,-0.5081357359886169,-2.119826316833496,2.091503620147705,1.0011966228485107,-2.1717593669891357,-1.0235434770584106,-0.49068570137023926,-0.5546759366989136,0.9539023041725159,1.7606576681137085,0.00142526940908283,0.773762583732605,-0.8374039530754089,0.11717692017555237,-0.3043456971645355,-1.4757753610610962,-0.0015960929449647665,-0.43481898307800293,-2.424875497817993,-2.1605019569396973,0.9571289420127869,-0.3362255096435547,0.6703268885612488,-1.3383299112319946,1.236858606338501,0.8128281831741333,-3.428623914718628,1.8834240436553955,-0.4109185039997101,0.4181654751300812,2.1730387210845947,0.4578889310359955,0.9193954467773438,-0.4039187729358673,-1.2088818550109863,0.5376552939414978,-1.5507621765136719,1.518194317817688,-0.5575990080833435,0.3841875493526459,-1.5797168016433716,-0.057994697242975235,-0.8921666145324707,-0.021130461245775223,1.2930434942245483,0.8164435029029846,1.1138114929199219,0.3585553765296936,0.18611708283424377,-0.04854265972971916,-0.5265670418739319,-0.531886637210846,3.167067527770996,0.7986130118370056,-1.2906131744384766,-0.0653156265616417,0.31845468282699585,-0.3473863899707794,0.23434199392795563,-1.0062637329101562,-1.9371142387390137,-0.7690218091011047,2.104473352432251,-1.6634169816970825,-0.8370410203933716,-1.8449692726135254,-0.8557443618774414,0.5846459269523621,-0.8208802938461304,1.5134305953979492,-0.9315107464790344,-0.7142148017883301,-1.3516018390655518,1.1574523448944092,1.103822112083435,0.8795220851898193,0.009237959049642086,0.8903571963310242,0.8395536541938782,-0.548072874546051,0.4002862572669983,1.613912582397461,-1.1324695348739624,-0.5855287909507751,-0.153800368309021,-1.283796787261963,3.8503148555755615,0.4626609981060028,0.9134995937347412,0.7509773969650269,1.470780849456787,0.041855283081531525,-0.513050377368927,-1.1324670314788818,-1.8072482347488403,-1.5656594038009644,1.161677360534668,-1.9912463426589966,3.0253522396087646,0.5473521947860718,-1.570820927619934,0.0013642704579979181,-1.12234365940094,0.5088807940483093,0.6306295394897461,0.8126375675201416,1.692185640335083,-0.8895462155342102,1.2301526069641113,-0.8754743337631226,1.5670958757400513,-0.03706827387213707,1.0058321952819824,0.8081313371658325,-1.4212400913238525,-0.3154369294643402,0.7809792757034302,0.11470496654510498,0.5242194533348083,0.35788649320602417,-0.39899104833602905,1.1195616722106934,-0.3946645259857178,0.1578710377216339,0.27108198404312134,-0.3929609954357147,0.13239142298698425,-2.407472848892212,1.0352041721343994,-1.538458228111267,0.9048680067062378,1.8554878234863281,-1.4428980350494385,0.10172032564878464,0.957145094871521,1.0408929586410522,-1.3236706256866455,1.9911702871322632,-0.022419368848204613,-0.4168563187122345,-0.4618704617023468,-1.8891592025756836,1.1222783327102661,-1.7742806673049927,-0.07091094553470612,-0.4565872251987457,-0.6098628044128418,-1.6179057359695435,-0.3534286916255951,1.144734501838684,-0.6131145358085632,-0.44644129276275635,0.5246542692184448,-0.5112562775611877,-0.37470611929893494,-0.974229097366333,-0.7428276538848877,-0.04356629028916359,0.42626625299453735,-1.9164258241653442,0.9924788475036621,0.7578198909759521,-1.512982726097107,-0.9557434916496277,-1.7683125734329224,-1.7207221984863281,-1.9619413614273071,0.5871086120605469,1.1691893339157104,1.7174904346466064,-0.3642837703227997,-0.9655807018280029,-0.10710503906011581,1.1950563192367554,-0.10725144296884537,-0.06550668179988861,1.1134756803512573,-2.075270175933838,-1.0114368200302124,1.767189860343933,-0.31773409247398376,-0.3045138418674469,-0.7370256781578064,-1.2764719724655151,-1.9944685697555542,1.0998046398162842,-0.5814215540885925,-0.6404176354408264,1.0970666408538818,0.911231279373169,-0.4970870912075043,0.739070475101471,0.8597930073738098,1.4675663709640503,-0.3507165014743805,-1.064379334449768,-0.8202243447303772,-2.110969305038452,-1.8340113162994385,-1.6956806182861328,-0.03904423117637634,0.6405322551727295,-1.3636504411697388,0.7763281464576721,0.9891233444213867,0.4609701335430145,1.1820805072784424,-0.20510469377040863,0.1441785842180252,-0.7536313533782959,0.578581690788269,0.9589352607727051,0.14110712707042694,1.623173713684082,0.1382562518119812,0.4111960828304291,-1.8896782398223877,1.3670475482940674,-2.241185426712036,-2.4416019916534424,1.4485808610916138,0.397361159324646,0.15410536527633667,0.4733012914657593,-1.0821352005004883,1.2926687002182007,0.4564949870109558,0.37293851375579834,1.4885401725769043,-0.7642302513122559,-0.23150967061519623,0.22621452808380127,-1.4035241603851318,1.7084459066390991,-0.3735853433609009,0.3396628201007843,-1.1138702630996704,-2.173973321914673,0.4790686070919037,0.052778974175453186,-1.1998190879821777,-0.5226452946662903,-1.54158353805542,-0.41971632838249207,1.3678070306777954,0.8661317825317383,-0.6142680644989014,-2.089139699935913,-2.263207197189331,-0.13089993596076965,1.8834500312805176,0.6454885005950928,-0.30922427773475647,-0.5744025707244873,-3.136934995651245,-0.765394926071167,-0.8555847406387329,-2.5896809101104736,1.2302799224853516,0.839043378829956,-0.7251941561698914,0.7285494804382324,-1.0346041917800903,1.0964176654815674,-0.3620143532752991,0.5854246020317078,0.7329663634300232,1.3286994695663452,-2.7075326442718506,0.37168845534324646,2.172361135482788,-0.7325456738471985,1.0931330919265747,-1.7887622117996216,1.3814797401428223,0.13027141988277435,0.29730382561683655,-0.9358720779418945,1.7299987077713013,0.07599122822284698,0.19130505621433258,-0.777084469795227,0.860602617263794,0.30408361554145813,0.517618715763092,0.6210395693778992,1.0103362798690796,0.6142343282699585,0.5897209644317627,0.2538548707962036,1.4690707921981812,1.7963242530822754,-0.15740102529525757,0.38750913739204407,1.5728061199188232,0.6097368001937866,-1.6240291595458984,-1.0704753398895264,0.12271390855312347,-0.6590908765792847,-0.5541021823883057,0.27885666489601135,-0.009782693348824978,1.9944831132888794,0.7711469531059265,1.1290621757507324,-1.014127492904663,0.6082668304443359,-2.0910913944244385,0.5980560779571533,0.1889152079820633,2.0371382236480713,0.4828430712223053,1.074813961982727,-1.1903847455978394,-0.8974202871322632,1.4105521440505981,1.666307806968689,-1.0495003461837769,-0.4682837426662445,-1.055301547050476,-1.0424412488937378,1.2347337007522583,0.4307512938976288,0.6105202436447144,-0.033048830926418304,0.20780305564403534,2.633518695831299,0.5232036113739014,2.677682876586914,2.6394405364990234,-4.639480113983154,1.9966343641281128,2.293184280395508,-0.9398221969604492,-1.154308557510376,0.8749399185180664,-0.31863588094711304,2.719214916229248,-0.9744751453399658,-1.7174168825149536,-0.9166817665100098,-0.5232153534889221,0.14750568568706512,-0.03176767751574516,0.7439999580383301,0.45802998542785645,0.314463347196579,-0.06447445601224899,-2.2292211055755615,-1.1985474824905396,-1.1707936525344849,-0.9862468838691711,-1.9647611379623413,1.485750436782837,-0.6748058795928955,0.8287252187728882,0.23250672221183777,-0.45808878540992737,0.17345915734767914,0.5579662919044495,-1.7939263582229614,-0.6144841909408569,0.9233260154724121,0.7280972599983215,-1.244041919708252,0.19970457255840302,1.996618628501892,2.033363103866577,0.3745861053466797,1.7428092956542969,0.05892539769411087,0.9310752153396606,0.10428781807422638,-2.8413610458374023,-2.4232795238494873,-3.625807285308838,0.9885988235473633,1.322682499885559,1.1288870573043823,1.0706627368927002,0.26533302664756775,1.7986772060394287,1.5625128746032715,-0.903622031211853,0.06266921758651733,0.0328235849738121,0.5579851269721985,1.974949598312378,-0.941937267780304,-0.23682305216789246,0.23109222948551178,3.2536187171936035,-0.044205352663993835,0.8908963799476624,1.551453948020935,-1.3082345724105835,1.7331178188323975,-0.49535617232322693,0.9715593457221985,2.2806060314178467,-1.15800142288208,-0.7549907565116882,0.2767011225223541,-0.30185601115226746,-0.6397749781608582,0.5430662631988525,-2.8857970237731934,2.2264657020568848,-0.07658617943525314,0.8822049498558044,-1.352372646331787,-0.7698478698730469,0.22960637509822845,1.3653841018676758,-1.0516653060913086,-0.8179197311401367,-1.554891586303711,0.3111891746520996,-1.0964243412017822,-2.3197178840637207,0.9681496620178223,-1.7673008441925049,0.15011195838451385,0.699474573135376,-0.7532327175140381,-0.5288618206977844,-0.2577885091304779,-0.016737038269639015,-2.1577870845794678,1.4753310680389404,-1.6094454526901245,-0.3101550042629242,0.19074776768684387,-0.7532510161399841,0.8749468326568604,0.4423586428165436,-0.984052836894989,1.0493589639663696,3.209334135055542,-0.02783874236047268,-0.9218841195106506,0.2122228592634201,-0.3406640291213989,-1.7903831005096436,0.8113321661949158,-1.1282154321670532,-1.9476749897003174,1.799589991569519,0.3312399983406067,1.1317880153656006,-0.17956171929836273,0.9156724214553833,-0.2670910954475403,-2.8758316040039062,-1.6568878889083862,-0.3906152546405792,1.0950077772140503,-0.2901596128940582,1.659301519393921,-0.6717624664306641,-0.5798101425170898,0.09294743835926056,-0.5550110340118408,-0.7783783078193665,1.3467686176300049,-1.4693667888641357,-0.6669074892997742,0.19002550840377808,0.5565677285194397,-1.091269850730896,-1.630167841911316,0.9645658135414124,0.6654077172279358,0.22922512888908386,-0.013649682514369488,-1.1619877815246582,0.2679194509983063,-0.3368646800518036,-0.0768951028585434,-0.1176498532295227,-1.3987739086151123,-0.08307848125696182,-0.7291256189346313,0.3120933175086975,0.2465314418077469,0.7401472926139832,0.3998802602291107,-0.8225840926170349,1.1000431776046753,0.8374958634376526,-0.40200021862983704,2.2966954708099365,-1.6657240390777588,-2.3027961254119873,1.5837016105651855,1.6579830646514893,-0.0994180217385292,-0.8157923817634583,3.183551788330078,1.2394603490829468,-2.0218443870544434,1.9272817373275757,1.9046698808670044,0.2065475732088089,2.293257236480713,-1.8213706016540527,-0.005026078317314386,-1.6877261400222778,-0.2622816860675812,-1.809701681137085,-1.629010558128357,-0.5576748251914978,1.725934386253357,3.537111759185791,-1.7277482748031616,-0.6654516458511353,0.39931243658065796,1.5007437467575073]},"forgetHidden":{"rows":20,"columns":20,"weights":[-3.413416862487793,-2.19698429107666,1.7574893236160278,-0.4644400179386139,-2.186326742172241,-1.5593949556350708,-1.3026450872421265,0.17585696280002594,0.321480929851532,-1.2260866165161133,1.1722407341003418,2.265645742416382,-0.7822309136390686,-2.5151636600494385,-0.3532364070415497,-3.3341777324676514,1.9045255184173584,2.7530126571655273,-1.1151560544967651,1.24922513961792,1.22141432762146,-0.8309791684150696,-1.25679349899292,-2.0999794006347656,-0.6619167327880859,0.4457590878009796,1.6666985750198364,3.120398998260498,-0.3598509132862091,0.6595478057861328,-2.1743643283843994,0.3556174039840698,2.520440101623535,2.0109972953796387,0.5420935153961182,1.571458101272583,-0.9322234392166138,2.311737537384033,-2.4080986976623535,0.0314067117869854,1.5501108169555664,-1.280566930770874,-3.6604230403900146,-1.5090079307556152,0.7193366289138794,-0.028716832399368286,0.669302761554718,-1.2987912893295288,-1.0683847665786743,-1.0495151281356812,0.2641027569770813,2.3292489051818848,1.7692675590515137,-1.3818159103393555,-1.1580270528793335,0.9989733099937439,-4.3675150871276855,-3.687659502029419,2.4623236656188965,-1.8487480878829956,-0.2348383367061615,-1.4870474338531494,0.050170350819826126,-0.2995121479034424,0.3294849991798401,-1.316063404083252,-0.08996386080980301,-0.20544466376304626,0.5289356708526611,-1.7787288427352905,-0.4167688190937042,1.043318510055542,0.7117189764976501,-2.0715458393096924,-1.2044588327407837,-0.596794605255127,-1.0455092191696167,0.9353524446487427,0.32027748227119446,-0.8772825002670288,-2.0890238285064697,0.7817197442054749,-3.1180686950683594,2.2252867221832275,-1.583309531211853,-1.3897286653518677,-3.6042282581329346,1.3720390796661377,-2.0636417865753174,1.1936455965042114,1.1690634489059448,-3.111639976501465,-1.6187652349472046,-1.466223955154419,-1.4838852882385254,-2.0600287914276123,-1.1648387908935547,1.653027892112732,-0.2181571125984192,2.3363213539123535,3.5437779426574707,-1.3380992412567139,-0.8958943486213684,-1.4972010850906372,0.07856784760951996,-0.9257214665412903,1.5747157335281372,1.905448079109192,-2.1101298332214355,0.21276021003723145,-2.113938093185425,2.96002197265625,1.8654043674468994,-0.8111227750778198,2.26668643951416,0.6167667508125305,-0.06111930310726166,1.0905401706695557,3.2201497554779053,-2.7231218814849854,0.31501102447509766,-1.7514926195144653,-1.7488521337509155,-1.0527619123458862,0.44650623202323914,0.3735589385032654,0.9226906895637512,-0.24042391777038574,-0.6481741070747375,-0.3631957769393921,-0.879936933517456,0.8271779417991638,0.5325441956520081,-2.069631338119507,-0.24741116166114807,0.15984253585338593,-1.6173593997955322,-0.9895690083503723,0.5044153928756714,-1.5043820142745972,-0.8353766798973083,0.11422479897737503,-1.0377013683319092,0.27388280630111694,-1.0453931093215942,1.1198621988296509,-1.9730396270751953,-1.134065866470337,1.3427644968032837,-0.06454253196716309,1.3556121587753296,0.4612365961074829,0.4101760983467102,0.7444950938224792,0.3773130178451538,1.336024284362793,-1.9737666845321655,-1.1499838829040527,0.6345400810241699,0.29958757758140564,-0.7937361001968384,-1.857029676437378,2.234834671020508,-2.4112496376037598,-1.6426533460617065,-2.875112533569336,-4.935800552368164,0.7227575182914734,-1.0251007080078125,-3.2309353351593018,1.7103909254074097,-0.16088329255580902,-1.9585621356964111,-0.07503239065408707,-1.8614155054092407,-1.5472955703735352,0.6267615556716919,3.3905489444732666,-0.2101108878850937,4.867260932922363,4.033750057220459,-3.319676637649536,2.1589012145996094,-0.43600451946258545,-3.9068217277526855,-1.8018299341201782,0.4188673794269562,1.7549197673797607,-4.203160285949707,-2.4265310764312744,-1.2975866794586182,3.570517063140869,0.9797723293304443,-1.7331840991973877,1.686887264251709,0.9304311871528625,3.154163122177124,2.27606201171875,2.2960989475250244,-2.3234050273895264,-0.02131727896630764,-0.2954321801662445,0.15826457738876343,-0.1183488741517067,0.9248080849647522,-0.23734050989151,-0.21101127564907074,0.19792096316814423,0.7012987732887268,-0.31168296933174133,0.39878132939338684,0.39555150270462036,-0.9891180396080017,0.5424759984016418,0.16533158719539642,-1.3280507326126099,-1.2864534854888916,0.9104998111724854,-1.0975617170333862,0.9104472994804382,-1.733407974243164,-0.9741388559341431,1.1323386430740356,-0.14676499366760254,0.4912620484828949,-1.470221996307373,-2.883908987045288,4.1348161697387695,-0.46099743247032166,0.4169902801513672,-1.6268781423568726,2.2490084171295166,2.18034029006958,0.08980268985033035,-7.532376289367676,-4.9734086990356445,1.6650397777557373,0.6356837749481201,-1.1203978061676025,-0.7710559964179993,-1.2830026149749756,2.4883534908294678,-1.0398070812225342,-1.153647780418396,-3.2604730129241943,-2.3723902702331543,-0.01295804139226675,1.2990906238555908,1.6234303712844849,-0.49008652567863464,0.9948336482048035,-0.3526341915130615,-2.4359195232391357,2.1928348541259766,0.7377876043319702,-0.9332196116447449,2.0138843059539795,1.0359985828399658,-1.4470607042312622,0.6440337300300598,2.997851610183716,2.554931879043579,2.494875192642212,3.8051700592041016,-2.412976026535034,-0.7437017560005188,-4.017499923706055,2.081282138824463,1.3408352136611938,-0.513572096824646,-1.3968576192855835,-1.2556872367858887,-3.2201619148254395,-2.479483127593994,0.8301910758018494,-0.01660042628645897,2.715597152709961,1.1799283027648926,0.14205892384052277,0.24187150597572327,-0.14538957178592682,2.1049861907958984,-1.8294163942337036,1.1952639818191528,-2.4551942348480225,0.7899073362350464,-1.836474895477295,-0.05843707174062729,-0.19566099345684052,-3.127824306488037,2.0901999473571777,4.625351905822754,0.7708406448364258,0.157449871301651,0.4779501259326935,0.5979524254798889,-4.248968124389648,-0.3995349705219269,-2.0122718811035156,-0.7816029191017151,-2.152024745941162,-0.8486618995666504,2.4486124515533447,0.49909278750419617,-2.23749041557312,3.183832883834839,1.7662452459335327,1.4078381061553955,-0.03859821707010269,0.9808075428009033,-0.9086703658103943,-0.6104338765144348,-0.6790665984153748,2.2107317447662354,1.0009907484054565,-4.590086936950684,-1.3367269039154053,1.986303448677063,-2.699958324432373,0.2290281355381012,-0.6605251431465149,1.4594013690948486,-0.8757274150848389,-1.5547754764556885,-2.7566843032836914,3.6188440322875977,1.3424371480941772,-0.09119448810815811,0.5501946806907654,2.1931309700012207,-2.949068546295166,0.5674604177474976,0.38597333431243896,2.37286114692688,1.159720778465271,0.8581626415252686,2.3673224449157715,1.832209587097168,-0.42972224950790405,0.6781163215637207,-0.9368480443954468,0.8095555305480957,-2.835857391357422,-1.76366126537323,0.5754358768463135,1.0887056589126587,2.3931970596313477,0.5340360403060913,0.21911020576953888,-2.682054281234741,0.7407424449920654,2.0551929473876953,0.9301063418388367,0.839279055595398,2.31427001953125,0.5994786024093628,-3.177086353302002,-0.9389950633049011,0.6107738614082336,0.000741700641810894,4.834928512573242,-2.480287551879883,6.235324382781982,0.3669804632663727,-0.3982061743736267,3.9119889736175537,0.5078698992729187,1.988625407218933,3.705670118331909,0.09450379014015198,2.6610641479492188,-2.6739771366119385,0.27854907512664795,3.499998092651367,1.6645148992538452,-1.3338605165481567,-3.8273746967315674,0.7114397287368774,-1.9904870986938477,-3.7099671363830566,-0.7156903743743896,-0.3018685281276703,-0.21126031875610352,0.6199654340744019,2.0955560207366943,-3.1010637283325195,0.8735451102256775,1.504313349723816,-1.9803868532180786,-3.0111498832702637,1.2972421646118164,2.545323133468628,-1.6004873514175415,-2.1579794883728027,-0.14743152260780334,-4.658289432525635,-3.2041664123535156,1.4490959644317627,0.2632955312728882,-4.12632417678833]},"forgetBias":{"rows":20,"columns":1,"weights":[0,0,0,0,0,0,0,0,0,0,0,0,0,0,0,0,0,0,0,0]},"outputMatrix":{"rows":20,"columns":35,"weights":[-0.7009802460670471,-0.19538968801498413,-2.195307493209839,0.22185611724853516,-0.3895464539527893,1.0964083671569824,-0.32906919717788696,-1.5235012769699097,-0.7798625230789185,-0.43427523970603943,-0.5663038492202759,0.4609774947166443,1.6442989110946655,-2.7320945262908936,0.9291343688964844,2.093817949295044,-0.4744105041027069,1.9191291332244873,-1.8007012605667114,0.7597125172615051,0.45767560601234436,-3.134373903274536,0.36807283759117126,-0.5946288108825684,0.6154995560646057,0.1085035651922226,1.914770483970642,-0.5303330421447754,-0.6586056351661682,-1.714043140411377,-1.4517755508422852,-0.5036563277244568,2.37787127494812,1.6822550296783447,0.1529821753501892,-0.7492935061454773,1.442405343055725,1.0162816047668457,1.0164700746536255,-0.9903750419616699,0.9875822067260742,0.08273448050022125,-1.3062740564346313,-0.10061657428741455,0.2742488980293274,-0.18349139392375946,-1.1070226430892944,0.10466121882200241,0.7411029934883118,-1.043350100517273,2.023446559906006,-0.18902061879634857,0.5412273406982422,0.44380468130111694,0.45242151618003845,-1.5384904146194458,-1.0520224571228027,0.7546794414520264,0.5553002953529358,-1.1748944520950317,-2.248863697052002,1.3203067779541016,1.7271900177001953,0.2961743175983429,1.6303765773773193,3.156428337097168,0.744378387928009,0.21005219221115112,1.4780241250991821,-1.177559494972229,0.8057688474655151,0.31085404753685,1.8382986783981323,0.5213539004325867,0.7791857123374939,-1.7740501165390015,-1.2768791913986206,1.1354962587356567,0.6899598240852356,0.5683626532554626,1.577042818069458,-1.298305869102478,-0.12132803350687027,0.13630296289920807,-0.2162569910287857,1.3164197206497192,0.9203053116798401,-0.4491737186908722,0.9816092848777771,-0.14599773287773132,0.922250509262085,1.713370680809021,-5.054948806762695,-0.28100690245628357,-0.29472675919532776,-0.4787975251674652,-1.6284968852996826,-1.2675790786743164,-1.5063637495040894,1.0879448652267456,-0.4232713580131531,-0.4961340129375458,1.4759835004806519,-0.09982527792453766,-0.6422082781791687,-1.490976095199585,0.35333263874053955,0.3612334430217743,1.29292631149292,-0.3288854956626892,0.8077573180198669,0.9081441164016724,-0.15788455307483673,1.7586114406585693,-1.2323517799377441,-2.8245086669921875,0.48865237832069397,0.3838237524032593,-2.1637637615203857,-0.11389780789613724,2.7356390953063965,-0.4601934552192688,-0.1783726066350937,2.4119579792022705,-0.12211176007986069,-1.8031282424926758,1.8762588500976562,-1.282389521598816,0.12798598408699036,-0.41976234316825867,-0.7357120513916016,-0.8014479279518127,-0.2598075866699219,0.4776810109615326,0.7708787322044373,1.0014398097991943,-1.2723829746246338,-0.8870390057563782,1.3405369520187378,0.05180804058909416,-0.7442061901092529,-0.5647739768028259,-1.400900959968567,-0.8505046963691711,-0.10117727518081665,0.6174225807189941,0.44011276960372925,-1.2163712978363037,-1.6523598432540894,-0.9470309019088745,-0.8020155429840088,0.6068302989006042,0.44728997349739075,-0.6792287826538086,0.942801296710968,-0.6897417306900024,-1.158517837524414,0.9851416945457458,-0.8859351277351379,0.6380071640014648,0.021987678483128548,-1.6638113260269165,4.247306823730469,1.4039021730422974,-0.48209133744239807,-0.9148191809654236,1.581116795539856,2.5597496032714844,1.009041428565979,-1.6137816905975342,-0.1618966907262802,0.35044705867767334,-2.3164377212524414,0.5485920906066895,0.8829975724220276,0.1698371171951294,0.504861056804657,-0.6617961525917053,1.0435172319412231,-0.04240519553422928,0.1701420098543167,-0.8568142652511597,-1.277350902557373,0.6972905993461609,-1.5022103786468506,-0.8819363117218018,0.9711253046989441,1.3348777294158936,-1.686326026916504,-0.1281205266714096,2.014723777770996,-0.01921498402953148,-0.5447540879249573,-0.4022122025489807,0.7164686918258667,1.27992844581604,-1.0046679973602295,0.3051486015319824,0.6296905875205994,-1.9545999765396118,-1.0310981273651123,0.717370867729187,0.9116928577423096,-0.8175708651542664,-0.8492439985275269,-0.21534152328968048,-0.2635463774204254,0.7635481953620911,0.01914537325501442,0.0053509012795984745,-1.1024807691574097,2.1335713863372803,1.1774293184280396,2.483975887298584,-1.1917307376861572,0.8568122982978821,1.7055920362472534,-0.766469419002533,0.9095103144645691,-1.324303388595581,-1.9368014335632324,0.6788214445114136,0.49064645171165466,0.509919285774231,-0.5915524959564209,2.4821717739105225,-1.7549184560775757,0.6751829981803894,0.863399088382721,0.6898394823074341,-0.2555466294288635,-0.01374070718884468,0.13845621049404144,2.1238770484924316,-2.0204918384552,-1.5085806846618652,-0.007053453475236893,-0.6810004115104675,0.14663328230381012,1.83861243724823,0.9664263129234314,-0.5949543118476868,1.767443060874939,3.302107095718384,-1.7375283241271973,-0.6063094735145569,0.06385359913110733,-1.808503270149231,1.2015725374221802,0.16253086924552917,0.19496308267116547,-0.12355300039052963,-0.31539618968963623,-0.2507708668708801,0.3120299279689789,-0.32829269766807556,0.09954795241355896,-0.08971219509840012,-1.8486549854278564,-0.8521629571914673,0.041414983570575714,-0.48865166306495667,0.9407723546028137,-1.1044164896011353,-0.5839041471481323,0.3876262903213501,-1.8161591291427612,0.39370962977409363,-0.16663897037506104,0.3025725781917572,0.10076110810041428,1.2381631135940552,-0.2646765410900116,-1.0643987655639648,-1.9183273315429688,-2.360067129135132,-0.5420066714286804,1.1312456130981445,-0.15887317061424255,0.09919096529483795,0.6533785462379456,-0.22639362514019012,-1.2477154731750488,-1.450388789176941,0.29305753111839294,-1.0592783689498901,-1.5299975872039795,0.13089004158973694,-2.179605722427368,0.8270854949951172,2.5267648696899414,-1.1056116819381714,-1.3670631647109985,1.435071349143982,-0.6614645719528198,-3.4294731616973877,0.562373697757721,0.1585693359375,-2.764439105987549,-0.7947787642478943,0.9180826544761658,-3.159560441970825,2.871659278869629,2.104463815689087,0.853574812412262,1.206119179725647,0.5273289084434509,0.8082751631736755,-1.379955768585205,-0.22338926792144775,-1.7270402908325195,1.0814021825790405,-0.706398606300354,-1.8825700283050537,-0.20972926914691925,-0.3907921016216278,0.4389581084251404,-1.6439145803451538,2.240478992462158,-1.1468002796173096,0.5901667475700378,-0.601464033126831,-1.837333083152771,-0.8994909524917603,-2.6935060024261475,0.11171767860651016,0.19337543845176697,1.8709235191345215,-2.809499502182007,1.2553163766860962,2.3406615257263184,-0.9769892692565918,0.12754519283771515,0.4159185588359833,2.285460948944092,0.5675207376480103,-3.9597883224487305,0.4076562225818634,0.4030880630016327,-0.8299010992050171,-1.2037070989608765,1.6792092323303223,-0.14110568165779114,0.8768622279167175,-3.174295663833618,-0.266449511051178,-0.5960088968276978,1.0107221603393555,2.617037534713745,-0.5304394960403442,1.8094875812530518,1.5620617866516113,-0.2567034065723419,-0.6739463210105896,3.551793098449707,-3.146625518798828,-1.169594168663025,0.9096195101737976,1.5244581699371338,1.512159824371338,1.5013407468795776,0.16586895287036896,0.17374804615974426,0.024418577551841736,-0.5249693393707275,0.2680547833442688,3.1536812782287598,0.6612564921379089,0.34862688183784485,-0.18306215107440948,0.862617552280426,0.6535494923591614,-4.111038684844971,-2.399902105331421,1.2635257244110107,-1.7088675498962402,-1.0912854671478271,-0.765324592590332,-1.9218450784683228,1.7389057874679565,0.9084119200706482,2.066957950592041,0.10607124119997025,-0.9630447030067444,-3.4836180210113525,-0.4940900206565857,0.5389775633811951,0.25659844279289246,1.0763267278671265,-0.3912670612335205,0.9729647636413574,0.2378111630678177,-0.08990650624036789,0.3283114433288574,-1.8272764682769775,-1.400073766708374,0.6578207015991211,1.4072892665863037,-0.05889293551445007,1.2955763339996338,2.7261698246002197,-0.9143214225769043,-0.039384108036756516,0.8077583312988281,0.9961792230606079,0.3137180209159851,1.2155687808990479,-1.5601731538772583,-0.9079803824424744,-1.0624881982803345,-1.5734055042266846,-1.2498928308486938,-0.8990818858146667,0.6841312050819397,0.9835933446884155,0.7917781472206116,-0.10638242959976196,3.022841215133667,1.1284117698669434,-0.6543310880661011,0.8384945392608643,0.11601107567548752,-0.1426345258951187,-0.6547801494598389,-0.3896089196205139,-0.6183469891548157,-0.016230737790465355,0.9093613624572754,-1.2036131620407104,-0.5913412570953369,0.7859542965888977,-0.29807206988334656,-0.28854507207870483,0.21450068056583405,-1.4353176355361938,-2.2022221088409424,0.19457344710826874,-0.5379747748374939,-1.980621099472046,0.7094279527664185,1.2614996433258057,-0.8323941230773926,0.7836318016052246,0.24224726855754852,0.7962517142295837,0.7239227294921875,-0.867897093296051,-0.4020825922489166,-0.8680759072303772,-0.9776868224143982,0.06465929746627808,1.0283830165863037,0.7096821069717407,-0.5107929706573486,0.00011488641757750884,-0.532761812210083,1.7259615659713745,-0.505596935749054,2.3781936168670654,-0.9363952279090881,0.7258868217468262,0.2648378014564514,-3.0481646060943604,-0.059999626129865646,-2.403022527694702,-0.6024468541145325,-0.29219120740890503,1.0950853824615479,-1.0988569259643555,-1.0260571241378784,4.004682540893555,-2.6118481159210205,-0.2778504490852356,-0.2137509137392044,1.0488728284835815,1.2089335918426514,-2.0482051372528076,-0.2823767066001892,0.02880161441862583,-1.5141286849975586,-0.1636713743209839,2.7107696533203125,-0.7119014859199524,-0.6620674133300781,-1.5109034776687622,-1.0738747119903564,0.00898673664778471,-0.37988439202308655,2.9070630073547363,1.267318844795227,-0.024205414578318596,-2.7722465991973877,1.369416356086731,-1.2867423295974731,0.4688687026500702,0.37439316511154175,-0.561332643032074,0.4299550950527191,-1.2404735088348389,1.0102375745773315,-0.16286073625087738,0.12992599606513977,0.009626377373933792,0.6934940218925476,3.0255539417266846,-2.7853024005889893,0.6136665344238281,0.4741276204586029,-0.1987125277519226,-0.6063662171363831,-0.6025735139846802,0.4270285367965698,-0.7314318418502808,-0.9984931945800781,-0.2655816972255707,0.5887891054153442,-0.5577071905136108,0.5718791484832764,-0.15596678853034973,1.002993106842041,-0.5054854154586792,0.8370577692985535,-0.33792227506637573,-2.21830677986145,0.02044370025396347,1.9336583614349365,-0.20026756823062897,0.24801941215991974,-1.6568515300750732,1.9267723560333252,-0.43799054622650146,-0.7594782710075378,0.6032890677452087,-2.4123477935791016,1.1265588998794556,1.5602784156799316,-0.7353521585464478,0.12255870550870895,-0.46235865354537964,-0.07587121427059174,-4.400148868560791,1.3588882684707642,0.5473793148994446,-0.7918910384178162,-0.07076384127140045,-0.670691967010498,-1.8982102870941162,0.37238746881484985,-0.37509244680404663,1.9995325803756714,0.7584357857704163,0.025158362463116646,-0.18331186473369598,-1.7826300859451294,-0.046793464571237564,0.2884005904197693,0.16235171258449554,-1.7515606880187988,-2.741891860961914,0.12313834577798843,0.5987783074378967,-0.2954879105091095,0.5546566247940063,-0.027842286974191666,-0.11544368416070938,-1.0651001930236816,1.0462285280227661,0.1287377029657364,-0.013291461393237114,-1.85349440574646,1.1272189617156982,0.9699534773826599,0.24865423142910004,-0.01936689205467701,0.015032870694994926,-0.7043024897575378,0.3665890395641327,-0.6184741854667664,-0.3891151547431946,0.889745831489563,2.5106070041656494,-2.3489034175872803,-0.4057115316390991,1.2789098024368286,-0.3030353784561157,0.829219400882721,-1.5935876369476318,-1.1063055992126465,-3.7424814701080322,-0.3325091004371643,-3.0570430755615234,0.5208207964897156,2.69032621383667,-1.0117663145065308,0.1398712396621704,0.5264036655426025,-1.7118642330169678,0.8986473083496094,-0.7874633073806763,0.8203155994415283,-0.08072640746831894,0.0666990652680397,1.09324312210083,-2.316709518432617,0.5133141279220581,-0.15236884355545044,0.46768495440483093,-0.3024715185165405,0.8195124864578247,1.5767496824264526,-2.372229814529419,0.1911073476076126,1.2504606246948242,0.08329016715288162,0.2050367295742035,0.37671536207199097,-0.9125244617462158,2.1142005920410156,-0.02101486176252365,1.986594319343567,1.2406375408172607,1.2870903015136719,-0.012119165621697903,-0.735576331615448,0.2947544455528259,-2.6663432121276855,0.6976052522659302,-0.2686760425567627,-0.7512600421905518,1.1131587028503418,1.2309346199035645,-1.3563469648361206,0.7135463953018188,-1.249873399734497,1.6966091394424438,0.49905338883399963,-0.347287118434906,1.5449336767196655,-1.6085745096206665,0.05391734838485718,0.08128482848405838,-0.48732683062553406,-0.03767824545502663,0.5234838128089905,0.8424555659294128,-2.277574062347412,-0.4439990818500519,-0.1823611706495285,-1.668794870376587,0.6998689770698547,0.5314124226570129,-2.2420639991760254,0.9197273254394531,-1.3334989547729492,0.7207461595535278,0.10203361511230469,0.21183262765407562,-0.004981067031621933,-0.47351208329200745,-0.583594024181366,0.5102052092552185,1.934938907623291,-1.9866950511932373,-0.46891045570373535,-0.28220000863075256,-0.3658941090106964,-0.5291464924812317,0.20176373422145844,-0.8351193070411682,-0.005519476719200611,0.5829330682754517,1.1726839542388916,-0.3411290943622589,-0.5750643014907837,1.64403235912323,0.4255681037902832,0.13070419430732727,-0.7454529404640198,1.2528843879699707,1.3086092472076416,-1.3329814672470093,-0.8770008087158203,0.7525557279586792,-0.9706854820251465,-0.45348474383354187,-0.2789337635040283,-1.0019935369491577,0.2790803015232086,-0.8084073662757874,0.40898600220680237,0.4852656424045563,1.2161407470703125,0.2240363359451294,-0.1655496060848236,0.02292267233133316,-0.4638971984386444,1.5209686756134033,-1.3135393857955933,0.14104071259498596,-0.8617841005325317]},"outputHidden":{"rows":20,"columns":20,"weights":[-3.4781644344329834,-0.06299971044063568,0.5055072903633118,-0.45589742064476013,-1.1359834671020508,-0.7434760928153992,-1.9715631008148193,-1.9442912340164185,-1.1761592626571655,-1.0847035646438599,0.3179935812950134,1.396559476852417,-0.7915635704994202,0.04084654152393341,-1.709088683128357,-0.2821909189224243,1.3042628765106201,0.7305202484130859,0.6412814855575562,0.5109348297119141,-0.42669039964675903,-3.1512298583984375,0.8810751438140869,-1.3683111667633057,-1.0369553565979004,-2.255293607711792,0.2474576234817505,1.2006151676177979,-1.0585726499557495,0.8271726369857788,0.8775678277015686,2.6698102951049805,-1.8241597414016724,2.07340407371521,-2.917294502258301,-2.20866060256958,3.5067858695983887,0.2040574550628662,0.8936288356781006,6.159383296966553,2.2733705043792725,0.04042256250977516,-0.9858136177062988,1.3925998210906982,-0.26976248621940613,-3.044220447540283,-2.629570722579956,-0.5353318452835083,-1.0747562646865845,-2.5408194065093994,3.2872602939605713,2.152916669845581,-0.5494954586029053,-1.8891464471817017,-1.3040039539337158,-1.6710238456726074,2.8256261348724365,0.5845631957054138,3.3692946434020996,-0.8660862445831299,1.0293607711791992,-0.8953655958175659,-0.0498846210539341,-1.3475292921066284,0.8371186256408691,-1.7626173496246338,1.5297646522521973,-1.4318711757659912,1.6595333814620972,-0.3223804533481598,0.18315021693706512,-0.3007620871067047,6.874523639678955,0.3472888171672821,0.8676809072494507,0.7066295146942139,-2.550905704498291,0.020971613004803658,-0.9364102482795715,-0.9861908555030823,1.7064570188522339,-0.1946583092212677,-0.10320507735013962,-1.2836858034133911,-1.1666796207427979,-0.5059255957603455,-1.0309737920761108,-3.132418155670166,-1.5127524137496948,2.1034326553344727,2.673929452896118,0.5374814867973328,-1.8412609100341797,-1.6830933094024658,-2.0847723484039307,-0.9897308349609375,-0.5070589184761047,1.1257224082946777,0.5792865753173828,-1.1342605352401733,-3.7413909435272217,-2.797029495239258,0.3269655108451843,-0.274588942527771,-4.100850582122803,-1.4634193181991577,-0.955751895904541,-3.8550808429718018,-0.9308026432991028,3.211303472518921,0.3230816423892975,-0.8415175676345825,0.22621557116508484,1.1660957336425781,-2.5290613174438477,-1.1691821813583374,2.9106948375701904,2.3236165046691895,1.0632222890853882,5.788745403289795,0.9024309515953064,-0.020991099998354912,-0.5683340430259705,2.6502926349639893,-2.1574487686157227,-1.6105080842971802,-0.4507220983505249,-0.10173213481903076,1.2943578958511353,-0.6459774971008301,2.4785571098327637,-1.0346145629882812,-0.5664843916893005,-1.1746559143066406,-0.2027139961719513,-0.6742818355560303,1.7217649221420288,0.6140871644020081,-0.2575516402721405,1.5016071796417236,-0.7789806723594666,-1.859689474105835,0.02167334593832493,0.49840840697288513,2.7781221866607666,-1.730645775794983,-3.5720930099487305,1.5870064496994019,1.1248477697372437,-6.179289817810059,2.8253588676452637,2.6751811504364014,2.1006057262420654,-2.308932065963745,-0.855026364326477,1.9704158306121826,-0.8486605286598206,-0.6962617039680481,0.43584272265434265,2.648111343383789,-1.0809669494628906,-0.2582602798938751,0.5275973677635193,-1.0874357223510742,0.623957097530365,-0.11898162215948105,-3.6375417709350586,1.0276588201522827,1.4216917753219604,-1.1551640033721924,1.5978429317474365,-1.9328428506851196,0.2688094973564148,-0.320761114358902,1.436499834060669,-0.8801964521408081,-1.4412802457809448,0.04017946869134903,1.2609901428222656,-1.059503197669983,1.355161428451538,-1.575297236442566,0.002977194730192423,-0.7561444640159607,-1.5755397081375122,-0.40243998169898987,1.5872293710708618,0.792878270149231,-0.8479112982749939,-1.5988370180130005,0.6617624163627625,0.9683534502983093,-0.29591771960258484,-1.3021857738494873,0.19339285790920258,-0.09158331155776978,3.9397330284118652,0.8000746965408325,1.7624083757400513,1.9672951698303223,0.41865718364715576,0.8855438828468323,1.100730061531067,1.1779265403747559,1.5902057886123657,1.4810171127319336,0.6388438940048218,0.23135119676589966,-0.5665969848632812,3.3959925174713135,-2.6772663593292236,0.0072922417894005775,0.407036155462265,0.8220630288124084,-1.6202192306518555,1.8856228590011597,-0.4548654854297638,-1.4603712558746338,0.12285584956407547,-1.050445795059204,-0.3290517032146454,0.6373498439788818,3.0427820682525635,0.5230567455291748,-1.9146300554275513,-2.870978593826294,-1.0156331062316895,-1.6753313541412354,-1.0622918605804443,-3.0349323749542236,0.06581428647041321,-2.617206573486328,-2.447054386138916,-3.7851080894470215,0.5533868670463562,-1.2876547574996948,0.8196734189987183,1.7729642391204834,1.715064287185669,2.277916193008423,1.582208514213562,3.8243257999420166,0.36554738879203796,2.1344974040985107,-1.2322468757629395,-0.3353016972541809,-1.785480260848999,-1.7339117527008057,0.7878893613815308,3.0508508682250977,2.155052661895752,-3.54606294631958,-2.6335551738739014,-0.5436913371086121,5.33279275894165,-3.083322286605835,3.905738592147827,1.128678321838379,-0.36025089025497437,2.9169204235076904,-0.9431551098823547,-2.8424453735351562,-0.09886394441127777,-1.257513403892517,-1.9182597398757935,-1.3207968473434448,1.319052815437317,-0.503388524055481,-0.4640207886695862,-3.319150447845459,0.9568850994110107,-0.3371924161911011,-2.709209680557251,-1.7863885164260864,0.9679272770881653,-0.743833601474762,1.5693765878677368,1.358807921409607,0.8684991598129272,2.279275894165039,2.5983850955963135,-3.912499189376831,-0.29206928610801697,0.8374569416046143,2.8832504749298096,-1.268192172050476,-1.8979564905166626,-3.04874849319458,-0.5043360590934753,-1.6826459169387817,-0.1716105341911316,4.0187296867370605,1.8045897483825684,-0.409347265958786,-3.760549306869507,1.258117914199829,-1.2620007991790771,-2.845590114593506,-0.5668317675590515,0.41472575068473816,1.3537627458572388,0.0485411211848259,-1.670477032661438,1.5047838687896729,0.6444096565246582,1.078384518623352,-1.1482337713241577,1.2821717262268066,1.483803153038025,0.23666055500507355,1.0636454820632935,-0.4202842712402344,-1.0255486965179443,1.072317123413086,-1.6989502906799316,-1.240727424621582,-0.8055601119995117,0.3724462389945984,-2.42531418800354,-1.5178416967391968,-0.08897154033184052,-0.09727271646261215,3.0795936584472656,1.5918140411376953,1.2081732749938965,0.47532790899276733,-1.3168954849243164,2.818317413330078,-1.3616442680358887,-0.4021769165992737,-0.9176318049430847,-0.9208446145057678,0.16607040166854858,2.047025203704834,-0.2278040051460266,-0.36685293912887573,-2.43973970413208,0.3936718702316284,-0.20033803582191467,0.9888786673545837,0.9712567925453186,1.5322344303131104,-0.10590939968824387,-1.2365392446517944,-2.2558374404907227,1.7577763795852661,-0.11769279092550278,4.537106990814209,1.5373835563659668,1.7485442161560059,-1.2069097757339478,-0.1772461086511612,-2.818293333053589,0.06879986077547073,-0.8043878078460693,-2.5708160400390625,1.9800206422805786,2.835824966430664,-0.1565825194120407,5.054662227630615,-0.40346989035606384,0.5519812107086182,0.21952269971370697,1.1062744855880737,-1.2916123867034912,1.588058590888977,1.8733474016189575,-1.1652758121490479,4.206172466278076,0.5393670201301575,-0.30045804381370544,-0.7972117066383362,-1.8333675861358643,1.3390119075775146,-1.5664892196655273,-1.6077404022216797,0.9450522065162659,0.6090235114097595,1.8491309881210327,0.33954328298568726,-2.6452364921569824,-3.7730484008789062,-2.618029832839966,-0.5286537408828735,1.795408844947815,-1.9444268941879272,-0.25654879212379456,-4.5614495277404785,-1.50663423538208,-3.305372953414917,-1.0620710849761963,3.976410150527954,2.7407968044281006,-3.331989288330078,-0.5014386773109436,2.7545173168182373,-2.3105239868164062,-1.3694814443588257,-0.5145271420478821,-2.8713879585266113]},"outputBias":{"rows":20,"columns":1,"weights":[-0.3999873399734497,-3.0244572162628174,-0.7503253817558289,-0.9116626977920532,-0.5436953902244568,-0.7542558312416077,-0.8485194444656372,0.007212544791400433,-0.8680506944656372,-0.39574864506721497,-0.7436039447784424,-0.49649086594581604,-0.8075774312019348,0.22018003463745117,1.1716053485870361,-0.14565184712409973,-2.373655319213867,-0.42416661977767944,-1.7534488439559937,-1.1371829509735107]},"cellActivationMatrix":{"rows":20,"columns":35,"weights":[-0.9852715730667114,1.3790175914764404,0.22246870398521423,1.6992061138153076,-0.8770925402641296,-0.8079819083213806,-0.39301949739456177,-0.6101350784301758,1.8954756259918213,0.5148925185203552,-0.15179987251758575,-1.207233190536499,-1.6171362400054932,0.08862431347370148,-0.8454726338386536,0.7909398078918457,0.7983524203300476,-0.0811869353055954,-0.3160586655139923,-2.11086368560791,-0.1739051342010498,0.19382786750793457,-0.807288408279419,0.48224496841430664,-0.3025414049625397,0.4358865022659302,-0.07457657903432846,-0.45879390835762024,0.6945841908454895,0.3838021755218506,0.5503482222557068,-1.220737099647522,-0.8174426555633545,0.374986857175827,-1.1065905094146729,0.5820931196212769,-0.9588540196418762,-0.026597974821925163,0.3555056154727936,0.8536615371704102,-0.2955668866634369,0.428591787815094,2.939356803894043,-1.974594235420227,-0.8563809990882874,-0.7039758563041687,1.4825966358184814,1.0539476871490479,0.9500170946121216,0.7545915246009827,-1.7358719110488892,-0.24991604685783386,-1.144300103187561,-0.08227965235710144,0.47099101543426514,0.9415714740753174,1.24222731590271,1.1916042566299438,1.0584745407104492,0.7751323580741882,0.40071186423301697,-2.1372148990631104,0.14376243948936462,-1.721113920211792,0.32324641942977905,-0.8890920281410217,-0.7050454020500183,1.0515156984329224,-1.4575014114379883,1.1826778650283813,1.8709152936935425,0.31644493341445923,1.6458131074905396,0.823205292224884,0.5456575751304626,-0.19106844067573547,1.6925204992294312,0.7888550162315369,-0.30035415291786194,0.3171950578689575,0.4465234875679016,-0.6296761631965637,0.05506786331534386,-0.02863859198987484,1.4615859985351562,0.3149026930332184,-0.3495463728904724,-0.27423930168151855,1.2749032974243164,1.9205821752548218,-0.3109501004219055,0.05932288244366646,0.8292393684387207,-1.885472059249878,0.024006661027669907,-1.2027530670166016,-2.232651472091675,1.1985819339752197,0.30586713552474976,0.4012708365917206,-0.15810233354568481,2.7241036891937256,0.18990428745746613,0.046034879982471466,0.3488598167896271,0.5249025821685791,1.2763121128082275,0.6765257120132446,-0.16093799471855164,0.7052967548370361,-0.4686267375946045,0.08263106644153595,0.9966610670089722,0.19408255815505981,-0.787176251411438,0.29897090792655945,-0.19498421251773834,0.6259653568267822,-0.33603614568710327,0.7497695684432983,0.5427644848823547,-1.9468837976455688,0.1502179652452469,0.5890021324157715,0.3167550265789032,0.7170513868331909,-2.4613418579101562,-0.4334086775779724,0.9002139568328857,-0.055392030626535416,-1.0319184064865112,0.19933514297008514,0.9560652375221252,0.4297281801700592,-0.5506274104118347,-1.1360129117965698,-0.958145260810852,0.982195258140564,0.855952262878418,-1.1186720132827759,-0.9951403141021729,1.9656316041946411,-0.7142639756202698,2.3345446586608887,-0.09555748850107193,0.1472858190536499,0.8637179732322693,-1.6872351169586182,0.7208160758018494,-1.3403940200805664,-1.1965200901031494,-0.7812609672546387,0.1636485904455185,-0.30613961815834045,0.30619966983795166,